{"learner":{"attributes":{"best_iteration":"12","best_score":"0.6838162933579663"},"feature_names":["ret_1bar","ret_4bar","ret_16bar","ret_96bar","ret_8bar","ret_32bar","ret_64bar","range_pos_6h","range_pos_12h","range_pos_24h","vwap_dev_4h","vwap_dev_12h","vwap_dev_24h","atr_3h_pct","atr_12h_pct","atr_24h_pct","vol_ratio_short","vol_ratio_long","rsi_14","bb_pos","vol_zscore","cos_hour","sin_hour","cos_dow","pullback_high_4h","pullback_low_4h","pullback_high_12h","pullback_low_12h","pullback_high_24h","pullback_low_24h","spread_zscore","consec_up","consec_down","multi_scale_consensus","daily_sma50","daily_sma100","daily_ret_5d"],"feature_types":[],"gradient_booster":{"model":{"cats":{"enc":[],"feature_segments":[],"sorted_idx":[]},"gbtree_model_param":{"num_parallel_tree":"1","num_trees":"43"},"iteration_indptr":[0,1,2,3,4,5,6,7,8,9,10,11,12,13,14,15,16,17,18,19,20,21,22,23,24,25,26,27,28,29,30,31,32,33,34,35,36,37,38,39,40,41,42,43],"tree_info":[0,0,0,0,0,0,0,0,0,0,0,0,0,0,0,0,0,0,0,0,0,0,0,0,0,0,0,0,0,0,0,0,0,0,0,0,0,0,0,0,0,0,0],"trees":[{"base_weights":[-1.9098894E-3,5.125859E-1,-4.276289E-1,7.8256077E-1,2.5005084E-1,-2.0761842E-1,-7.26904E-1,1.009085E0,6.139151E-1,9.057999E-2,5.4480624E-1,-3.6990544E-1,-3.5596784E-2,-5.9306955E-1,-9.876287E-1,6.955215E-3,1.1863966E-2,3.9362707E-3,8.086164E-3,-9.1552205E-4,1.685952E-3,3.808999E-3,7.3494115E-3,-2.8177223E-3,-6.379927E-3,2.0956658E-3,-1.5834556E-3,-7.3689944E-3,-4.0193666E-3,-5.4299347E-3,-1.0967881E-2],"categories":[],"categories_nodes":[],"categories_segments":[],"categories_sizes":[],"default_left":[0,0,0,0,0,0,0,0,0,0,0,0,0,0,0,0,0,0,0,0,0,0,0,0,0,0,0,0,0,0,0],"id":0,"left_children":[1,3,5,7,9,11,13,15,17,19,21,23,25,27,29,-1,-1,-1,-1,-1,-1,-1,-1,-1,-1,-1,-1,-1,-1,-1,-1],"loss_changes":[7.517615E3,1.096251E3,1.2325796E3,2.8119043E2,3.6884097E2,3.0144183E2,2.6677832E2,1.6633667E2,1.8271924E2,7.347263E1,7.999805E1,1.2706976E2,1.592281E2,1.3892175E2,1.1889746E2,0E0,0E0,0E0,0E0,0E0,0E0,0E0,0E0,0E0,0E0,0E0,0E0,0E0,0E0,0E0,0E0],"parents":[2147483647,0,0,1,1,2,2,3,3,4,4,5,5,6,6,7,7,8,8,9,9,10,10,11,11,12,12,13,13,14,14],"right_children":[2,4,6,8,10,12,14,16,18,20,22,24,26,28,30,-1,-1,-1,-1,-1,-1,-1,-1,-1,-1,-1,-1,-1,-1,-1,-1],"split_conditions":[-3.1813112E-4,-2.8493553E-3,4.3029105E-3,-8.0006905E-3,3.391838E-2,3.0296242E-1,9.535712E-3,-1.9509032E-1,-1.0061831E-3,-1.1587662E-3,2.6590753E0,1.7982214E-3,1.0081114E-3,7.8770483E-4,-6.593458E-1,6.955215E-3,1.1863966E-2,3.9362707E-3,8.086164E-3,-9.1552205E-4,1.685952E-3,3.808999E-3,7.3494115E-3,-2.8177223E-3,-6.379927E-3,2.0956658E-3,-1.5834556E-3,-7.3689944E-3,-4.0193666E-3,-5.4299347E-3,-1.0967881E-2],"split_indices":[12,12,6,6,19,19,6,21,10,10,27,12,12,10,21,0,0,0,0,0,0,0,0,0,0,0,0,0,0,0,0],"split_type":[0,0,0,0,0,0,0,0,0,0,0,0,0,0,0,0,0,0,0,0,0,0,0,0,0,0,0,0,0,0,0],"sum_hessian":[3.4303367E4,1.5528077E4,1.8775291E4,7.640165E3,7.887912E3,1.0836129E4,7.9391616E3,3.2317139E3,4.4084507E3,5.133693E3,2.7542192E3,5.560938E3,5.2751914E3,5.2754414E3,2.6637202E3,1.1912367E3,2.0404773E3,2.0897268E3,2.318724E3,1.527483E3,3.6062097E3,1.5037333E3,1.2504861E3,4.208953E3,1.351985E3,1.7494805E3,3.5257107E3,2.9849668E3,2.2904744E3,5.4224396E2,2.1214763E3],"tree_param":{"num_deleted":"0","num_feature":"37","num_nodes":"31","size_leaf_vector":"1"}},{"base_weights":[1.64356E-5,5.411356E-1,-4.2465162E-1,3.0686814E-1,9.451124E-1,-2.493008E-1,-7.5614876E-1,1.7555359E-1,4.9152717E-1,1.0816711E0,7.549658E-1,-3.8799322E-1,-6.507768E-2,-6.197128E-1,-9.7490907E-1,2.5021024E-3,-5.4862007E-4,3.1817292E-3,7.2408128E-3,8.537954E-3,1.15926545E-2,8.565646E-3,1.9057171E-3,-2.9129407E-3,-6.5176305E-3,1.9414299E-3,-2.7149601E-3,-7.490866E-3,-4.0052435E-3,-1.1301358E-2,-7.929123E-3],"categories":[],"categories_nodes":[],"categories_segments":[],"categories_sizes":[],"default_left":[0,0,0,0,0,0,0,0,0,0,0,0,0,0,0,0,0,0,0,0,0,0,0,0,0,0,0,0,0,0,0],"id":1,"left_children":[1,3,5,7,9,11,13,15,17,19,21,23,25,27,29,-1,-1,-1,-1,-1,-1,-1,-1,-1,-1,-1,-1,-1,-1,-1,-1],"loss_changes":[7.9207417E3,1.4279404E3,1.1174619E3,2.302649E2,1.3055273E2,3.2158044E2,1.882273E2,9.780676E1,1.5503961E2,4.0653564E1,1.3078198E2,1.7904712E2,2.9259964E2,1.1104443E2,5.6908936E1,0E0,0E0,0E0,0E0,0E0,0E0,0E0,0E0,0E0,0E0,0E0,0E0,0E0,0E0,0E0,0E0],"parents":[2147483647,0,0,1,1,2,2,3,3,4,4,5,5,6,6,7,7,8,8,9,9,10,10,11,11,12,12,13,13,14,14],"right_children":[2,4,6,8,10,12,14,16,18,20,22,24,26,28,30,-1,-1,-1,-1,-1,-1,-1,-1,-1,-1,-1,-1,-1,-1,-1,-1],"split_conditions":[4.3807656E-1,8.78714E0,5.185413E-3,-1.5585998E-4,-7.151694E-3,7.485861E-1,9.774256E-3,3.1573075E-1,6.4869127E0,2.8187773E-1,4.573717E0,1.7982214E-3,7.652894E-1,1.0791492E-3,1.2118868E-3,2.5021024E-3,-5.4862007E-4,3.1817292E-3,7.2408128E-3,8.537954E-3,1.15926545E-2,8.565646E-3,1.9057171E-3,-2.9129407E-3,-6.5176305E-3,1.9414299E-3,-2.7149601E-3,-7.490866E-3,-4.0052435E-3,-1.1301358E-2,-7.929123E-3],"split_indices":[9,28,6,10,6,7,6,9,28,27,24,12,9,10,10,0,0,0,0,0,0,0,0,0,0,0,0,0,0,0,0],"split_type":[0,0,0,0,0,0,0,0,0,0,0,0,0,0,0,0,0,0,0,0,0,0,0,0,0,0,0,0,0,0,0],"sum_hessian":[3.444706E4,1.514868E4,1.929838E4,9.604196E3,5.544483E3,1.2639226E4,6.659155E3,5.633711E3,3.9704858E3,3.1904878E3,2.353995E3,7.1950693E3,5.4441562E3,4.133331E3,2.5258237E3,4.2642256E3,1.3694852E3,2.2957402E3,1.6747456E3,8.5074756E2,2.3397402E3,1.985996E3,3.6799905E2,5.288646E3,1.9064231E3,2.4072222E3,3.0369343E3,2.5753777E3,1.5579532E3,1.3261536E3,1.1996702E3],"tree_param":{"num_deleted":"0","num_feature":"37","num_nodes":"31","size_leaf_vector":"1"}},{"base_weights":[1.8708077E-3,6.1985177E-1,-5.0149816E-1,9.487711E-1,3.7296337E-1,-2.661017E-1,-9.285986E-1,7.158966E-1,1.0991303E0,5.1013225E-1,2.1571356E-1,-9.831896E-2,-4.525513E-1,-8.0845153E-1,-1.1210938E0,5.5708983E-3,8.440565E-3,7.4688136E-3,1.2706492E-2,2.0996486E-3,5.583096E-3,1.0506071E-3,4.26187E-3,-2.5272616E-3,5.5366698E-5,-5.3088283E-3,-2.066095E-3,-8.967892E-3,-5.1523894E-3,-7.152258E-3,-1.195752E-2],"categories":[],"categories_nodes":[],"categories_segments":[],"categories_sizes":[],"default_left":[0,0,0,0,0,0,0,0,0,0,0,0,0,0,0,0,0,0,0,0,0,0,0,0,0,0,0,0,0,0,0],"id":2,"left_children":[1,3,5,7,9,11,13,15,17,19,21,23,25,27,29,-1,-1,-1,-1,-1,-1,-1,-1,-1,-1,-1,-1,-1,-1,-1,-1],"loss_changes":[1.0733659E4,1.2505E3,1.9054482E3,2.1885352E2,1.8806506E2,3.81925E2,1.411914E2,4.4784058E1,2.2628369E2,6.478662E1,9.485295E1,1.0471033E2,1.0848877E2,9.99209E1,6.320752E1,0E0,0E0,0E0,0E0,0E0,0E0,0E0,0E0,0E0,0E0,0E0,0E0,0E0,0E0,0E0,0E0],"parents":[2147483647,0,0,1,1,2,2,3,3,4,4,5,5,6,6,7,7,8,8,9,9,10,10,11,11,12,12,13,13,14,14],"right_children":[2,4,6,8,10,12,14,16,18,20,22,24,26,28,30,-1,-1,-1,-1,-1,-1,-1,-1,-1,-1,-1,-1,-1,-1,-1,-1],"split_conditions":[-5.8557873E-4,-6.2281103E-3,6.6102236E-3,9.323592E0,-2.7907945E-3,2.762317E-3,1.2438302E-2,3.3245698E-1,-5E-1,-1.6682893E-3,5.5334766E1,-1.9213707E-4,1.0791492E-3,1.5703517E-3,-8.660254E-1,5.5708983E-3,8.440565E-3,7.4688136E-3,1.2706492E-2,2.0996486E-3,5.583096E-3,1.0506071E-3,4.26187E-3,-2.5272616E-3,5.5366698E-5,-5.3088283E-3,-2.066095E-3,-8.967892E-3,-5.1523894E-3,-7.152258E-3,-1.195752E-2],"split_indices":[3,3,3,28,3,3,3,7,21,10,18,10,10,10,21,0,0,0,0,0,0,0,0,0,0,0,0,0,0,0,0],"split_type":[0,0,0,0,0,0,0,0,0,0,0,0,0,0,0,0,0,0,0,0,0,0,0,0,0,0,0,0,0,0,0],"sum_hessian":[3.44842E4,1.548144E4,1.900276E4,6.6205596E3,8.860882E3,1.2265746E4,6.7370146E3,2.6279644E3,3.992595E3,4.7104443E3,4.150437E3,6.4725635E3,5.793182E3,4.18962E3,2.5473943E3,1.2079879E3,1.4199766E3,1.3307223E3,2.6618728E3,6.674945E2,4.04295E3,2.7394583E3,1.4109786E3,2.6086736E3,3.86389E3,4.3757417E3,1.4174408E3,3.1959446E3,9.9367554E2,4.184639E2,2.1289304E3],"tree_param":{"num_deleted":"0","num_feature":"37","num_nodes":"31","size_leaf_vector":"1"}},{"base_weights":[1.981494E-3,6.087438E-1,-4.9329907E-1,1.0028884E0,4.053875E-1,-2.6329952E-1,-9.127698E-1,6.603297E-1,1.1507065E0,5.4606307E-1,1.9987282E-1,-1.00139104E-1,-4.5153174E-1,-6.578162E-1,-1.0022258E0,7.0024696E-3,1.28179E-3,8.637049E-3,1.3012044E-2,3.5908197E-3,6.2744883E-3,3.066844E-4,3.319944E-3,1.0404556E-4,-2.454361E-3,-5.4583256E-3,-2.387368E-3,-4.651365E-3,-8.012005E-3,-8.775364E-3,-1.1648652E-2],"categories":[],"categories_nodes":[],"categories_segments":[],"categories_sizes":[],"default_left":[0,0,0,0,0,0,0,0,0,0,0,0,0,0,0,0,0,0,0,0,0,0,0,0,0,0,0,0,0,0,0],"id":3,"left_children":[1,3,5,7,9,11,13,15,17,19,21,23,25,27,29,-1,-1,-1,-1,-1,-1,-1,-1,-1,-1,-1,-1,-1,-1,-1,-1],"loss_changes":[1.0338284E4,1.2310942E3,1.8211206E3,2.5285693E2,2.9219897E2,3.741078E2,1.411836E2,3.0867981E1,1.3985742E2,8.691235E1,9.221611E1,1.06468895E2,1.10251465E2,4.158069E1,8.36333E1,0E0,0E0,0E0,0E0,0E0,0E0,0E0,0E0,0E0,0E0,0E0,0E0,0E0,0E0,0E0,0E0],"parents":[2147483647,0,0,1,1,2,2,3,3,4,4,5,5,6,6,7,7,8,8,9,9,10,10,11,11,12,12,13,13,14,14],"right_children":[2,4,6,8,10,12,14,16,18,20,22,24,26,28,30,-1,-1,-1,-1,-1,-1,-1,-1,-1,-1,-1,-1,-1,-1,-1,-1],"split_conditions":[-5.8557873E-4,-7.5318157E-3,6.6102236E-3,-6.087614E-1,-2.7907945E-3,2.8384908E-3,-7.0710677E-1,2.244871E-3,9.709741E0,-8.4997027E-4,-2.1568542E-4,1.2572262E0,5.156452E-1,1.0095789E-2,1.1851098E-2,7.0024696E-3,1.28179E-3,8.637049E-3,1.3012044E-2,3.5908197E-3,6.2744883E-3,3.066844E-4,3.319944E-3,1.0404556E-4,-2.454361E-3,-5.4583256E-3,-2.387368E-3,-4.651365E-3,-8.012005E-3,-8.775364E-3,-1.1648652E-2],"split_indices":[3,3,3,21,3,3,21,15,28,10,10,24,19,3,3,0,0,0,0,0,0,0,0,0,0,0,0,0,0,0,0],"split_type":[0,0,0,0,0,0,0,0,0,0,0,0,0,0,0,0,0,0,0,0,0,0,0,0,0,0,0,0,0,0,0],"sum_hessian":[3.4380453E4,1.545297E4,1.8927482E4,5.240934E3,1.0212036E4,1.2239748E4,6.687734E3,1.6024136E3,3.6385205E3,6.0438384E3,4.1681978E3,6.57327E3,5.666478E3,1.7674603E3,4.9202734E3,1.4824192E3,1.19994446E2,1.2816741E3,2.3568464E3,1.8604662E3,4.183372E3,1.8429768E3,2.3252207E3,3.7266372E3,2.8466328E3,3.9058418E3,1.7606364E3,7.8113477E2,9.8632556E2,2.8317126E3,2.088561E3],"tree_param":{"num_deleted":"0","num_feature":"37","num_nodes":"31","size_leaf_vector":"1"}},{"base_weights":[2.2923157E-3,6.056877E-1,-4.9204648E-1,9.3292946E-1,3.606364E-1,-2.5662744E-1,-9.192325E-1,1.0885348E0,7.6629156E-1,4.6279982E-1,1.3742721E-1,-9.756353E-2,-4.410786E-1,-7.871504E-1,-1.0827549E0,1.1593412E-2,9.283124E-3,6.3102925E-3,8.869827E-3,5.779921E-3,3.4704818E-3,3.7379104E-3,6.9155544E-4,-8.989533E-5,-2.2617392E-3,-4.9263136E-3,-9.386585E-4,-8.392514E-3,-3.6910644E-3,-1.1255485E-2,-5.1641786E-3],"categories":[],"categories_nodes":[],"categories_segments":[],"categories_sizes":[],"default_left":[0,0,0,0,0,0,0,0,0,0,0,0,0,0,0,0,0,0,0,0,0,0,0,0,0,0,0,0,0,0,0],"id":4,"left_children":[1,3,5,7,9,11,13,15,17,19,21,23,25,27,29,-1,-1,-1,-1,-1,-1,-1,-1,-1,-1,-1,-1,-1,-1,-1,-1],"loss_changes":[1.027211E4,1.2365474E3,1.8974688E3,1.5800537E2,2.0030066E2,3.5648834E2,1.3092041E2,2.1493896E1,4.2815674E1,7.6361694E1,4.3837578E1,7.42673E1,9.8857666E1,7.521289E1,6.109668E1,0E0,0E0,0E0,0E0,0E0,0E0,0E0,0E0,0E0,0E0,0E0,0E0,0E0,0E0,0E0,0E0],"parents":[2147483647,0,0,1,1,2,2,3,3,4,4,5,5,6,6,7,7,8,8,9,9,10,10,11,11,12,12,13,13,14,14],"right_children":[2,4,6,8,10,12,14,16,18,20,22,24,26,28,30,-1,-1,-1,-1,-1,-1,-1,-1,-1,-1,-1,-1,-1,-1,-1,-1],"split_conditions":[-5.8557873E-4,-6.2281103E-3,6.6102236E-3,-1.000506E-2,-2.0542608E-3,2.8384908E-3,1.15704425E-2,2.7655604E-1,-1.0271729E-3,1.3217385E0,3.2705876E-1,1.3472584E0,3.4039305E-3,5.0790613E-3,6.6417016E-2,1.1593412E-2,9.283124E-3,6.3102925E-3,8.869827E-3,5.779921E-3,3.4704818E-3,3.7379104E-3,6.9155544E-4,-8.989533E-5,-2.2617392E-3,-4.9263136E-3,-9.386585E-4,-8.392514E-3,-3.6910644E-3,-1.1255485E-2,-5.1641786E-3],"split_indices":[3,3,3,3,3,3,3,20,2,24,24,24,2,11,34,0,0,0,0,0,0,0,0,0,0,0,0,0,0,0,0],"split_type":[0,0,0,0,0,0,0,0,0,0,0,0,0,0,0,0,0,0,0,0,0,0,0,0,0,0,0,0,0,0,0],"sum_hessian":[3.441648E4,1.5500372E4,1.8916107E4,6.6198726E3,8.8805E3,1.2210193E4,6.705915E3,3.385338E3,3.2345344E3,6.075537E3,2.804963E3,6.573232E3,5.6369614E3,3.7518845E3,2.9540305E3,2.2915588E3,1.093779E3,1.5662882E3,1.6682463E3,3.0121199E3,3.063417E3,6.0874164E2,2.1962212E3,3.912629E3,2.660603E3,4.8970396E3,7.3992163E2,3.3207644E3,4.3112012E2,2.732394E3,2.2163654E2],"tree_param":{"num_deleted":"0","num_feature":"37","num_nodes":"31","size_leaf_vector":"1"}},{"base_weights":[3.3246966E-3,5.134003E-1,-4.1405192E-1,2.5956658E-1,8.7408507E-1,-2.6567328E-1,-9.6553993E-1,1.482945E-1,4.867339E-1,7.471944E-1,1.1159997E0,-1.1806027E-1,-4.4736025E-1,-8.7348735E-1,-1.32724E0,2.1892567E-3,-4.312702E-4,3.475873E-3,7.3434254E-3,5.5066883E-3,8.873074E-3,8.770138E-3,1.2388537E-2,-2.56431E-3,6.9342536E-4,-5.801998E-3,-1.7430283E-3,-1.0010265E-2,-6.2046605E-3,-1.4439082E-2,-9.985961E-3],"categories":[],"categories_nodes":[],"categories_segments":[],"categories_sizes":[],"default_left":[0,0,0,0,0,0,0,0,0,0,0,0,0,0,0,0,0,0,0,0,0,0,0,0,0,0,0,0,0,0,0],"id":5,"left_children":[1,3,5,7,9,11,13,15,17,19,21,23,25,27,29,-1,-1,-1,-1,-1,-1,-1,-1,-1,-1,-1,-1,-1,-1,-1,-1],"loss_changes":[7.3309946E3,1.413342E3,1.5431284E3,2.2780627E2,1.8231592E2,3.984093E2,1.1519263E2,8.366647E1,9.701117E1,1.0732715E2,4.653418E1,2.150508E2,2.3915698E2,9.3135254E1,8.424194E0,0E0,0E0,0E0,0E0,0E0,0E0,0E0,0E0,0E0,0E0,0E0,0E0,0E0,0E0,0E0,0E0],"parents":[2147483647,0,0,1,1,2,2,3,3,4,4,5,5,6,6,7,7,8,8,9,9,10,10,11,11,12,12,13,13,14,14],"right_children":[2,4,6,8,10,12,14,16,18,20,22,24,26,28,30,-1,-1,-1,-1,-1,-1,-1,-1,-1,-1,-1,-1,-1,-1,-1,-1],"split_conditions":[4.5217392E-1,8.20585E0,1.0516284E1,1.7030764E-2,1.1763364E1,6.4466805E0,1.5622719E1,3.2405043E-1,6.4869127E0,3.874693E1,-6.621582E-1,3.1837192E-1,1.0791492E-3,6.7811386E1,1.3376894E0,2.1892567E-3,-4.312702E-4,3.475873E-3,7.3434254E-3,5.5066883E-3,8.873074E-3,8.770138E-3,1.2388537E-2,-2.56431E-3,6.9342536E-4,-5.801998E-3,-1.7430283E-3,-1.0010265E-2,-6.2046605E-3,-1.4439082E-2,-9.985961E-3],"split_indices":[9,28,29,19,28,29,29,9,28,18,19,19,10,18,17,0,0,0,0,0,0,0,0,0,0,0,0,0,0,0,0],"split_type":[0,0,0,0,0,0,0,0,0,0,0,0,0,0,0,0,0,0,0,0,0,0,0,0,0,0,0,0,0,0,0],"sum_hessian":[3.441362E4,1.5489187E4,1.8924436E4,9.10618E3,6.3830073E3,1.492823E4,3.9962048E3,6.132209E3,2.9739707E3,4.2218315E3,2.1611758E3,8.254669E3,6.6735615E3,3.2193296E3,7.7687524E2,4.4897905E3,1.6424186E3,1.9271434E3,1.0468273E3,1.7866091E3,2.4352224E3,7.6969855E2,1.3914772E3,4.755628E3,3.499041E3,4.4745195E3,2.199042E3,2.1128806E3,1.1064491E3,5.415588E2,2.3531647E2],"tree_param":{"num_deleted":"0","num_feature":"37","num_nodes":"31","size_leaf_vector":"1"}},{"base_weights":[3.4857908E-4,3.7316528E-1,-5.041121E-1,7.2963816E-1,1.4989385E-1,-3.5572118E-1,-9.687372E-1,9.31646E-1,5.424677E-1,2.2441019E-1,-6.8200836E-3,-4.934496E-1,-1.04766645E-1,-8.942236E-1,-1.36475405E-2,1.1288632E-2,8.037322E-3,3.128875E-3,6.647559E-3,1.4446806E-3,3.9304467E-3,-1.9360303E-3,1.760668E-3,-3.368507E-3,-6.5449676E-3,5.510854E-3,-1.70699E-3,-9.399539E-3,-3.1674248E-3],"categories":[],"categories_nodes":[],"categories_segments":[],"categories_sizes":[],"default_left":[0,0,0,0,0,0,0,0,0,0,0,0,0,0,0,0,0,0,0,0,0,0,0,0,0,0,0,0,0],"id":6,"left_children":[1,3,5,7,9,11,13,15,17,19,21,23,25,27,-1,-1,-1,-1,-1,-1,-1,-1,-1,-1,-1,-1,-1,-1,-1],"loss_changes":[6.4623657E3,1.5692378E3,9.991926E2,2.7801172E2,1.4278448E2,3.8087744E2,8.499219E1,7.683276E1,1.06678955E2,1.09189575E2,1.3425307E2,1.7508301E2,1.7055634E2,7.250122E1,0E0,0E0,0E0,0E0,0E0,0E0,0E0,0E0,0E0,0E0,0E0,0E0,0E0,0E0,0E0],"parents":[2147483647,0,0,1,1,2,2,3,3,4,4,5,5,6,6,7,7,8,8,9,9,10,10,11,11,12,12,13,13],"right_children":[2,4,6,8,10,12,14,16,18,20,22,24,26,28,-1,-1,-1,-1,-1,-1,-1,-1,-1,-1,-1,-1,-1,-1,-1],"split_conditions":[4.987222E0,-3.980239E-3,1.0995528E1,-7.482463E-3,3.6272075E0,9.2222047E-4,1.6588888E1,1.1122256E-3,-9.839847E-4,1.3488228E-4,6.253681E-4,7.1568246E0,-1.134709E-3,7.873084E0,-1.36475405E-2,1.1288632E-2,8.037322E-3,3.128875E-3,6.647559E-3,1.4446806E-3,3.9304467E-3,-1.9360303E-3,1.760668E-3,-3.368507E-3,-6.5449676E-3,5.510854E-3,-1.70699E-3,-9.399539E-3,-3.1674248E-3],"split_indices":[29,6,29,6,29,10,29,13,10,10,11,29,6,25,0,0,0,0,0,0,0,0,0,0,0,0,0,0,0],"split_type":[0,0,0,0,0,0,0,0,0,0,0,0,0,0,0,0,0,0,0,0,0,0,0,0,0,0,0,0,0],"sum_hessian":[3.4343332E4,1.975336E4,1.4589976E4,7.5935146E3,1.2159844E4,1.10765E4,3.513475E3,3.6251675E3,3.9683472E3,8.251255E3,3.9085889E3,7.1376245E3,3.9388757E3,2.9908748E3,5.226002E2,1.3862085E3,2.238959E3,1.4000509E3,2.5682964E3,5.62232E3,2.628935E3,1.9415231E3,1.9670659E3,3.643909E3,3.4937153E3,3.4892392E2,3.589952E3,2.760779E3,2.300957E2],"tree_param":{"num_deleted":"0","num_feature":"37","num_nodes":"29","size_leaf_vector":"1"}},{"base_weights":[-5.3371442E-3,4.9384212E-1,-4.1866136E-1,5.885417E-1,1.985922E-1,-1.7548645E-1,-5.631193E-1,5.2521837E-1,9.807664E-1,-2.7251956E-3,4.7320175E-1,-3.899469E-1,1.047485E-1,-4.7365484E-1,-8.1172466E-1,4.3079173E-3,8.039238E-3,6.579611E-3,1.1019298E-2,7.022393E-4,-3.0212598E-3,5.671255E-3,2.440843E-3,-2.4490752E-3,-4.981065E-3,-1.2801511E-3,2.0604022E-3,-2.4051075E-3,-5.5044703E-3,-7.091252E-3,-1.0625362E-2],"categories":[],"categories_nodes":[],"categories_segments":[],"categories_sizes":[],"default_left":[0,0,0,0,0,0,0,0,0,0,0,0,0,0,0,0,0,0,0,0,0,0,0,0,0,0,0,0,0,0,0],"id":7,"left_children":[1,3,5,7,9,11,13,15,17,19,21,23,25,27,29,-1,-1,-1,-1,-1,-1,-1,-1,-1,-1,-1,-1,-1,-1,-1,-1],"loss_changes":[7.106652E3,4.3261914E2,6.588413E2,2.8335742E2,2.1211168E2,4.2470483E2,2.5498438E2,2.6090332E2,5.0904785E1,4.9014854E1,3.1009949E1,5.9291504E1,7.2555466E1,1.523888E2,6.699011E1,0E0,0E0,0E0,0E0,0E0,0E0,0E0,0E0,0E0,0E0,0E0,0E0,0E0,0E0,0E0,0E0],"parents":[2147483647,0,0,1,1,2,2,3,3,4,4,5,5,6,6,7,7,8,8,9,9,10,10,11,11,12,12,13,13,14,14],"right_children":[2,4,6,8,10,12,14,16,18,20,22,24,26,28,30,-1,-1,-1,-1,-1,-1,-1,-1,-1,-1,-1,-1,-1,-1,-1,-1],"split_conditions":[4.5627567E-1,3.1573075E-1,7.1703386E-1,9.238675E0,6.0044664E-1,5.781383E-1,1.6002091E0,4.676517E-1,-7.6796097E-1,3.2672777E0,9.914275E-3,2.9332752E0,6.499298E-4,8.6180955E-1,8.288087E-1,4.3079173E-3,8.039238E-3,6.579611E-3,1.1019298E-2,7.022393E-4,-3.0212598E-3,5.671255E-3,2.440843E-3,-2.4490752E-3,-4.981065E-3,-1.2801511E-3,2.0604022E-3,-2.4051075E-3,-5.5044703E-3,-7.091252E-3,-1.0625362E-2],"split_indices":[9,9,9,26,7,7,26,7,19,24,36,26,11,9,9,0,0,0,0,0,0,0,0,0,0,0,0,0,0,0,0],"split_type":[0,0,0,0,0,0,0,0,0,0,0,0,0,0,0,0,0,0,0,0,0,0,0,0,0,0,0,0,0,0,0],"sum_hessian":[3.4425395E4,1.5589029E4,1.8836363E4,1.1788006E4,3.801023E3,7.0356826E3,1.1800682E4,1.0176143E4,1.6118634E3,2.1925972E3,1.6084259E3,3.9894185E3,3.0462644E3,8.708069E3,3.0926123E3,7.6279736E3,2.5481694E3,4.6419952E2,1.1476638E3,1.7611312E3,4.3146582E2,1.1210284E3,4.8739737E2,1.7299618E3,2.2594568E3,9.139028E2,2.1323616E3,2.1774958E3,6.530573E3,2.2304407E3,8.621717E2],"tree_param":{"num_deleted":"0","num_feature":"37","num_nodes":"31","size_leaf_vector":"1"}},{"base_weights":[4.0072016E-3,-2.8711572E-1,6.4170563E-1,-4.503969E-2,-6.7729044E-1,4.108318E-1,9.3276685E-1,9.893254E-2,-2.0681831E-1,-4.7955707E-1,-9.2715055E-1,2.5975382E-1,6.823527E-1,1.0752184E0,7.1894515E-1,1.5088476E-4,2.5476909E-3,-3.6754895E-3,2.3489947E-5,-5.649098E-3,-1.6504636E-3,-8.414058E-3,-1.2076089E-2,3.0750905E-3,-5.2180868E-3,4.093459E-3,7.3707975E-3,1.1584741E-2,6.0048383E-3,3.5084481E-3,8.020918E-3],"categories":[],"categories_nodes":[],"categories_segments":[],"categories_sizes":[],"default_left":[0,0,0,0,0,0,0,0,0,0,0,0,0,0,0,0,0,0,0,0,0,0,0,0,0,0,0,0,0,0,0],"id":8,"left_children":[1,3,5,7,9,11,13,15,17,19,21,23,25,27,29,-1,-1,-1,-1,-1,-1,-1,-1,-1,-1,-1,-1,-1,-1,-1,-1],"loss_changes":[6.396708E3,2.2312495E3,7.179502E2,3.4081696E2,4.3842432E2,2.434505E2,1.3199951E2,1.00117134E2,2.3282986E2,1.3322168E2,7.94104E1,1.4683774E2,2.5643982E1,9.9645996E1,5.3210022E1,0E0,0E0,0E0,0E0,0E0,0E0,0E0,0E0,0E0,0E0,0E0,0E0,0E0,0E0,0E0,0E0],"parents":[2147483647,0,0,1,1,2,2,3,3,4,4,5,5,6,6,7,7,8,8,9,9,10,10,11,11,12,12,13,13,14,14],"right_children":[2,4,6,8,10,12,14,16,18,20,22,24,26,28,30,-1,-1,-1,-1,-1,-1,-1,-1,-1,-1,-1,-1,-1,-1,-1,-1],"split_conditions":[6.0441837E0,7.1568246E0,9.323592E0,4.2965674E0,1.0516284E1,-5.2959144E-2,1.084396E0,5.735446E-1,7.485861E-1,3.4856547E-3,1.5248543E1,4.6563954E0,6.4869127E0,-4.6672663E-3,-9.970944E-1,1.5088476E-4,2.5476909E-3,-3.6754895E-3,2.3489947E-5,-5.649098E-3,-1.6504636E-3,-8.414058E-3,-1.2076089E-2,3.0750905E-3,-5.2180868E-3,4.093459E-3,7.3707975E-3,1.1584741E-2,6.0048383E-3,3.5084481E-3,8.020918E-3],"split_indices":[28,29,28,29,29,19,16,7,7,2,29,29,28,6,19,0,0,0,0,0,0,0,0,0,0,0,0,0,0,0,0],"split_type":[0,0,0,0,0,0,0,0,0,0,0,0,0,0,0,0,0,0,0,0,0,0,0,0,0,0,0,0,0,0,0],"sum_hessian":[3.443034E4,2.3639293E4,1.0791047E4,1.4599914E4,9.039379E3,6.0369087E3,4.7541387E3,7.717337E3,6.8825767E3,5.0690522E3,3.970327E3,3.8984004E3,2.138508E3,2.820655E3,1.9334836E3,5.0373384E3,2.6799985E3,3.89574E3,2.9868367E3,3.9732742E3,1.0957781E3,3.0795205E3,8.9080634E2,3.6832493E3,2.1515105E2,3.8041492E2,1.7580933E3,2.382166E3,4.3848917E2,3.7252908E2,1.5609545E3],"tree_param":{"num_deleted":"0","num_feature":"37","num_nodes":"31","size_leaf_vector":"1"}},{"base_weights":[8.3608617E-4,6.0758066E-1,-4.5663682E-1,9.2463225E-1,4.0305555E-1,-2.3305799E-1,-8.832713E-1,1.0505193E0,7.745283E-1,5.189114E-1,2.181018E-1,-6.123538E-2,-4.042219E-1,-7.636106E-1,-1.0598787E0,1.1034254E-2,6.0621207E-3,5.0421422E-3,8.561786E-3,2.78535E-3,5.822023E-3,9.894777E-4,3.892266E-3,6.4745155E-4,-1.9416626E-3,-4.7423346E-3,-1.7777747E-3,-8.323035E-3,-3.7461019E-3,-1.1264043E-2,-6.9785663E-3],"categories":[],"categories_nodes":[],"categories_segments":[],"categories_sizes":[],"default_left":[0,0,0,0,0,0,0,0,0,0,0,0,0,0,0,0,0,0,0,0,0,0,0,0,0,0,0,0,0,0,0],"id":9,"left_children":[1,3,5,7,9,11,13,15,17,19,21,23,25,27,29,-1,-1,-1,-1,-1,-1,-1,-1,-1,-1,-1,-1,-1,-1,-1,-1],"loss_changes":[9.554173E3,9.5190137E2,1.8661416E3,9.578662E1,1.8991809E2,3.7751434E2,1.2883984E2,6.128247E1,5.0966064E1,7.98999E1,6.953439E1,1.0860171E2,9.942517E1,1.0182446E2,5.1348633E1,0E0,0E0,0E0,0E0,0E0,0E0,0E0,0E0,0E0,0E0,0E0,0E0,0E0,0E0,0E0,0E0],"parents":[2147483647,0,0,1,1,2,2,3,3,4,4,5,5,6,6,7,7,8,8,9,9,10,10,11,11,12,12,13,13,14,14],"right_children":[2,4,6,8,10,12,14,16,18,20,22,24,26,28,30,-1,-1,-1,-1,-1,-1,-1,-1,-1,-1,-1,-1,-1,-1,-1,-1],"split_conditions":[-9.212718E-4,-6.996757E-3,6.6102236E-3,-1.04794055E-2,-2.7907945E-3,2.389571E-3,1.2115812E-2,2.244871E-3,-1.8181804E-3,-1.2590693E-3,1.7040304E-4,1.0849618E0,1.0791492E-3,2.6769282E-3,2.392155E-2,1.1034254E-2,6.0621207E-3,5.0421422E-3,8.561786E-3,2.78535E-3,5.822023E-3,9.894777E-4,3.892266E-3,6.4745155E-4,-1.9416626E-3,-4.7423346E-3,-1.7777747E-3,-8.323035E-3,-3.7461019E-3,-1.1264043E-2,-6.9785663E-3],"split_indices":[3,3,3,3,3,3,3,15,4,10,10,24,10,4,36,0,0,0,0,0,0,0,0,0,0,0,0,0,0,0,0],"split_type":[0,0,0,0,0,0,0,0,0,0,0,0,0,0,0,0,0,0,0,0,0,0,0,0,0,0,0,0,0,0,0],"sum_hessian":[3.4399242E4,1.4788536E4,1.9610703E4,5.7794497E3,9.009087E3,1.2882232E4,6.728471E3,3.0997886E3,2.6796611E3,5.51819E3,3.490897E3,6.4442686E3,6.437964E3,4.0527498E3,2.6757214E3,2.7506653E3,3.491233E2,6.468093E2,2.0328518E3,1.1712467E3,4.3469434E3,2.077588E3,1.413309E3,3.2996775E3,3.144591E3,4.899085E3,1.5388788E3,3.4282522E3,6.2449756E2,2.2355195E3,4.4020203E2],"tree_param":{"num_deleted":"0","num_feature":"37","num_nodes":"31","size_leaf_vector":"1"}},{"base_weights":[4.437714E-3,5.611865E-1,-4.8017812E-1,8.181594E-1,2.7972725E-1,-2.539899E-1,-8.612866E-1,1.002302E0,6.4301795E-1,1.617211E-1,4.0618092E-1,-9.5761046E-2,-4.268004E-1,-1.0522906E0,-7.5668603E-1,7.456576E-3,1.0856906E-2,5.025213E-3,7.3629715E-3,3.074823E-3,8.3759933E-4,5.3574257E-3,2.6357633E-3,-2.3702206E-3,1.6630416E-5,-5.002505E-3,-1.7386767E-3,-1.1076153E-2,-4.9917535E-3,-6.356353E-3,-9.509003E-3],"categories":[],"categories_nodes":[],"categories_segments":[],"categories_sizes":[],"default_left":[0,0,0,0,0,0,0,0,0,0,0,0,0,0,0,0,0,0,0,0,0,0,0,0,0,0,0,0,0,0,0],"id":10,"left_children":[1,3,5,7,9,11,13,15,17,19,21,23,25,27,29,-1,-1,-1,-1,-1,-1,-1,-1,-1,-1,-1,-1,-1,-1,-1,-1],"loss_changes":[9.288516E3,1.1533359E3,1.5807695E3,2.584048E2,1.1206421E2,3.143167E2,1.2336279E2,7.31189E1,4.9246704E1,4.3971222E1,6.4230774E1,8.41145E1,9.9601685E1,6.267383E1,9.424878E1,0E0,0E0,0E0,0E0,0E0,0E0,0E0,0E0,0E0,0E0,0E0,0E0,0E0,0E0,0E0,0E0],"parents":[2147483647,0,0,1,1,2,2,3,3,4,4,5,5,6,6,7,7,8,8,9,9,10,10,11,11,12,12,13,13,14,14],"right_children":[2,4,6,8,10,12,14,16,18,20,22,24,26,28,30,-1,-1,-1,-1,-1,-1,-1,-1,-1,-1,-1,-1,-1,-1,-1,-1],"split_conditions":[-3.1653082E-4,-4.776076E-3,6.4931153E-3,-8.975409E-3,-7.871634E-2,2.8384908E-3,8.4076554E-1,9.323592E0,-6.364088E-4,-3.123623E-3,-2.1312444E-3,-1.6827641E-4,6.4588565E-1,5.249074E-2,1.2438302E-2,7.456576E-3,1.0856906E-2,5.025213E-3,7.3629715E-3,3.074823E-3,8.3759933E-4,5.3574257E-3,2.6357633E-3,-2.3702206E-3,1.6630416E-5,-5.002505E-3,-1.7386767E-3,-1.1076153E-2,-4.9917535E-3,-6.356353E-3,-9.509003E-3],"split_indices":[3,3,3,3,19,3,16,28,10,3,3,10,19,34,3,0,0,0,0,0,0,0,0,0,0,0,0,0,0,0,0],"split_type":[0,0,0,0,0,0,0,0,0,0,0,0,0,0,0,0,0,0,0,0,0,0,0,0,0,0,0,0,0,0,0],"sum_hessian":[3.440534E4,1.6013226E4,1.8392115E4,8.355191E3,7.658034E3,1.1557352E4,6.8347627E3,4.0415618E3,4.31363E3,3.9853926E3,3.6726416E3,6.050391E3,5.5069604E3,2.3762942E3,4.4584688E3,1.0243431E3,3.0172188E3,1.7595066E3,2.554123E3,1.3651323E3,2.6202603E3,1.8988547E3,1.7737867E3,2.4763079E3,3.5740833E3,4.2508896E3,1.256071E3,2.146176E3,2.3011818E2,2.782411E3,1.6760576E3],"tree_param":{"num_deleted":"0","num_feature":"37","num_nodes":"31","size_leaf_vector":"1"}},{"base_weights":[-1.4999857E-3,5.680372E-1,-4.6748358E-1,8.79577E-1,3.4547764E-1,-2.4929616E-1,-8.6161643E-1,6.6765505E-1,1.0116947E0,4.7256282E-1,1.877369E-1,-6.393944E-2,-4.005088E-1,-1.0763533E0,-7.4993396E-1,3.7306526E-3,7.4148397E-3,1.1893546E-2,8.438122E-3,5.6371633E-3,3.4470528E-3,8.4804726E-4,3.7744038E-3,-2.2819655E-3,2.659112E-4,-4.8588044E-3,-1.9732772E-3,-1.1449277E-2,-5.068584E-3,-6.1575244E-3,-9.296156E-3],"categories":[],"categories_nodes":[],"categories_segments":[],"categories_sizes":[],"default_left":[0,0,0,0,0,0,0,0,0,0,0,0,0,0,0,0,0,0,0,0,0,0,0,0,0,0,0,0,0,0,0],"id":11,"left_children":[1,3,5,7,9,11,13,15,17,19,21,23,25,27,29,-1,-1,-1,-1,-1,-1,-1,-1,-1,-1,-1,-1,-1,-1,-1,-1],"loss_changes":[9.11671E3,1.0649297E3,1.6195493E3,1.6819238E2,1.783009E2,3.398001E2,1.4771924E2,4.8409668E1,1.0112891E2,5.3464233E1,7.756119E1,8.236348E1,1.1317932E2,7.783618E1,9.731299E1,0E0,0E0,0E0,0E0,0E0,0E0,0E0,0E0,0E0,0E0,0E0,0E0,0E0,0E0,0E0,0E0],"parents":[2147483647,0,0,1,1,2,2,3,3,4,4,5,5,6,6,7,7,8,8,9,9,10,10,11,11,12,12,13,13,14,14],"right_children":[2,4,6,8,10,12,14,16,18,20,22,24,26,28,30,-1,-1,-1,-1,-1,-1,-1,-1,-1,-1,-1,-1,-1,-1,-1,-1],"split_conditions":[-5.8557873E-4,-6.352999E-3,6.6102236E-3,9.323592E0,-2.711049E-3,2.2433714E-3,8.334297E-1,9.698814E-2,9.5861393E-1,1.0565107E0,2.4148451E-1,-2.6695436E-1,5.226259E-1,2.3221022E-2,1.1851098E-2,3.7306526E-3,7.4148397E-3,1.1893546E-2,8.438122E-3,5.6371633E-3,3.4470528E-3,8.4804726E-4,3.7744038E-3,-2.2819655E-3,2.659112E-4,-4.8588044E-3,-1.9732772E-3,-1.1449277E-2,-5.068584E-3,-6.1575244E-3,-9.296156E-3],"split_indices":[3,3,3,28,3,3,16,9,16,16,19,19,19,36,3,0,0,0,0,0,0,0,0,0,0,0,0,0,0,0,0],"split_type":[0,0,0,0,0,0,0,0,0,0,0,0,0,0,0,0,0,0,0,0,0,0,0,0,0,0,0,0,0,0,0],"sum_hessian":[3.433261E4,1.5445766E4,1.8886842E4,6.418343E3,9.027423E3,1.2172322E4,6.7145205E3,2.4967314E3,3.9216116E3,4.9779316E3,4.049491E3,5.4840415E3,6.6882803E3,2.2585898E3,4.4559307E3,5.206031E2,1.9761284E3,1.8670791E3,2.0545325E3,2.872492E3,2.1054397E3,2.6447483E3,1.4047428E3,1.954948E3,3.5290935E3,4.6892812E3,1.9989993E3,2.0021353E3,2.5645468E2,2.585851E3,1.8700797E3],"tree_param":{"num_deleted":"0","num_feature":"37","num_nodes":"31","size_leaf_vector":"1"}},{"base_weights":[-3.5641873E-3,4.8133987E-1,-5.4334456E-1,7.869335E-1,1.869599E-1,-3.2539544E-1,-8.539653E-1,9.847912E-1,6.181949E-1,3.108146E-1,4.8444983E-2,-2.1916653E-1,-4.6910718E-1,-6.494809E-1,-9.644215E-1,6.7853592E-3,1.14849275E-2,7.369025E-3,4.99556E-3,2.2119356E-3,5.221487E-3,-2.8931948E-3,1.0805838E-3,-9.1806834E-4,-3.675927E-3,-5.143413E-3,-7.11459E-4,-5.2703926E-3,-8.369247E-3,-8.921816E-3,-1.1786445E-2],"categories":[],"categories_nodes":[],"categories_segments":[],"categories_sizes":[],"default_left":[0,0,0,0,0,0,0,0,0,0,0,0,0,0,0,0,0,0,0,0,0,0,0,0,0,0,0,0,0,0,0],"id":12,"left_children":[1,3,5,7,9,11,13,15,17,19,21,23,25,27,29,-1,-1,-1,-1,-1,-1,-1,-1,-1,-1,-1,-1,-1,-1,-1,-1],"loss_changes":[9.010355E3,1.626669E3,1.0967158E3,2.8583496E2,1.57513E2,1.4341296E2,1.4036914E2,1.9056763E2,6.0659546E1,8.888516E1,8.818803E1,1.0317407E2,7.092688E1,4.640094E1,5.0190918E1,0E0,0E0,0E0,0E0,0E0,0E0,0E0,0E0,0E0,0E0,0E0,0E0,0E0,0E0,0E0,0E0],"parents":[2147483647,0,0,1,1,2,2,3,3,4,4,5,5,6,6,7,7,8,8,9,9,10,10,11,11,12,12,13,13,14,14],"right_children":[2,4,6,8,10,12,14,16,18,20,22,24,26,28,30,-1,-1,-1,-1,-1,-1,-1,-1,-1,-1,-1,-1,-1,-1,-1,-1],"split_conditions":[7.591289E-4,-4.382188E-3,6.6102236E-3,-8.975409E-3,-1.4844296E-3,3.7553855E-3,-5E-1,-5E-1,1.4919854E0,5.8423425E-4,-1.5652687E-3,1.1078007E0,4.0536476E-3,1.2438302E-2,1.4929455E-2,6.7853592E-3,1.14849275E-2,7.369025E-3,4.99556E-3,2.2119356E-3,5.221487E-3,-2.8931948E-3,1.0805838E-3,-9.1806834E-4,-3.675927E-3,-5.143413E-3,-7.11459E-4,-5.2703926E-3,-8.369247E-3,-8.921816E-3,-1.1786445E-2],"split_indices":[3,3,3,3,3,3,21,21,24,4,4,24,2,3,3,0,0,0,0,0,0,0,0,0,0,0,0,0,0,0,0],"split_type":[0,0,0,0,0,0,0,0,0,0,0,0,0,0,0,0,0,0,0,0,0,0,0,0,0,0,0,0,0,0,0],"sum_hessian":[3.4403906E4,1.8120836E4,1.6283071E4,8.877866E3,9.242969E3,9.58666E3,6.696411E3,4.0559E3,4.821967E3,4.861715E3,4.3812544E3,5.538693E3,4.0479675E3,2.3822263E3,4.314185E3,1.4371095E3,2.6187905E3,2.3715967E3,2.4503699E3,3.4382917E3,1.4234233E3,6.4393225E2,3.737322E3,3.0004775E3,2.5382153E3,3.6254226E3,4.2254486E2,1.473701E3,9.0852515E2,3.275334E3,1.0388508E3],"tree_param":{"num_deleted":"0","num_feature":"37","num_nodes":"31","size_leaf_vector":"1"}},{"base_weights":[-2.6490465E-3,-2.6669565E-1,6.52145E-1,-3.6109727E-2,-6.573752E-1,4.4059816E-1,9.025507E-1,1.0623394E-1,-1.8661962E-1,-4.9697393E-1,-9.4722414E-1,1.755707E-1,6.0207325E-1,6.119636E-1,1.0722729E0,6.323398E-5,2.1269545E-3,-3.3697628E-3,-9.8574805E-5,-6.2078717E-3,-2.383084E-3,-7.0544737E-3,-1.0488489E-2,2.3968685E-3,-4.013666E-3,4.938746E-3,7.3855547E-3,3.4348073E-3,7.4667E-3,8.918986E-3,1.256957E-2],"categories":[],"categories_nodes":[],"categories_segments":[],"categories_sizes":[],"default_left":[0,0,0,0,0,0,0,0,0,0,0,0,0,0,0,0,0,0,0,0,0,0,0,0,0,0,0,0,0,0,0],"id":13,"left_children":[1,3,5,7,9,11,13,15,17,19,21,23,25,27,29,-1,-1,-1,-1,-1,-1,-1,-1,-1,-1,-1,-1,-1,-1,-1,-1],"loss_changes":[5.933349E3,2.2014912E3,5.1432666E2,3.3035437E2,4.128474E2,2.2646265E2,2.1029468E2,8.346994E1,1.9822409E2,1.8391614E2,6.633325E1,7.647934E1,4.1776123E1,5.524353E1,7.630469E1,0E0,0E0,0E0,0E0,0E0,0E0,0E0,0E0,0E0,0E0,0E0,0E0,0E0,0E0,0E0,0E0],"parents":[2147483647,0,0,1,1,2,2,3,3,4,4,5,5,6,6,7,7,8,8,9,9,10,10,11,11,12,12,13,13,14,14],"right_children":[2,4,6,8,10,12,14,16,18,20,22,24,26,28,30,-1,-1,-1,-1,-1,-1,-1,-1,-1,-1,-1,-1,-1,-1,-1,-1],"split_conditions":[6.4281254E0,7.1568246E0,9.514352E0,4.1082163E0,1.1266499E1,-8.319145E-4,-3.8268343E-1,-1.5585998E-4,4.1303673E-4,1.1676535E-3,-6.087614E-1,3.4430583E0,3.2486868E-4,9.930157E-4,1.1763364E1,6.323398E-5,2.1269545E-3,-3.3697628E-3,-9.8574805E-5,-6.2078717E-3,-2.383084E-3,-7.0544737E-3,-1.0488489E-2,2.3968685E-3,-4.013666E-3,4.938746E-3,7.3855547E-3,3.4348073E-3,7.4667E-3,8.918986E-3,1.256957E-2],"split_indices":[28,29,28,29,29,10,21,10,10,10,21,29,10,15,28,0,0,0,0,0,0,0,0,0,0,0,0,0,0,0,0],"split_type":[0,0,0,0,0,0,0,0,0,0,0,0,0,0,0,0,0,0,0,0,0,0,0,0,0,0,0,0,0,0,0],"sum_hessian":[3.4304047E4,2.4453605E4,9.85044E3,1.5389222E4,9.064384E3,5.360975E3,4.4894653E3,7.9004434E3,7.4887783E3,5.859343E3,3.2050413E3,2.044617E3,3.316358E3,1.6788251E3,2.8106404E3,4.0956177E3,3.8048257E3,4.0325728E3,3.4562056E3,3.9452874E3,1.9140552E3,9.807243E2,2.2243171E3,1.8500614E3,1.9455553E2,1.8878777E3,1.4284803E3,5.801998E2,1.0986252E3,1.4596201E3,1.3510203E3],"tree_param":{"num_deleted":"0","num_feature":"37","num_nodes":"31","size_leaf_vector":"1"}},{"base_weights":[-4.8545483E-3,4.5820627E-1,-3.8676485E-1,5.4753315E-1,1.7712864E-1,-1.5167229E-1,-5.140941E-1,4.8627165E-1,8.535682E-1,-1.20401E-1,3.5346246E-1,-3.502974E-1,1.0622099E-1,-6.690676E-1,-3.9992085E-1,5.710396E-3,3.174819E-3,6.7462306E-3,9.466345E-3,-4.3187852E-4,-4.4404212E-3,4.5994096E-3,1.3989516E-3,-2.3573027E-3,-4.729288E-3,-2.4839102E-3,1.6105198E-3,-5.712465E-3,-7.797246E-3,-2.1479004E-3,-4.853361E-3],"categories":[],"categories_nodes":[],"categories_segments":[],"categories_sizes":[],"default_left":[0,0,0,0,0,0,0,0,0,0,0,0,0,0,0,0,0,0,0,0,0,0,0,0,0,0,0,0,0,0,0],"id":14,"left_children":[1,3,5,7,9,11,13,15,17,19,21,23,25,27,29,-1,-1,-1,-1,-1,-1,-1,-1,-1,-1,-1,-1,-1,-1,-1,-1],"loss_changes":[6.0877925E3,3.8743237E2,5.6205493E2,2.1290112E2,1.991452E2,3.418333E2,2.1046704E2,1.3654492E2,2.1146973E1,3.347266E1,5.1649963E1,4.967746E1,5.64312E1,4.7357666E1,1.0875769E2,0E0,0E0,0E0,0E0,0E0,0E0,0E0,0E0,0E0,0E0,0E0,0E0,0E0,0E0,0E0,0E0],"parents":[2147483647,0,0,1,1,2,2,3,3,4,4,5,5,6,6,7,7,8,8,9,9,10,10,11,11,12,12,13,13,14,14],"right_children":[2,4,6,8,10,12,14,16,18,20,22,24,26,28,30,-1,-1,-1,-1,-1,-1,-1,-1,-1,-1,-1,-1,-1,-1,-1,-1],"split_conditions":[4.5627567E-1,3.1573075E-1,7.044506E-1,5.913816E-1,3.641948E-1,5.735446E-1,3.4074026E-1,1.6375235E-1,9.138741E-4,8.660254E-1,8.707415E-3,5.8975345E-1,4.976558E-1,1.1049097E-3,8.9023477E-1,5.710396E-3,3.174819E-3,6.7462306E-3,9.466345E-3,-4.3187852E-4,-4.4404212E-3,4.5994096E-3,1.3989516E-3,-2.3573027E-3,-4.729288E-3,-2.4839102E-3,1.6105198E-3,-5.712465E-3,-7.797246E-3,-2.1479004E-3,-4.853361E-3],"split_indices":[9,9,9,7,8,7,19,9,14,22,36,9,8,14,9,0,0,0,0,0,0,0,0,0,0,0,0,0,0,0,0],"split_type":[0,0,0,0,0,0,0,0,0,0,0,0,0,0,0,0,0,0,0,0,0,0,0,0,0,0,0,0,0,0,0],"sum_hessian":[3.4405117E4,1.5545982E4,1.8859137E4,1.1781616E4,3.764367E3,6.641735E3,1.2217401E4,9.846296E3,1.9353197E3,1.3956437E3,2.3687231E3,3.7565513E3,2.8851836E3,5.1509126E3,7.066489E3,6.526843E3,3.3194536E3,7.0140424E2,1.2339154E3,1.1434479E3,2.5219577E2,1.5635826E3,8.0514056E2,1.9698892E3,1.7866621E3,3.7431805E2,2.5108655E3,2.7811243E3,2.3697883E3,2.2531765E3,4.813312E3],"tree_param":{"num_deleted":"0","num_feature":"37","num_nodes":"31","size_leaf_vector":"1"}},{"base_weights":[-3.1559845E-3,4.5857316E-1,-3.7988174E-1,2.5054583E-1,8.342444E-1,-2.4692415E-1,-8.7493926E-1,1.2645766E-1,4.2057356E-1,5.987089E-1,1.0095983E0,-1.2386658E-1,-4.2662683E-1,-7.853545E-1,-1.1698571E0,1.9208153E-3,-6.943415E-4,2.7890445E-3,6.2976484E-3,4.8001725E-3,7.923736E-3,8.5199475E-3,1.2711878E-2,-2.6174944E-3,2.2442266E-4,-4.9597835E-3,-0E0,-8.274883E-3,-1.7034805E-3,-8.174743E-3,-1.2899873E-2],"categories":[],"categories_nodes":[],"categories_segments":[],"categories_sizes":[],"default_left":[0,0,0,0,0,0,0,0,0,0,0,0,0,0,0,0,0,0,0,0,0,0,0,0,0,0,0,0,0,0,0],"id":15,"left_children":[1,3,5,7,9,11,13,15,17,19,21,23,25,27,29,-1,-1,-1,-1,-1,-1,-1,-1,-1,-1,-1,-1,-1,-1,-1,-1],"loss_changes":[5.9826514E3,1.2021143E3,1.2414426E3,2.0804095E2,2.161709E2,3.2847797E2,9.068237E1,7.48604E1,1.1966589E2,4.703723E1,1.118103E2,1.803019E2,1.7801599E2,7.612964E1,2.140918E1,0E0,0E0,0E0,0E0,0E0,0E0,0E0,0E0,0E0,0E0,0E0,0E0,0E0,0E0,0E0,0E0],"parents":[2147483647,0,0,1,1,2,2,3,3,4,4,5,5,6,6,7,7,8,8,9,9,10,10,11,11,12,12,13,13,14,14],"right_children":[2,4,6,8,10,12,14,16,18,20,22,24,26,28,30,-1,-1,-1,-1,-1,-1,-1,-1,-1,-1,-1,-1,-1,-1,-1,-1],"split_conditions":[4.5217392E-1,8.78714E0,1.0516284E1,-1.5585998E-4,-1.9509032E-1,6.734915E0,1.5248543E1,3.2405043E-1,6.4869127E0,9.919727E-1,1.1947327E1,3.0062938E-4,4.487665E0,7.873084E0,-5.5557024E-1,1.9208153E-3,-6.943415E-4,2.7890445E-3,6.2976484E-3,4.8001725E-3,7.923736E-3,8.5199475E-3,1.2711878E-2,-2.6174944E-3,2.2442266E-4,-4.9597835E-3,-0E0,-8.274883E-3,-1.7034805E-3,-8.174743E-3,-1.2899873E-2],"split_indices":[9,28,29,10,21,29,29,9,28,25,28,10,25,25,21,0,0,0,0,0,0,0,0,0,0,0,0,0,0,0,0],"split_type":[0,0,0,0,0,0,0,0,0,0,0,0,0,0,0,0,0,0,0,0,0,0,0,0,0,0,0,0,0,0,0],"sum_hessian":[3.437521E4,1.5440556E4,1.8934656E4,9.953484E3,5.4870713E3,1.4942576E4,3.9920803E3,5.7743677E3,4.1791167E3,2.3678398E3,3.1192317E3,8.889068E3,6.053508E3,3.0978684E3,8.9421173E2,4.3369844E3,1.4373834E3,2.5141501E3,1.6649664E3,1.4992614E3,8.685784E2,1.9802192E3,1.1390123E3,4.582804E3,4.3062646E3,5.2000244E3,8.5348315E2,2.891444E3,2.0642451E2,2.5353342E2,6.4067834E2],"tree_param":{"num_deleted":"0","num_feature":"37","num_nodes":"31","size_leaf_vector":"1"}},{"base_weights":[9.277155E-3,4.3370238E-1,-3.1163025E-1,8.281171E-1,2.857328E-1,-9.691404E-2,-5.9433603E-1,5.15408E-1,9.9014217E-1,4.7343725E-1,1.7828588E-1,-1.0470076E-2,-1.7314981E-1,-4.8459348E-1,-8.471146E-1,5.7304744E-3,1.081718E-3,8.75557E-3,1.21345585E-2,2.8664107E-3,5.9461193E-3,5.784932E-4,3.048477E-3,7.8830455E-4,-1.0426312E-3,-2.5260376E-3,-7.710258E-4,-6.1089536E-3,-3.1412558E-3,-5.1550707E-3,-9.626327E-3],"categories":[],"categories_nodes":[],"categories_segments":[],"categories_sizes":[],"default_left":[0,0,0,0,0,0,0,0,0,0,0,0,0,0,0,0,0,0,0,0,0,0,0,0,0,0,0,0,0,0,0],"id":16,"left_children":[1,3,5,7,9,11,13,15,17,19,21,23,25,27,29,-1,-1,-1,-1,-1,-1,-1,-1,-1,-1,-1,-1,-1,-1,-1,-1],"loss_changes":[4.682095E3,8.582566E2,1.1852787E3,1.9445801E2,2.1473273E2,7.2847786E1,2.2601831E2,3.024228E1,5.0558838E1,8.416089E1,1.03690125E2,4.4129333E1,4.3846054E1,1.2268811E2,8.764099E1,0E0,0E0,0E0,0E0,0E0,0E0,0E0,0E0,0E0,0E0,0E0,0E0,0E0,0E0,0E0,0E0],"parents":[2147483647,0,0,1,1,2,2,3,3,4,4,5,5,6,6,7,7,8,8,9,9,10,10,11,11,12,12,13,13,14,14],"right_children":[2,4,6,8,10,12,14,16,18,20,22,24,26,28,30,-1,-1,-1,-1,-1,-1,-1,-1,-1,-1,-1,-1,-1,-1,-1,-1],"split_conditions":[-7.684386E-4,-7.151694E-3,4.0660067E-3,-2.5881904E-1,-3.980239E-3,1.2799836E-3,9.774256E-3,2.0319908E-3,9.238675E0,-7.620388E-4,-1.5585998E-4,1.0849618E0,1.0220489E-3,7.8770483E-4,-5E-1,5.7304744E-3,1.081718E-3,8.75557E-3,1.21345585E-2,2.8664107E-3,5.9461193E-3,5.784932E-4,3.048477E-3,7.8830455E-4,-1.0426312E-3,-2.5260376E-3,-7.710258E-4,-6.1089536E-3,-3.1412558E-3,-5.1550707E-3,-9.626327E-3],"split_indices":[6,6,6,21,6,6,6,15,26,10,10,24,15,10,21,0,0,0,0,0,0,0,0,0,0,0,0,0,0,0,0],"split_type":[0,0,0,0,0,0,0,0,0,0,0,0,0,0,0,0,0,0,0,0,0,0,0,0,0,0,0,0,0,0,0],"sum_hessian":[3.4353703E4,1.4793702E4,1.956E4,4.0178462E3,1.0775856E4,1.113043E4,8.429569E3,1.3918655E3,2.6259807E3,3.9002788E3,6.8755776E3,5.2397676E3,5.8906626E3,5.906383E3,2.5231863E3,1.2092693E3,1.825962E2,1.776882E3,8.490988E2,1.5575927E3,2.342686E3,3.5426536E3,3.332924E3,2.668599E3,2.5711682E3,3.1977913E3,2.6928713E3,3.367743E3,2.53864E3,6.727056E2,1.8504807E3],"tree_param":{"num_deleted":"0","num_feature":"37","num_nodes":"31","size_leaf_vector":"1"}},{"base_weights":[5.6559494E-4,4.4343206E-1,-3.6668608E-1,2.3333956E-1,8.1745976E-1,-1.7905922E-1,-6.2049323E-1,1.3450977E-1,4.7660428E-1,8.8398814E-1,4.8104355E-1,-3.2819796E-1,-2.3953423E-2,-5.100551E-1,-8.727066E-1,5.297549E-4,3.0266696E-3,3.317917E-3,6.806064E-3,7.1703056E-3,1.0070483E-2,2.842644E-3,8.311378E-3,-2.527751E-3,-5.420287E-3,-1.5105885E-3,1.9438997E-3,-6.191001E-3,-3.1423462E-3,-9.150296E-3,-3.1614446E-3],"categories":[],"categories_nodes":[],"categories_segments":[],"categories_sizes":[],"default_left":[0,0,0,0,0,0,0,0,0,0,0,0,0,0,0,0,0,0,0,0,0,0,0,0,0,0,0,0,0,0,0],"id":17,"left_children":[1,3,5,7,9,11,13,15,17,19,21,23,25,27,29,-1,-1,-1,-1,-1,-1,-1,-1,-1,-1,-1,-1,-1,-1,-1,-1],"loss_changes":[5.583497E3,1.2181042E3,8.8998E2,2.3761432E2,1.16751465E2,2.4889136E2,2.1322803E2,9.644685E1,7.955841E1,8.3088135E1,5.9891815E1,8.494183E1,1.4777798E2,1.1421411E2,5.0015503E1,0E0,0E0,0E0,0E0,0E0,0E0,0E0,0E0,0E0,0E0,0E0,0E0,0E0,0E0,0E0,0E0],"parents":[2147483647,0,0,1,1,2,2,3,3,4,4,5,5,6,6,7,7,8,8,9,9,10,10,11,11,12,12,13,13,14,14],"right_children":[2,4,6,8,10,12,14,16,18,20,22,24,26,28,30,-1,-1,-1,-1,-1,-1,-1,-1,-1,-1,-1,-1,-1,-1,-1,-1],"split_conditions":[-3.1813112E-4,8.697832E0,4.3029105E-3,3.391838E-2,-3.8194126E-3,2.955745E-1,1.0034181E-2,6.769557E0,6.4869127E0,-5.149642E-1,3.966444E-1,1.7582818E-3,2.532518E0,1.0791492E-3,1.7855582E0,5.297549E-4,3.0266696E-3,3.317917E-3,6.806064E-3,7.1703056E-3,1.0070483E-2,2.842644E-3,8.311378E-3,-2.527751E-3,-5.420287E-3,-1.5105885E-3,1.9438997E-3,-6.191001E-3,-3.1423462E-3,-9.150296E-3,-3.1614446E-3],"split_indices":[12,28,6,19,6,19,6,28,28,19,8,12,28,10,20,0,0,0,0,0,0,0,0,0,0,0,0,0,0,0,0],"split_type":[0,0,0,0,0,0,0,0,0,0,0,0,0,0,0,0,0,0,0,0,0,0,0,0,0,0,0,0,0,0,0],"sum_hessian":[3.4308266E4,1.5555764E4,1.8752502E4,9.976304E3,5.57946E3,1.0798552E4,7.95395E3,7.114E3,2.8623032E3,4.6372256E3,9.4223444E2,5.489621E3,5.308931E3,5.561029E3,2.3929216E3,4.8118647E3,2.3021355E3,1.6979615E3,1.1643418E3,2.0069768E3,2.6302488E3,6.2027966E2,3.2195477E2,4.0847058E3,1.404915E3,3.36618E3,1.9427512E3,3.548223E3,2.0128058E3,2.2128193E3,1.8010233E2],"tree_param":{"num_deleted":"0","num_feature":"37","num_nodes":"31","size_leaf_vector":"1"}},{"base_weights":[-2.7743406E-3,5.179443E-1,-4.5589468E-1,8.21161E-1,3.0668288E-1,-2.4908508E-1,-8.156085E-1,9.775401E-1,6.803216E-1,4.3919638E-1,1.6363883E-1,-1.07906364E-1,-3.997536E-1,-6.9568586E-1,-9.785113E-1,1.0279785E-2,5.5782804E-3,3.9228383E-3,7.532887E-3,1.9340586E-3,4.8361663E-3,2.0329199E-4,2.8284893E-3,-2.6834751E-3,-3.542068E-5,-4.767989E-3,-1.3587391E-3,-7.7678417E-3,-4.1328995E-3,-1.0257781E-2,-4.785097E-3],"categories":[],"categories_nodes":[],"categories_segments":[],"categories_sizes":[],"default_left":[0,0,0,0,0,0,0,0,0,0,0,0,0,0,0,0,0,0,0,0,0,0,0,0,0,0,0,0,0,0,0],"id":18,"left_children":[1,3,5,7,9,11,13,15,17,19,21,23,25,27,29,-1,-1,-1,-1,-1,-1,-1,-1,-1,-1,-1,-1,-1,-1,-1,-1],"loss_changes":[8.100688E3,1.01723047E3,1.3607129E3,1.3256445E2,1.7631873E2,2.4645453E2,1.18924805E2,5.4483887E1,6.690698E1,5.0325073E1,7.700616E1,1.0052719E2,1.120827E2,8.254419E1,5.681836E1,0E0,0E0,0E0,0E0,0E0,0E0,0E0,0E0,0E0,0E0,0E0,0E0,0E0,0E0,0E0,0E0],"parents":[2147483647,0,0,1,1,2,2,3,3,4,4,5,5,6,6,7,7,8,8,9,9,10,10,11,11,12,12,13,13,14,14],"right_children":[2,4,6,8,10,12,14,16,18,20,22,24,26,28,30,-1,-1,-1,-1,-1,-1,-1,-1,-1,-1,-1,-1,-1,-1,-1,-1],"split_conditions":[-3.1653082E-4,-6.2281103E-3,6.6102236E-3,-1.04794055E-2,-2.711049E-3,2.8384908E-3,1.1851098E-2,2.244871E-3,-1.6296474E-3,-1.5577747E-3,-1.5585998E-4,-2.1568542E-4,1.1676535E-3,1.6028726E-3,6.175422E-2,1.0279785E-2,5.5782804E-3,3.9228383E-3,7.532887E-3,1.9340586E-3,4.8361663E-3,2.0329199E-4,2.8284893E-3,-2.6834751E-3,-3.542068E-5,-4.767989E-3,-1.3587391E-3,-7.7678417E-3,-4.1328995E-3,-1.0257781E-2,-4.785097E-3],"split_indices":[3,3,3,3,3,3,3,15,10,10,10,10,10,10,34,0,0,0,0,0,0,0,0,0,0,0,0,0,0,0,0],"split_type":[0,0,0,0,0,0,0,0,0,0,0,0,0,0,0,0,0,0,0,0,0,0,0,0,0,0,0,0,0,0,0],"sum_hessian":[3.4313266E4,1.5961972E4,1.8351293E4,6.536818E3,9.425154E3,1.1668188E4,6.683105E3,3.0592795E3,3.4775386E3,4.871036E3,4.5541177E3,6.042937E3,5.625252E3,3.8903228E3,2.7927825E3,2.7117563E3,3.4752316E2,7.240863E2,2.7534524E3,7.6410315E2,4.106933E3,2.084766E3,2.4693516E3,2.3641016E3,3.6788354E3,4.338962E3,1.28629E3,3.0005078E3,8.898148E2,2.5364849E3,2.5629752E2],"tree_param":{"num_deleted":"0","num_feature":"37","num_nodes":"31","size_leaf_vector":"1"}},{"base_weights":[5.64993E-3,5.391868E-1,-4.3175375E-1,7.524617E-1,2.4897408E-1,-2.2997047E-1,-7.9762816E-1,9.738403E-1,6.151303E-1,1.4467667E-1,4.1939476E-1,-8.1146374E-2,-4.0162867E-1,-6.865392E-1,-9.46962E-1,4.238142E-3,1.0055572E-2,3.5672828E-3,6.732268E-3,2.287977E-3,3.1660192E-4,5.1593035E-3,2.9765433E-3,2.7302752E-4,-2.369145E-3,-4.6956646E-3,-1.7826725E-3,-7.7599115E-3,-3.7992971E-3,-9.9630635E-3,-4.0646475E-3],"categories":[],"categories_nodes":[],"categories_segments":[],"categories_sizes":[],"default_left":[0,0,0,0,0,0,0,0,0,0,0,0,0,0,0,0,0,0,0,0,0,0,0,0,0,0,0,0,0,0,0],"id":19,"left_children":[1,3,5,7,9,11,13,15,17,19,21,23,25,27,29,-1,-1,-1,-1,-1,-1,-1,-1,-1,-1,-1,-1,-1,-1,-1,-1],"loss_changes":[7.995944E3,9.5063525E2,1.3847947E3,2.5944092E2,1.14305115E2,3.0866913E2,9.944629E1,5.0362793E1,7.738208E1,3.8085182E1,2.5103607E1,1.11017044E2,8.267047E1,9.998572E1,6.675098E1,0E0,0E0,0E0,0E0,0E0,0E0,0E0,0E0,0E0,0E0,0E0,0E0,0E0,0E0,0E0,0E0],"parents":[2147483647,0,0,1,1,2,2,3,3,4,4,5,5,6,6,7,7,8,8,9,9,10,10,11,11,12,12,13,13,14,14],"right_children":[2,4,6,8,10,12,14,16,18,20,22,24,26,28,30,-1,-1,-1,-1,-1,-1,-1,-1,-1,-1,-1,-1,-1,-1,-1,-1],"split_conditions":[-5.8557873E-4,-4.382188E-3,6.6102236E-3,-1.000506E-2,1.4247468E-1,2.8384908E-3,1.1851098E-2,7.1356826E0,-1.6296474E-3,-2.1312444E-3,-2.0542608E-3,1.3333957E0,6.380661E-1,1.6028726E-3,6.175422E-2,4.238142E-3,1.0055572E-2,3.5672828E-3,6.732268E-3,2.287977E-3,3.1660192E-4,5.1593035E-3,2.9765433E-3,2.7302752E-4,-2.369145E-3,-4.6956646E-3,-1.7826725E-3,-7.7599115E-3,-3.7992971E-3,-9.9630635E-3,-4.0646475E-3],"split_indices":[3,3,3,3,19,3,3,28,10,3,3,24,19,10,34,0,0,0,0,0,0,0,0,0,0,0,0,0,0,0,0],"split_type":[0,0,0,0,0,0,0,0,0,0,0,0,0,0,0,0,0,0,0,0,0,0,0,0,0,0,0,0,0,0,0],"sum_hessian":[3.4241445E4,1.5427636E4,1.881381E4,8.877425E3,6.550212E3,1.2141913E4,6.671898E3,3.3670205E3,5.510404E3,4.0857974E3,2.4644143E3,6.5207563E3,5.6211562E3,3.8694722E3,2.8024255E3,1.9655869E2,3.170462E3,1.0340753E3,4.4763286E3,2.321246E3,1.7645514E3,1.3426897E3,1.1217246E3,3.8377913E3,2.6829653E3,4.29142E3,1.3297363E3,2.9761113E3,8.933609E2,2.555169E3,2.472566E2],"tree_param":{"num_deleted":"0","num_feature":"37","num_nodes":"31","size_leaf_vector":"1"}},{"base_weights":[-3.8860814E-4,5.324024E-1,-4.3434146E-1,8.4718317E-1,3.3647415E-1,-2.2707216E-1,-8.138567E-1,5.9809023E-1,9.934702E-1,5.238116E-1,2.3253807E-1,-8.460781E-2,-3.9228442E-1,-5.922581E-1,-9.1115725E-1,6.296655E-3,1.4724301E-3,1.1022863E-2,7.5272773E-3,3.8421217E-3,6.3918475E-3,1.4008385E-3,3.7153666E-3,-2.5500234E-3,-2.5365083E-4,-4.4335024E-3,-5.5225845E-4,-7.0432215E-3,-4.1036545E-3,-7.933386E-3,-1.0657328E-2],"categories":[],"categories_nodes":[],"categories_segments":[],"categories_sizes":[],"default_left":[0,0,0,0,0,0,0,0,0,0,0,0,0,0,0,0,0,0,0,0,0,0,0,0,0,0,0,0,0,0,0],"id":20,"left_children":[1,3,5,7,9,11,13,15,17,19,21,23,25,27,29,-1,-1,-1,-1,-1,-1,-1,-1,-1,-1,-1,-1,-1,-1,-1,-1],"loss_changes":[7.9385864E3,9.440039E2,1.4838442E3,2.0425342E2,1.8188953E2,2.8680548E2,1.340498E2,2.8280518E1,8.2907715E1,4.8896057E1,7.6999146E1,6.577799E1,9.5756226E1,3.606311E1,6.995044E1,0E0,0E0,0E0,0E0,0E0,0E0,0E0,0E0,0E0,0E0,0E0,0E0,0E0,0E0,0E0,0E0],"parents":[2147483647,0,0,1,1,2,2,3,3,4,4,5,5,6,6,7,7,8,8,9,9,10,10,11,11,12,12,13,13,14,14],"right_children":[2,4,6,8,10,12,14,16,18,20,22,24,26,28,30,-1,-1,-1,-1,-1,-1,-1,-1,-1,-1,-1,-1,-1,-1,-1,-1],"split_conditions":[-5.8557873E-4,-6.863411E-3,6.6102236E-3,-4.422887E-1,-4.1006836E-3,2.8384908E-3,-6.087614E-1,2.244871E-3,-8.975409E-3,-8.97336E-4,2.556537E-4,-1.1110636E-3,3.4039305E-3,4.1619716E-3,1.1851098E-2,6.296655E-3,1.4724301E-3,1.1022863E-2,7.5272773E-3,3.8421217E-3,6.3918475E-3,1.4008385E-3,3.7153666E-3,-2.5500234E-3,-2.5365083E-4,-4.4335024E-3,-5.5225845E-4,-7.0432215E-3,-4.1036545E-3,-7.933386E-3,-1.0657328E-2],"split_indices":[3,3,3,21,3,3,21,15,3,2,2,2,2,5,3,0,0,0,0,0,0,0,0,0,0,0,0,0,0,0,0],"split_type":[0,0,0,0,0,0,0,0,0,0,0,0,0,0,0,0,0,0,0,0,0,0,0,0,0,0,0,0,0,0,0],"sum_hessian":[3.43168E4,1.5400036E4,1.8916766E4,5.8894385E3,9.510598E3,1.2250267E4,6.6664995E3,2.2054539E3,3.6839846E3,3.368983E3,6.1416147E3,6.595862E3,5.6544053E3,2.0650708E3,4.6014287E3,2.0511782E3,1.5427568E2,2.503946E3,1.1800385E3,1.5557987E3,1.8131841E3,3.7133557E3,2.428259E3,1.6800375E3,4.915824E3,4.8999824E3,7.544228E2,1.2498333E3,8.152375E2,2.6569868E3,1.9444421E3],"tree_param":{"num_deleted":"0","num_feature":"37","num_nodes":"31","size_leaf_vector":"1"}},{"base_weights":[1.6428959E-3,-2.5263008E-1,5.8885044E-1,-5.2098922E-2,-5.4433733E-1,3.854007E-1,8.292535E-1,9.0522654E-2,-1.70474E-1,-7.2176415E-1,-4.0226102E-1,2.4774101E-1,6.413923E-1,5.698857E-1,1.0240674E0,8.5510015E-5,2.8189362E-3,-3.194008E-3,-1.817614E-4,-5.467952E-3,-8.228313E-3,-2.5435844E-3,-6.219822E-3,2.7642143E-3,-5.235872E-3,5.1426515E-3,7.3410315E-3,3.103508E-3,6.651207E-3,8.518936E-3,1.2245172E-2],"categories":[],"categories_nodes":[],"categories_segments":[],"categories_sizes":[],"default_left":[0,0,0,0,0,0,0,0,0,0,0,0,0,0,0,0,0,0,0,0,0,0,0,0,0,0,0,0,0,0,0],"id":21,"left_children":[1,3,5,7,9,11,13,15,17,19,21,23,25,27,29,-1,-1,-1,-1,-1,-1,-1,-1,-1,-1,-1,-1,-1,-1,-1,-1],"loss_changes":[5.1263643E3,1.3989491E3,5.0065796E2,2.4030927E2,2.3950317E2,1.9468823E2,2.289226E2,1.0013278E2,1.753969E2,6.767285E1,1.7278082E2,8.245027E1,1.5583862E1,4.5990417E1,7.611157E1,0E0,0E0,0E0,0E0,0E0,0E0,0E0,0E0,0E0,0E0,0E0,0E0,0E0,0E0,0E0,0E0],"parents":[2147483647,0,0,1,1,2,2,3,3,4,4,5,5,6,6,7,7,8,8,9,9,10,10,11,11,12,12,13,13,14,14],"right_children":[2,4,6,8,10,12,14,16,18,20,22,24,26,28,30,-1,-1,-1,-1,-1,-1,-1,-1,-1,-1,-1,-1,-1,-1,-1,-1],"split_conditions":[6.2024198E0,2.2702923E-3,9.323592E0,-5.8459027E-5,4.0024316E-1,-2.6512293E-2,-1.9509032E-1,3.391838E-2,1.6822803E-1,3.5407543E-3,5.68468E-3,-5.0429645E-4,3.6312065E-1,9.3574414E-4,1.1763364E1,8.5510015E-5,2.8189362E-3,-3.194008E-3,-1.817614E-4,-5.467952E-3,-8.228313E-3,-2.5435844E-3,-6.219822E-3,2.7642143E-3,-5.235872E-3,5.1426515E-3,7.3410315E-3,3.103508E-3,6.651207E-3,8.518936E-3,1.2245172E-2],"split_indices":[28,12,28,12,19,19,21,19,19,12,12,12,19,15,28,0,0,0,0,0,0,0,0,0,0,0,0,0,0,0,0],"split_type":[0,0,0,0,0,0,0,0,0,0,0,0,0,0,0,0,0,0,0,0,0,0,0,0,0,0,0,0,0,0,0],"sum_hessian":[3.4306742E4,2.394057E4,1.0366172E4,1.4200589E4,9.73998E3,5.635467E3,4.7307056E3,6.4302524E3,7.770337E3,4.303631E3,5.43635E3,3.6851636E3,1.9503032E3,2.0526018E3,2.6781038E3,4.520198E3,1.9100538E3,3.9131406E3,3.857196E3,1.6100592E3,2.6935715E3,3.2702512E3,2.1660989E3,3.562986E3,1.2217738E2,8.637456E2,1.0865576E3,5.7089276E2,1.481709E3,1.4769567E3,1.2011471E3],"tree_param":{"num_deleted":"0","num_feature":"37","num_nodes":"31","size_leaf_vector":"1"}},{"base_weights":[-0E0,4.6135437E-1,-4.7611052E-1,7.231172E-1,1.914357E-1,-2.7163887E-1,-7.879189E-1,9.0663797E-1,5.689571E-1,8.466785E-2,3.375703E-1,-1.2968367E-1,-3.9111105E-1,-7.3401785E-1,-1.1212131E0,9.584589E-3,5.822666E-3,4.1626124E-3,6.7845862E-3,1.936817E-3,-2.479341E-4,5.12878E-3,2.0941095E-3,-2.1120076E-4,-2.8571414E-3,-4.8897313E-3,-2.0198852E-3,-9.112615E-3,-6.3933562E-3,-1.2759641E-2,-8.138743E-3],"categories":[],"categories_nodes":[],"categories_segments":[],"categories_sizes":[],"default_left":[0,0,0,0,0,0,0,0,0,0,0,0,0,0,0,0,0,0,0,0,0,0,0,0,0,0,0,0,0,0,0],"id":22,"left_children":[1,3,5,7,9,11,13,15,17,19,21,23,25,27,29,-1,-1,-1,-1,-1,-1,-1,-1,-1,-1,-1,-1,-1,-1,-1,-1],"loss_changes":[7.530573E3,1.2259097E3,1.0705149E3,2.4019727E2,1.324773E2,1.7112799E2,1.0606543E2,5.7115967E1,7.4717896E1,6.0086636E1,7.7896576E1,7.852268E1,9.926697E1,8.6518555E1,2.625E1,0E0,0E0,0E0,0E0,0E0,0E0,0E0,0E0,0E0,0E0,0E0,0E0,0E0,0E0,0E0,0E0],"parents":[2147483647,0,0,1,1,2,2,3,3,4,4,5,5,6,6,7,7,8,8,9,9,10,10,11,11,12,12,13,13,14,14],"right_children":[2,4,6,8,10,12,14,16,18,20,22,24,26,28,30,-1,-1,-1,-1,-1,-1,-1,-1,-1,-1,-1,-1,-1,-1,-1,-1],"split_conditions":[4.1343144E-4,-4.382188E-3,6.6102236E-3,-8.975409E-3,1.3488228E-4,2.9128466E-3,1.5248543E1,1.9434941E-3,-1.256655E-3,-1.8443159E-3,-2.0542608E-3,1.3065972E0,8.207372E-1,8.334297E-1,1.1790295E0,9.584589E-3,5.822666E-3,4.1626124E-3,6.7845862E-3,1.936817E-3,-2.479341E-4,5.12878E-3,2.0941095E-3,-2.1120076E-4,-2.8571414E-3,-4.8897313E-3,-2.0198852E-3,-9.112615E-3,-6.3933562E-3,-1.2759641E-2,-8.138743E-3],"split_indices":[3,3,3,3,10,3,29,15,2,3,3,24,7,16,16,0,0,0,0,0,0,0,0,0,0,0,0,0,0,0,0],"split_type":[0,0,0,0,0,0,0,0,0,0,0,0,0,0,0,0,0,0,0,0,0,0,0,0,0,0,0,0,0,0,0],"sum_hessian":[3.426339E4,1.7399146E4,1.6864244E4,8.818856E3,8.58029E3,1.0202307E4,6.6619365E3,3.9948696E3,4.823987E3,4.978937E3,3.6013533E3,4.6834556E3,5.5188516E3,5.769847E3,8.920892E2,3.4197412E3,5.7512823E2,2.0461372E3,2.7778496E3,2.5044434E3,2.474494E3,1.4983503E3,2.103003E3,2.7798552E3,1.9036001E3,3.6160151E3,1.9028363E3,1.9679479E3,3.8018994E3,5.658798E2,3.2620935E2],"tree_param":{"num_deleted":"0","num_feature":"37","num_nodes":"31","size_leaf_vector":"1"}},{"base_weights":[8.6521317E-4,4.4172147E-1,-3.4394953E-1,2.489598E-1,7.7964026E-1,-2.1736975E-1,-8.091196E-1,2.2319198E-2,3.262484E-1,6.6935956E-1,9.439604E-1,-9.6130475E-2,-3.758569E-1,-7.4226546E-1,-1.2514923E0,1.0155011E-3,-9.968698E-4,2.132315E-3,5.139702E-3,7.254674E-3,7.6797366E-4,9.824258E-3,3.3375567E-3,-2.3284603E-3,5.0487305E-4,-4.9170433E-3,-1.3782285E-3,-8.573276E-3,-5.2144025E-3,-1.3357601E-2,-8.323244E-3],"categories":[],"categories_nodes":[],"categories_segments":[],"categories_sizes":[],"default_left":[0,0,0,0,0,0,0,0,0,0,0,0,0,0,0,0,0,0,0,0,0,0,0,0,0,0,0,0,0,0,0],"id":23,"left_children":[1,3,5,7,9,11,13,15,17,19,21,23,25,27,29,-1,-1,-1,-1,-1,-1,-1,-1,-1,-1,-1,-1,-1,-1,-1,-1],"loss_changes":[5.2201655E3,9.768684E2,1.1294504E3,1.6737518E2,8.7876465E1,2.895598E2,1.0633911E2,2.3951605E1,1.4867621E2,1.0727112E2,4.345984E1,1.7334515E2,1.7825818E2,8.293054E1,7.2351074E-1,0E0,0E0,0E0,0E0,0E0,0E0,0E0,0E0,0E0,0E0,0E0,0E0,0E0,0E0,0E0,0E0],"parents":[2147483647,0,0,1,1,2,2,3,3,4,4,5,5,6,6,7,7,8,8,9,9,10,10,11,11,12,12,13,13,14,14],"right_children":[2,4,6,8,10,12,14,16,18,20,22,24,26,28,30,-1,-1,-1,-1,-1,-1,-1,-1,-1,-1,-1,-1,-1,-1,-1,-1],"split_conditions":[4.3807656E-1,8.78714E0,1.0404035E1,-1.4675874E-3,1.1763364E1,6.4466805E0,1.6588888E1,2.3522292E-1,6.6519628E0,5.9376936E0,2.0282786E0,6.567755E-1,1.0791492E-3,6.756156E1,3.9203996E-3,1.0155011E-3,-9.968698E-4,2.132315E-3,5.139702E-3,7.254674E-3,7.6797366E-4,9.824258E-3,3.3375567E-3,-2.3284603E-3,5.0487305E-4,-4.9170433E-3,-1.3782285E-3,-8.573276E-3,-5.2144025E-3,-1.3357601E-2,-8.323244E-3],"split_indices":[9,28,29,4,28,29,29,9,28,24,20,7,10,18,10,0,0,0,0,0,0,0,0,0,0,0,0,0,0,0,0],"split_type":[0,0,0,0,0,0,0,0,0,0,0,0,0,0,0,0,0,0,0,0,0,0,0,0,0,0,0,0,0,0,0],"sum_hessian":[3.4318168E4,1.5064119E4,1.925405E4,9.609017E3,5.455102E3,1.5152067E4,4.1019834E3,2.456703E3,7.152314E3,3.3055986E3,2.1495037E3,8.604672E3,6.5473955E3,3.592607E3,5.093764E2,1.5053759E3,9.513269E2,4.4877983E3,2.6645156E3,3.0130012E3,2.9259735E2,2.0116775E3,1.3782622E2,4.460243E3,4.1444287E3,4.3883794E3,2.1590159E3,2.3340364E3,1.2585706E3,3.9994836E2,1.0942804E2],"tree_param":{"num_deleted":"0","num_feature":"37","num_nodes":"31","size_leaf_vector":"1"}},{"base_weights":[-4.4140224E-3,-1.2670165E-1,4.3709126E-1,1.15542755E-1,-2.2878452E-1,2.9775414E-1,7.554097E-1,2.3409915E-1,-1.9047203E-2,-1.7457576E-1,-5.2883905E-1,1.4648984E-1,4.7418156E-1,4.7395763E-1,8.9498234E-1,1.5912836E-3,3.3463018E-3,-2.8943964E-3,1.7946692E-3,-3.9323783E-3,-1.0542223E-3,-1.792604E-3,-6.0541574E-3,2.3972427E-3,-1.9566708E-3,3.6348714E-3,6.2582036E-3,5.652843E-3,-0E0,7.5448137E-3,1.232195E-2],"categories":[],"categories_nodes":[],"categories_segments":[],"categories_sizes":[],"default_left":[0,0,0,0,0,0,0,0,0,0,0,0,0,0,0,0,0,0,0,0,0,0,0,0,0,0,0,0,0,0,0],"id":24,"left_children":[1,3,5,7,9,11,13,15,17,19,21,23,25,27,29,-1,-1,-1,-1,-1,-1,-1,-1,-1,-1,-1,-1,-1,-1,-1,-1],"loss_changes":[1.8532979E3,6.6579956E2,3.2475354E2,1.2790791E2,3.0498126E2,1.3623224E2,8.016748E1,3.0029282E1,2.0113412E2,2.4097223E2,7.3770935E1,9.0676056E1,3.482428E1,3.236032E1,5.5239258E1,0E0,0E0,0E0,0E0,0E0,0E0,0E0,0E0,0E0,0E0,0E0,0E0,0E0,0E0,0E0,0E0],"parents":[2147483647,0,0,1,1,2,2,3,3,4,4,5,5,6,6,7,7,8,8,9,9,10,10,11,11,12,12,13,13,14,14],"right_children":[2,4,6,8,10,12,14,16,18,20,22,24,26,28,30,-1,-1,-1,-1,-1,-1,-1,-1,-1,-1,-1,-1,-1,-1,-1,-1],"split_conditions":[4.9497085E0,5E-1,8.3809E0,3.3333334E-1,6.0941116E-3,3.9365482E1,-1.9509032E-1,2.4472103E-1,4.9874517E-1,9.3734515E-1,-7.933533E-1,3.3333334E-1,6.430821E0,2.5881904E-1,1.1633346E1,1.5912836E-3,3.3463018E-3,-2.8943964E-3,1.7946692E-3,-3.9323783E-3,-1.0542223E-3,-1.792604E-3,-6.0541574E-3,2.3972427E-3,-1.9566708E-3,3.6348714E-3,6.2582036E-3,5.652843E-3,-0E0,7.5448137E-3,1.232195E-2],"split_indices":[26,33,26,33,5,18,21,8,25,25,21,33,26,22,26,0,0,0,0,0,0,0,0,0,0,0,0,0,0,0,0],"split_type":[0,0,0,0,0,0,0,0,0,0,0,0,0,0,0,0,0,0,0,0,0,0,0,0,0,0,0,0,0,0,0],"sum_hessian":[3.4323277E4,2.6889404E4,7.4338716E3,7.962811E3,1.8926594E4,5.190583E3,2.2432886E3,4.241496E3,3.721315E3,1.6052345E4,2.874249E3,2.8135908E3,2.376992E3,7.653635E2,1.4779249E3,2.4615054E3,1.779991E3,1.5798975E3,2.1414175E3,3.835217E3,1.2217128E4,5.2952264E2,2.3447263E3,2.2203333E3,5.9325757E2,1.4050662E3,9.719259E2,6.363372E2,1.2902625E2,1.0723829E3,4.0554205E2],"tree_param":{"num_deleted":"0","num_feature":"37","num_nodes":"31","size_leaf_vector":"1"}},{"base_weights":[7.5657334E-4,4.4143152E-1,-3.4435114E-1,7.821878E-1,3.1943068E-1,-2.2544712E-1,-7.984899E-1,6.8430835E-1,9.8977673E-1,2.3747101E-1,5.8141565E-1,-9.8639734E-2,-3.7842882E-1,-7.1474636E-1,-1.0762107E0,5.3765415E-3,8.142247E-3,1.0888148E-2,5.3956243E-3,3.365881E-3,7.473502E-4,7.1102884E-3,4.37895E-3,-2.4907913E-3,7.1730197E-4,-5.200263E-3,-1.9290135E-3,-7.969486E-3,-4.1591628E-3,-1.1694117E-2,-4.7402135E-3],"categories":[],"categories_nodes":[],"categories_segments":[],"categories_sizes":[],"default_left":[0,0,0,0,0,0,0,0,0,0,0,0,0,0,0,0,0,0,0,0,0,0,0,0,0,0,0,0,0,0,0],"id":25,"left_children":[1,3,5,7,9,11,13,15,17,19,21,23,25,27,29,-1,-1,-1,-1,-1,-1,-1,-1,-1,-1,-1,-1,-1,-1,-1,-1],"loss_changes":[5.2160034E3,6.2053516E2,1.0335061E3,6.863916E1,2.3488025E2,2.9420258E2,7.952026E1,4.3626953E1,4.4361084E1,1.3552069E2,4.243042E1,2.151684E2,1.7815906E2,6.911536E1,3.971399E1,0E0,0E0,0E0,0E0,0E0,0E0,0E0,0E0,0E0,0E0,0E0,0E0,0E0,0E0,0E0,0E0],"parents":[2147483647,0,0,1,1,2,2,3,3,4,4,5,5,6,6,7,7,8,8,9,9,10,10,11,11,12,12,13,13,14,14],"right_children":[2,4,6,8,10,12,14,16,18,20,22,24,26,28,30,-1,-1,-1,-1,-1,-1,-1,-1,-1,-1,-1,-1,-1,-1,-1,-1],"split_conditions":[4.3807656E-1,-7.151694E-3,1.0516284E1,9.238675E0,5.87217E-1,6.333318E0,1.5248543E1,-1.6617635E-3,1.1382086E0,2.3522292E-1,3.1573075E-1,6.6944736E-1,8.1379384E-1,8.029922E-1,1.3281742E0,5.3765415E-3,8.142247E-3,1.0888148E-2,5.3956243E-3,3.365881E-3,7.473502E-4,7.1102884E-3,4.37895E-3,-2.4907913E-3,7.1730197E-4,-5.200263E-3,-1.9290135E-3,-7.969486E-3,-4.1591628E-3,-1.1694117E-2,-4.7402135E-3],"split_indices":[9,6,29,26,7,29,29,2,20,9,9,7,7,19,20,0,0,0,0,0,0,0,0,0,0,0,0,0,0,0,0],"split_type":[0,0,0,0,0,0,0,0,0,0,0,0,0,0,0,0,0,0,0,0,0,0,0,0,0,0,0,0,0,0,0],"sum_hessian":[3.4275777E4,1.5056163E4,1.9219613E4,3.9486426E3,1.11075205E4,1.5248718E4,3.9708958E3,2.722421E3,1.2262217E3,8.483917E3,2.6236028E3,8.357334E3,6.891384E3,3.0866802E3,8.842156E2,1.3138154E3,1.4086055E3,9.880276E2,2.3819403E2,5.2544736E3,3.2294438E3,1.3468342E3,1.2767686E3,4.445168E3,3.912166E3,3.889021E3,3.002363E3,2.3998267E3,6.868534E2,7.532359E2,1.309797E2],"tree_param":{"num_deleted":"0","num_feature":"37","num_nodes":"31","size_leaf_vector":"1"}},{"base_weights":[1.9713794E-3,4.9440065E-1,-4.195432E-1,7.399997E-1,2.5735745E-1,-2.27035E-1,-7.6065713E-1,5.760697E-1,8.939922E-1,1.5992013E-1,4.0387395E-1,-8.8775195E-2,-3.7636298E-1,-6.5447485E-1,-9.2932016E-1,4.332045E-3,6.8163476E-3,6.5720547E-3,9.836695E-3,2.6881304E-3,-1.8029142E-4,4.926795E-3,2.8875568E-3,-2.3401617E-3,1.1425195E-4,-4.595718E-3,-1.7600064E-3,-7.3966384E-3,-3.6197011E-3,-1.0054256E-2,-5.231702E-3],"categories":[],"categories_nodes":[],"categories_segments":[],"categories_sizes":[],"default_left":[0,0,0,0,0,0,0,0,0,0,0,0,0,0,0,0,0,0,0,0,0,0,0,0,0,0,0,0,0,0,0],"id":26,"left_children":[1,3,5,7,9,11,13,15,17,19,21,23,25,27,29,-1,-1,-1,-1,-1,-1,-1,-1,-1,-1,-1,-1,-1,-1,-1,-1],"loss_changes":[7.1186323E3,9.161111E2,1.2084834E3,1.8628955E2,1.1289752E2,2.4250507E2,1.083501E2,5.0943726E1,7.297363E1,9.5298965E1,2.8999268E1,9.0428955E1,9.187494E1,9.689612E1,6.8552246E1,0E0,0E0,0E0,0E0,0E0,0E0,0E0,0E0,0E0,0E0,0E0,0E0,0E0,0E0,0E0,0E0],"parents":[2147483647,0,0,1,1,2,2,3,3,4,4,5,5,6,6,7,7,8,8,9,9,10,10,11,11,12,12,13,13,14,14],"right_children":[2,4,6,8,10,12,14,16,18,20,22,24,26,28,30,-1,-1,-1,-1,-1,-1,-1,-1,-1,-1,-1,-1,-1,-1,-1,-1],"split_conditions":[-3.918208E-4,-5.1976866E-3,6.6102236E-3,9.514352E0,1.4672871E-4,2.8384908E-3,1.2438302E-2,-1.0551462E-3,9.5319725E-4,-2.0542608E-3,-2.1312444E-3,-1.6827641E-4,5.453018E-1,1.6028726E-3,2.392155E-2,4.332045E-3,6.8163476E-3,6.5720547E-3,9.836695E-3,2.6881304E-3,-1.8029142E-4,4.926795E-3,2.8875568E-3,-2.3401617E-3,1.1425195E-4,-4.595718E-3,-1.7600064E-3,-7.3966384E-3,-3.6197011E-3,-1.0054256E-2,-5.231702E-3],"split_indices":[3,3,3,28,10,3,3,2,14,3,3,10,19,10,36,0,0,0,0,0,0,0,0,0,0,0,0,0,0,0,0],"split_type":[0,0,0,0,0,0,0,0,0,0,0,0,0,0,0,0,0,0,0,0,0,0,0,0,0,0,0,0,0,0,0],"sum_hessian":[3.427466E4,1.5810097E4,1.8464562E4,7.748277E3,8.06182E3,1.1819602E4,6.644962E3,3.785441E3,3.962836E3,4.866716E3,3.1951042E3,6.155958E3,5.6636436E3,4.1186475E3,2.5263147E3,1.642304E3,2.143137E3,1.1206305E3,2.8422053E3,3.026472E3,1.8402438E3,1.7704609E3,1.4246432E3,2.5199143E3,3.6360435E3,3.9820298E3,1.6816136E3,3.1699023E3,9.487451E2,2.108986E3,4.1732855E2],"tree_param":{"num_deleted":"0","num_feature":"37","num_nodes":"31","size_leaf_vector":"1"}},{"base_weights":[-2.6487438E-3,4.9741617E-1,-4.165459E-1,7.7665704E-1,3.014969E-1,-2.2074692E-1,-7.586737E-1,9.1743916E-1,6.4515465E-1,4.1653827E-1,1.7014754E-1,-5.8231734E-2,-3.516199E-1,-9.441636E-1,-6.567631E-1,9.7380085E-3,5.8799195E-3,4.8159724E-3,7.5128167E-3,2.6515555E-3,5.3353906E-3,7.0428196E-4,3.5415667E-3,-1.849239E-3,8.235484E-4,-4.3880385E-3,-1.7381093E-3,-1.0026749E-2,-4.524505E-3,-5.4609124E-3,-8.378539E-3],"categories":[],"categories_nodes":[],"categories_segments":[],"categories_sizes":[],"default_left":[0,0,0,0,0,0,0,0,0,0,0,0,0,0,0,0,0,0,0,0,0,0,0,0,0,0,0,0,0,0,0],"id":27,"left_children":[1,3,5,7,9,11,13,15,17,19,21,23,25,27,29,-1,-1,-1,-1,-1,-1,-1,-1,-1,-1,-1,-1,-1,-1,-1,-1],"loss_changes":[7.0984204E3,8.4397046E2,1.2526611E3,1.0769458E2,1.3576965E2,2.528711E2,1.1795239E2,4.624878E1,5.0808838E1,8.223163E1,7.738865E1,9.5853226E1,9.988257E1,5.9736572E1,8.03811E1,0E0,0E0,0E0,0E0,0E0,0E0,0E0,0E0,0E0,0E0,0E0,0E0,0E0,0E0,0E0,0E0],"parents":[2147483647,0,0,1,1,2,2,3,3,4,4,5,5,6,6,7,7,8,8,9,9,10,10,11,11,12,12,13,13,14,14],"right_children":[2,4,6,8,10,12,14,16,18,20,22,24,26,28,30,-1,-1,-1,-1,-1,-1,-1,-1,-1,-1,-1,-1,-1,-1,-1,-1],"split_conditions":[-5.2258366E-4,-6.352999E-3,6.4931153E-3,-1.04794055E-2,-2.7907945E-3,2.2433714E-3,8.446665E-1,2.0319908E-3,-4.5476234E-1,-8.7275123E-4,2.4148451E-1,5.641791E-1,8.2408804E-1,2.3221022E-2,1.2438302E-2,9.7380085E-3,5.8799195E-3,4.8159724E-3,7.5128167E-3,2.6515555E-3,5.3353906E-3,7.0428196E-4,3.5415667E-3,-1.849239E-3,8.235484E-4,-4.3880385E-3,-1.7381093E-3,-1.0026749E-2,-4.524505E-3,-5.4609124E-3,-8.378539E-3],"split_indices":[3,3,3,3,3,3,16,15,19,2,19,7,7,36,3,0,0,0,0,0,0,0,0,0,0,0,0,0,0,0,0],"split_type":[0,0,0,0,0,0,0,0,0,0,0,0,0,0,0,0,0,0,0,0,0,0,0,0,0,0,0,0,0,0,0],"sum_hessian":[3.4277113E4,1.5518549E4,1.8758566E4,6.3801133E3,9.138436E3,1.1946712E4,6.8118545E3,3.0414536E3,3.3386597E3,4.847892E3,4.2905435E3,5.3457944E3,6.6009175E3,2.3757026E3,4.436152E3,2.5726592E3,4.6879456E2,1.3467562E3,1.9919034E3,2.1388374E3,2.709055E3,2.802128E3,1.4884153E3,2.8214124E3,2.524382E3,4.408013E3,2.192904E3,2.1083298E3,2.6737277E2,2.788631E3,1.6475206E3],"tree_param":{"num_deleted":"0","num_feature":"37","num_nodes":"31","size_leaf_vector":"1"}},{"base_weights":[2.5955015E-3,-2.2955425E-1,5.8151734E-1,-6.861407E-2,-5.433255E-1,3.8243097E-1,7.958517E-1,-1.6619423E-1,8.5135184E-2,-4.1745198E-1,-7.311057E-1,1.2852447E-1,5.382746E-1,6.164681E-1,9.0425014E-1,-3.0662182E-3,-1.0048312E-3,-4.3059903E-4,2.934341E-3,-5.182514E-3,-2.035509E-3,-8.676589E-3,-5.8090417E-3,2.53788E-3,-2.6489666E-4,4.178553E-3,6.92675E-3,7.869328E-3,3.0777615E-3,9.740707E-3,5.8290404E-3],"categories":[],"categories_nodes":[],"categories_segments":[],"categories_sizes":[],"default_left":[0,0,0,0,0,0,0,0,0,0,0,0,0,0,0,0,0,0,0,0,0,0,0,0,0,0,0,0,0,0,0],"id":28,"left_children":[1,3,5,7,9,11,13,15,17,19,21,23,25,27,29,-1,-1,-1,-1,-1,-1,-1,-1,-1,-1,-1,-1,-1,-1,-1,-1],"loss_changes":[4.606064E3,1.2326476E3,4.120686E2,2.431428E2,1.8927441E2,1.9962567E2,8.141138E1,8.995184E1,1.6849048E2,1.04403076E2,5.832007E1,3.890684E1,5.248712E1,8.981329E1,5.478125E1,0E0,0E0,0E0,0E0,0E0,0E0,0E0,0E0,0E0,0E0,0E0,0E0,0E0,0E0,0E0,0E0],"parents":[2147483647,0,0,1,1,2,2,3,3,4,4,5,5,6,6,7,7,8,8,9,9,10,10,11,11,12,12,13,13,14,14],"right_children":[2,4,6,8,10,12,14,16,18,20,22,24,26,28,30,-1,-1,-1,-1,-1,-1,-1,-1,-1,-1,-1,-1,-1,-1,-1,-1],"split_conditions":[6.4281254E0,4.0660067E-3,9.323592E0,4.0169506E0,8.477963E-3,-8.1341865E-4,3.4278534E1,-1.9213707E-4,3.78113E-1,1.1676535E-3,1.0374396E-3,3.8364348E0,3.122073E-4,-7.482463E-3,-4.0578E-3,-3.0662182E-3,-1.0048312E-3,-4.3059903E-4,2.934341E-3,-5.182514E-3,-2.035509E-3,-8.676589E-3,-5.8090417E-3,2.53788E-3,-2.6489666E-4,4.178553E-3,6.92675E-3,7.869328E-3,3.0777615E-3,9.740707E-3,5.8290404E-3],"split_indices":[28,6,28,28,6,10,18,10,8,10,10,24,10,6,6,0,0,0,0,0,0,0,0,0,0,0,0,0,0,0,0],"split_type":[0,0,0,0,0,0,0,0,0,0,0,0,0,0,0,0,0,0,0,0,0,0,0,0,0,0,0,0,0,0,0],"sum_hessian":[3.42444E4,2.4443373E4,9.801027E3,1.6170774E4,8.272598E3,5.102948E3,4.698079E3,9.903815E3,6.266959E3,4.981552E3,3.291046E3,1.9551079E3,3.1478403E3,1.8052302E3,2.892849E3,3.1308125E3,6.773003E3,3.8754126E3,2.3915461E3,3.3667427E3,1.6148092E3,1.6883611E3,1.6026848E3,1.0884978E3,8.6661017E2,1.8002722E3,1.347568E3,1.1467598E3,6.584705E2,2.3521392E3,5.407099E2],"tree_param":{"num_deleted":"0","num_feature":"37","num_nodes":"31","size_leaf_vector":"1"}},{"base_weights":[-1.2566448E-4,4.2303616E-1,-3.31659E-1,4.885167E-1,1.87374E-1,-2.1233784E-1,-7.914825E-1,4.165721E-1,7.915966E-1,-1.6812032E-2,4.52716E-1,-8.887937E-2,-3.6080012E-1,-7.085381E-1,-1.0652819E0,5.047578E-3,2.1525824E-3,9.613061E-3,6.5885135E-3,3.3309327E-3,-5.992088E-4,5.868695E-4,5.230944E-3,-2.631093E-3,5.0956103E-5,-4.7534555E-3,-1.2567325E-3,-8.774921E-3,-5.823711E-3,-1.1883545E-2,-6.6968994E-3],"categories":[],"categories_nodes":[],"categories_segments":[],"categories_sizes":[],"default_left":[0,0,0,0,0,0,0,0,0,0,0,0,0,0,0,0,0,0,0,0,0,0,0,0,0,0,0,0,0,0,0],"id":29,"left_children":[1,3,5,7,9,11,13,15,17,19,21,23,25,27,29,-1,-1,-1,-1,-1,-1,-1,-1,-1,-1,-1,-1,-1,-1,-1,-1],"loss_changes":[4.799319E3,2.2891064E2,1.0480071E3,2.4910498E2,1.7980658E2,2.778894E2,7.670264E1,1.6573169E2,3.9120605E1,2.7501545E1,3.7849426E1,1.3753232E2,1.8372144E2,5.585327E1,2.9738281E1,0E0,0E0,0E0,0E0,0E0,0E0,0E0,0E0,0E0,0E0,0E0,0E0,0E0,0E0,0E0,0E0],"parents":[2147483647,0,0,1,1,2,2,3,3,4,4,5,5,6,6,7,7,8,8,9,9,10,10,11,11,12,12,13,13,14,14],"right_children":[2,4,6,8,10,12,14,16,18,20,22,24,26,28,30,-1,-1,-1,-1,-1,-1,-1,-1,-1,-1,-1,-1,-1,-1,-1,-1],"split_conditions":[4.3807656E-1,3.1573075E-1,1.0516284E1,2.0965712E0,2.6834824E0,6.333318E0,1.5248543E1,1.6375235E-1,2.308539E-1,5.372438E-4,-9.23073E-4,-1.5585998E-4,1.0791492E-3,9.084956E-1,1.3294934E0,5.047578E-3,2.1525824E-3,9.613061E-3,6.5885135E-3,3.3309327E-3,-5.992088E-4,5.868695E-4,5.230944E-3,-2.631093E-3,5.0956103E-5,-4.7534555E-3,-1.2567325E-3,-8.774921E-3,-5.823711E-3,-1.1883545E-2,-6.6968994E-3],"split_indices":[9,9,29,27,27,29,29,9,9,13,2,10,10,9,16,0,0,0,0,0,0,0,0,0,0,0,0,0,0,0,0],"split_type":[0,0,0,0,0,0,0,0,0,0,0,0,0,0,0,0,0,0,0,0,0,0,0,0,0,0,0,0,0,0,0],"sum_hessian":[3.419139E4,1.5014898E4,1.9176494E4,1.1731697E4,3.2832012E3,1.5242348E4,3.9341462E3,9.508281E3,2.2234163E3,1.8543225E3,1.4288785E3,8.341722E3,6.9006265E3,3.0553862E3,8.7875995E2,6.5910776E3,2.9172031E3,9.3852795E2,1.2848884E3,1.8838472E2,1.6659379E3,2.2577776E2,1.2031007E3,2.9276934E3,5.414028E3,4.624674E3,2.2759526E3,1.2705823E3,1.7848041E3,6.4917236E2,2.2958755E2],"tree_param":{"num_deleted":"0","num_feature":"37","num_nodes":"31","size_leaf_vector":"1"}},{"base_weights":[1.7622568E-3,4.2302707E-1,-3.258768E-1,7.3798096E-1,3.1196454E-1,-1.8434896E-1,-7.0213306E-1,8.8593405E-1,5.649668E-1,1.8513702E-1,4.2614752E-1,-3.006943E-1,-5.5219114E-2,-6.32432E-1,-1.0965436E0,9.846198E-3,6.6410173E-3,7.821355E-3,4.4375206E-3,2.8335755E-3,-9.921039E-5,6.1927396E-3,3.295455E-3,-1.8997365E-3,-4.914191E-3,2.2134385E-3,-1.4090536E-3,-5.0426023E-3,-8.098426E-3,-1.2675865E-2,-7.717261E-3],"categories":[],"categories_nodes":[],"categories_segments":[],"categories_sizes":[],"default_left":[0,0,0,0,0,0,0,0,0,0,0,0,0,0,0,0,0,0,0,0,0,0,0,0,0,0,0,0,0,0,0],"id":30,"left_children":[1,3,5,7,9,11,13,15,17,19,21,23,25,27,29,-1,-1,-1,-1,-1,-1,-1,-1,-1,-1,-1,-1,-1,-1,-1,-1],"loss_changes":[4.7155283E3,5.17489E2,1.01914465E3,9.0041016E1,1.5778662E2,2.0880725E2,1.3198975E2,3.3747192E1,4.094275E1,1.0196745E2,1.0348486E2,1.5202094E2,1.5767773E2,9.395801E1,2.6723022E1,0E0,0E0,0E0,0E0,0E0,0E0,0E0,0E0,0E0,0E0,0E0,0E0,0E0,0E0,0E0,0E0],"parents":[2147483647,0,0,1,1,2,2,3,3,4,4,5,5,6,6,7,7,8,8,9,9,10,10,11,11,12,12,13,13,14,14],"right_children":[2,4,6,8,10,12,14,16,18,20,22,24,26,28,30,-1,-1,-1,-1,-1,-1,-1,-1,-1,-1,-1,-1,-1,-1,-1,-1],"split_conditions":[4.3807656E-1,-7.151694E-3,9.434862E0,9.5861393E-1,-4.54973E-4,3.8734323E-4,1.5622719E1,6.593458E-1,-8.941642E-3,2.3522292E-1,-2.3880475E-3,6.333318E0,6.040761E-1,1.2475183E0,1.1657151E0,9.846198E-3,6.6410173E-3,7.821355E-3,4.4375206E-3,2.8335755E-3,-9.921039E-5,6.1927396E-3,3.295455E-3,-1.8997365E-3,-4.914191E-3,2.2134385E-3,-1.4090536E-3,-5.0426023E-3,-8.098426E-3,-1.2675865E-2,-7.717261E-3],"split_indices":[9,6,29,16,10,10,29,22,12,9,12,29,9,26,16,0,0,0,0,0,0,0,0,0,0,0,0,0,0,0,0],"split_type":[0,0,0,0,0,0,0,0,0,0,0,0,0,0,0,0,0,0,0,0,0,0,0,0,0,0,0,0,0,0,0],"sum_hessian":[3.4142746E4,1.4939893E4,1.9202854E4,3.8730745E3,1.1066818E4,1.3970688E4,5.232166E3,2.0561833E3,1.816891E3,5.2679683E3,5.79885E3,7.3299355E3,6.640753E3,4.4749785E3,7.571872E2,1.3899374E3,6.66246E2,6.224439E2,1.1944471E3,3.5109165E3,1.7570518E3,1.9050734E3,3.8937769E3,4.6602383E3,2.6696975E3,1.558774E3,5.081979E3,2.6301438E3,1.8448347E3,4.709388E2,2.8624838E2],"tree_param":{"num_deleted":"0","num_feature":"37","num_nodes":"31","size_leaf_vector":"1"}},{"base_weights":[1.7077633E-3,-2.815754E-1,4.3135506E-1,-9.174911E-2,-5.909293E-1,2.521244E-1,7.723532E-1,-1.7240481E-1,5.654097E-2,-4.5221406E-1,-8.432924E-1,1.2807289E-1,4.6738297E-1,5.3657424E-1,8.5233617E-1,1.6017408E-4,-2.9792294E-3,2.5508027E-3,-2.3821356E-4,-5.4638023E-3,-1.7484733E-3,-9.048485E-3,-4.9121366E-3,1.8944768E-3,-4.1885437E-3,2.857174E-3,6.0962564E-3,6.4798966E-3,2.6917004E-3,7.637999E-3,1.0962744E-2],"categories":[],"categories_nodes":[],"categories_segments":[],"categories_sizes":[],"default_left":[0,0,0,0,0,0,0,0,0,0,0,0,0,0,0,0,0,0,0,0,0,0,0,0,0,0,0,0,0,0,0],"id":31,"left_children":[1,3,5,7,9,11,13,15,17,19,21,23,25,27,29,-1,-1,-1,-1,-1,-1,-1,-1,-1,-1,-1,-1,-1,-1,-1,-1],"loss_changes":[4.1626553E3,1.207394E3,8.2571436E2,1.5338458E2,2.6631934E2,2.3607849E2,7.937134E1,1.9714195E2,7.253998E1,1.2957434E2,5.112329E1,1.9103482E2,7.961212E1,3.1851562E1,6.0823486E1,0E0,0E0,0E0,0E0,0E0,0E0,0E0,0E0,0E0,0E0,0E0,0E0,0E0,0E0,0E0,0E0],"parents":[2147483647,0,0,1,1,2,2,3,3,4,4,5,5,6,6,7,7,8,8,9,9,10,10,11,11,12,12,13,13,14,14],"right_children":[2,4,6,8,10,12,14,16,18,20,22,24,26,28,30,-1,-1,-1,-1,-1,-1,-1,-1,-1,-1,-1,-1,-1,-1,-1,-1],"split_conditions":[4.9283333E0,7.655103E0,9.323592E0,3.8528576E-1,1.1690302E1,-5.2959144E-2,-7.4674344E-1,3.7311027E0,8.333333E-1,6.948322E1,1.1679753E0,4.5374618E0,6.4281254E0,1.2611114E0,1.3300964E1,1.6017408E-4,-2.9792294E-3,2.5508027E-3,-2.3821356E-4,-5.4638023E-3,-1.7484733E-3,-9.048485E-3,-4.9121366E-3,1.8944768E-3,-4.1885437E-3,2.857174E-3,6.0962564E-3,6.4798966E-3,2.6917004E-3,7.637999E-3,1.0962744E-2],"split_indices":[28,29,28,19,29,19,19,29,33,18,20,29,28,20,28,0,0,0,0,0,0,0,0,0,0,0,0,0,0,0,0],"split_type":[0,0,0,0,0,0,0,0,0,0,0,0,0,0,0,0,0,0,0,0,0,0,0,0,0,0,0,0,0,0,0],"sum_hessian":[3.4177234E4,2.0594766E4,1.3582466E4,1.2777115E4,7.8176514E3,8.920164E3,4.662302E3,8.287894E3,4.489221E3,5.070422E3,2.7472295E3,5.6779194E3,3.242245E3,1.2099954E3,3.4523064E3,3.3075583E3,4.9803354E3,1.2980098E3,3.1912112E3,3.7699927E3,1.3004293E3,2.3177769E3,4.2945282E2,5.1158525E3,5.620668E2,1.4462897E3,1.7959554E3,8.361552E2,3.738402E2,2.5723088E3,8.7999744E2],"tree_param":{"num_deleted":"0","num_feature":"37","num_nodes":"31","size_leaf_vector":"1"}},{"base_weights":[-3.907073E-3,3.7703177E-1,-3.202896E-1,5.6460255E-1,1.635459E-1,-1.2964211E-1,-5.05125E-1,4.450244E-1,7.371428E-1,3.675929E-3,3.7598276E-1,-2.9111832E-1,6.942584E-2,-6.8605494E-1,-3.9516962E-1,7.235515E-3,3.4836088E-3,2.2525326E-3,7.692452E-3,-6.161609E-4,1.891504E-3,2.5864518E-3,5.101126E-3,-2.0174123E-3,-4.5775804E-3,2.5834553E-3,-1.8379728E-4,-5.4604015E-3,-7.848478E-3,-2.8046279E-3,-5.9998E-3],"categories":[],"categories_nodes":[],"categories_segments":[],"categories_sizes":[],"default_left":[0,0,0,0,0,0,0,0,0,0,0,0,0,0,0,0,0,0,0,0,0,0,0,0,0,0,0,0,0,0,0],"id":32,"left_children":[1,3,5,7,9,11,13,15,17,19,21,23,25,27,29,-1,-1,-1,-1,-1,-1,-1,-1,-1,-1,-1,-1,-1,-1,-1,-1],"loss_changes":[4.1101787E3,6.163413E2,6.5411194E2,1.6282788E2,2.4529185E2,2.9643066E2,1.8205249E2,1.2598291E2,5.0178223E1,5.0860348E1,4.528604E1,7.286221E1,6.907423E1,4.080432E1,1.3456714E2,0E0,0E0,0E0,0E0,0E0,0E0,0E0,0E0,0E0,0E0,0E0,0E0,0E0,0E0,0E0,0E0],"parents":[2147483647,0,0,1,1,2,2,3,3,4,4,5,5,6,6,7,7,8,8,9,9,10,10,11,11,12,12,13,13,14,14],"right_children":[2,4,6,8,10,12,14,16,18,20,22,24,26,28,30,-1,-1,-1,-1,-1,-1,-1,-1,-1,-1,-1,-1,-1,-1,-1,-1],"split_conditions":[-3.1813112E-4,-2.5926956E-3,2.3665943E-3,-1.3448283E-3,-6.211896E-4,7.2473625E-4,3.1837192E-1,-7.663613E-3,-4.132694E-2,-1.8626896E-1,2.3168974E-4,1.0450882E-3,8.6204143E-4,3.8032117E-3,6.0689566E-3,7.235515E-3,3.4836088E-3,2.2525326E-3,7.692452E-3,-6.161609E-4,1.891504E-3,2.5864518E-3,5.101126E-3,-2.0174123E-3,-4.5775804E-3,2.5834553E-3,-1.8379728E-4,-5.4604015E-3,-7.848478E-3,-2.8046279E-3,-5.9998E-3],"split_indices":[12,12,12,2,11,11,19,12,34,19,11,12,12,12,12,0,0,0,0,0,0,0,0,0,0,0,0,0,0,0,0],"split_type":[0,0,0,0,0,0,0,0,0,0,0,0,0,0,0,0,0,0,0,0,0,0,0,0,0,0,0,0,0,0,0],"sum_hessian":[3.408442E4,1.54593125E4,1.8625107E4,8.212888E3,7.2464243E3,9.18477E3,9.440339E3,4.8823677E3,3.3305205E3,4.1486445E3,3.09778E3,5.0769727E3,4.107797E3,3.5383533E3,5.9019854E3,1.233181E3,3.6491865E3,2.0678847E2,3.123732E3,3.0614387E3,1.0872058E3,1.6798699E3,1.41791E3,3.3306765E3,1.746296E3,1.3080918E3,2.799705E3,1.5033541E3,2.0349991E3,3.8077468E3,2.0942383E3],"tree_param":{"num_deleted":"0","num_feature":"37","num_nodes":"31","size_leaf_vector":"1"}},{"base_weights":[1.7492068E-3,3.8157552E-1,-3.1287068E-1,5.648015E-1,1.726897E-1,-1.7362376E-1,-5.645152E-1,4.7343025E-1,7.7441305E-1,3.6542114E-2,3.8618678E-1,-3.4149235E-1,-2.8988626E-2,-7.1885306E-1,-4.0212944E-1,7.5069284E-3,3.9755893E-3,8.201866E-3,3.580299E-3,-7.9239573E-4,1.377837E-3,4.1611143E-3,3.328384E-5,-2.5224679E-3,-4.9725687E-3,1.6607767E-3,-1.2461653E-3,-6.626839E-3,-9.775759E-3,-2.2103274E-3,-5.5615716E-3],"categories":[],"categories_nodes":[],"categories_segments":[],"categories_sizes":[],"default_left":[0,0,0,0,0,0,0,0,0,0,0,0,0,0,0,0,0,0,0,0,0,0,0,0,0,0,0,0,0,0,0],"id":33,"left_children":[1,3,5,7,9,11,13,15,17,19,21,23,25,27,29,-1,-1,-1,-1,-1,-1,-1,-1,-1,-1,-1,-1,-1,-1,-1,-1],"loss_changes":[4.0835547E3,5.894773E2,6.515398E2,1.5035205E2,2.0955743E2,2.913828E2,1.6026001E2,1.1499744E2,4.0698975E1,5.246372E1,3.0996521E1,7.3885315E1,1.212197E2,3.7781616E1,8.764557E1,0E0,0E0,0E0,0E0,0E0,0E0,0E0,0E0,0E0,0E0,0E0,0E0,0E0,0E0,0E0,0E0],"parents":[2147483647,0,0,1,1,2,2,3,3,4,4,5,5,6,6,7,7,8,8,9,9,10,10,11,11,12,12,13,13,14,14],"right_children":[2,4,6,8,10,12,14,16,18,20,22,24,26,28,30,-1,-1,-1,-1,-1,-1,-1,-1,-1,-1,-1,-1,-1,-1,-1,-1],"split_conditions":[-3.1813112E-4,-2.5926956E-3,3.5407543E-3,1.5811605E0,3.827862E-1,6.135853E-1,6.4129776E1,-7.663613E-3,1.987629E-3,-6.519232E-4,8.011419E-2,1.554984E-3,1.0081114E-3,9.843329E0,5.9381495E-3,7.5069284E-3,3.9755893E-3,8.201866E-3,3.580299E-3,-7.9239573E-4,1.377837E-3,4.1611143E-3,3.328384E-5,-2.5224679E-3,-4.9725687E-3,1.6607767E-3,-1.2461653E-3,-6.626839E-3,-9.775759E-3,-2.2103274E-3,-5.5615716E-3],"split_indices":[12,12,12,27,8,7,18,12,15,10,35,12,12,27,12,0,0,0,0,0,0,0,0,0,0,0,0,0,0,0,0],"split_type":[0,0,0,0,0,0,0,0,0,0,0,0,0,0,0,0,0,0,0,0,0,0,0,0,0,0,0,0,0,0,0],"sum_hessian":[3.4150027E4,1.5475076E4,1.8674953E4,8.227156E3,7.24792E3,1.2040944E4,6.634008E3,5.7622476E3,2.464909E3,4.4413955E3,2.806525E3,5.5569736E3,6.4839707E3,3.3742466E3,3.2597612E3,1.2104221E3,4.5518257E3,2.2055474E3,2.593615E2,2.059106E3,2.3822893E3,2.5949927E3,2.115321E2,3.5617292E3,1.9952445E3,2.1202488E3,4.3637217E3,2.8111504E3,5.6309607E2,1.518374E3,1.7413872E3],"tree_param":{"num_deleted":"0","num_feature":"37","num_nodes":"31","size_leaf_vector":"1"}},{"base_weights":[1.3722215E-3,3.6197206E-1,-3.3045354E-1,6.0530865E-1,1.9402461E-1,-2.4558412E-1,-7.0523214E-1,8.7662995E-1,5.273103E-1,1.1411352E-1,4.2273557E-1,-3.81138E-1,-1.2090306E-1,-7.579225E-1,-3.8644192E-1,9.456858E-3,8.927093E-4,7.0420555E-3,3.5958132E-3,2.7025877E-3,6.0409897E-5,3.2451272E-3,5.3604594E-3,-2.4279873E-3,-5.4594544E-3,5.13961E-4,-2.5737486E-3,-6.593102E-3,-9.385527E-3,-9.672382E-4,-8.198958E-3],"categories":[],"categories_nodes":[],"categories_segments":[],"categories_sizes":[],"default_left":[0,0,0,0,0,0,0,0,0,0,0,0,0,0,0,0,0,0,0,0,0,0,0,0,0,0,0,0,0,0,0],"id":34,"left_children":[1,3,5,7,9,11,13,15,17,19,21,23,25,27,29,-1,-1,-1,-1,-1,-1,-1,-1,-1,-1,-1,-1,-1,-1,-1,-1],"loss_changes":[4.0931648E3,6.665371E2,5.618987E2,1.326101E2,1.7561566E2,2.438299E2,4.8674683E1,7.5906494E1,1.4930444E2,1.211458E2,2.3550018E1,1.5480176E2,1.7949533E2,3.877417E1,5.8395355E1,0E0,0E0,0E0,0E0,0E0,0E0,0E0,0E0,0E0,0E0,0E0,0E0,0E0,0E0,0E0,0E0],"parents":[2147483647,0,0,1,1,2,2,3,3,4,4,5,5,6,6,7,7,8,8,9,9,10,10,11,11,12,12,13,13,14,14],"right_children":[2,4,6,8,10,12,14,16,18,20,22,24,26,28,30,-1,-1,-1,-1,-1,-1,-1,-1,-1,-1,-1,-1,-1,-1,-1,-1],"split_conditions":[-5.8459027E-5,-4.6672663E-3,8.477963E-3,-1.19965505E-2,-2.314612E-4,2.955745E-1,2.3221022E-2,7.3007315E-2,1.0586801E-3,-2.1479458E-3,4.98418E-4,1.7582818E-3,2.2251857E-3,1.334973E-2,1.9061395E-3,9.456858E-3,8.927093E-4,7.0420555E-3,3.5958132E-3,2.7025877E-3,6.0409897E-5,3.2451272E-3,5.3604594E-3,-2.4279873E-3,-5.4594544E-3,5.13961E-4,-2.5737486E-3,-6.593102E-3,-9.385527E-3,-9.672382E-4,-8.198958E-3],"split_indices":[12,6,6,6,11,19,36,34,13,12,11,12,12,6,14,0,0,0,0,0,0,0,0,0,0,0,0,0,0,0,0],"split_type":[0,0,0,0,0,0,0,0,0,0,0,0,0,0,0,0,0,0,0,0,0,0,0,0,0,0,0,0,0,0,0],"sum_hessian":[3.418689E4,1.6387016E4,1.7799875E4,6.6736953E3,9.71332E3,1.4533328E4,3.2665464E3,1.4586948E3,5.2150005E3,7.219093E3,2.494228E3,6.941674E3,7.591654E3,2.7833267E3,4.8321973E2,1.3357233E3,1.2297149E2,2.5138743E3,2.7011265E3,2.9353198E3,4.283773E3,1.3709438E3,1.1232842E3,3.7972231E3,3.144451E3,3.3484282E3,4.2432256E3,1.8412399E3,9.420868E2,3.0111127E2,1.8210844E2],"tree_param":{"num_deleted":"0","num_feature":"37","num_nodes":"31","size_leaf_vector":"1"}},{"base_weights":[-2.6245153E-4,4.7679427E-1,-3.8678414E-1,7.4587625E-1,2.9869413E-1,-1.7470248E-1,-6.952532E-1,5.13925E-1,8.822665E-1,3.999707E-1,1.651764E-1,-5.2739054E-2,-3.0536637E-1,-5.8739823E-1,-8.703196E-1,7.1009225E-3,4.462085E-3,6.1424016E-3,1.0263964E-2,5.1339315E-3,2.9170807E-3,7.651463E-4,3.4149666E-3,5.8863545E-4,-2.0040125E-3,-3.7058352E-3,-1.3037575E-3,-6.5063373E-3,-3.0198554E-3,-9.336644E-3,-5.1501235E-3],"categories":[],"categories_nodes":[],"categories_segments":[],"categories_sizes":[],"default_left":[0,0,0,0,0,0,0,0,0,0,0,0,0,0,0,0,0,0,0,0,0,0,0,0,0,0,0,0,0,0,0],"id":35,"left_children":[1,3,5,7,9,11,13,15,17,19,21,23,25,27,29,-1,-1,-1,-1,-1,-1,-1,-1,-1,-1,-1,-1,-1,-1,-1,-1],"loss_changes":[6.285845E3,7.257114E2,1.2284329E3,1.8306177E2,1.2208533E2,1.7694666E2,1.3524292E2,2.3607544E1,1.3539233E2,6.0104614E1,6.1005768E1,9.623847E1,5.945804E1,8.1525635E1,5.5905273E1,0E0,0E0,0E0,0E0,0E0,0E0,0E0,0E0,0E0,0E0,0E0,0E0,0E0,0E0,0E0,0E0],"parents":[2147483647,0,0,1,1,2,2,3,3,4,4,5,5,6,6,7,7,8,8,9,9,10,10,11,11,12,12,13,13,14,14],"right_children":[2,4,6,8,10,12,14,16,18,20,22,24,26,28,30,-1,-1,-1,-1,-1,-1,-1,-1,-1,-1,-1,-1,-1,-1,-1,-1],"split_conditions":[-5.8557873E-4,-6.601629E-3,5.738486E-3,-4.422887E-1,-2.711049E-3,2.389571E-3,1.15704425E-2,-5E-1,9.323592E0,1.3217385E0,2.7293718E-1,1.2572262E0,5.5270785E-1,3.8168774E0,2.392155E-2,7.1009225E-3,4.462085E-3,6.1424016E-3,1.0263964E-2,5.1339315E-3,2.9170807E-3,7.651463E-4,3.4149666E-3,5.8863545E-4,-2.0040125E-3,-3.7058352E-3,-1.3037575E-3,-6.5063373E-3,-3.0198554E-3,-9.336644E-3,-5.1501235E-3],"split_indices":[3,3,3,21,3,3,3,22,28,24,19,24,19,25,36,0,0,0,0,0,0,0,0,0,0,0,0,0,0,0,0],"split_type":[0,0,0,0,0,0,0,0,0,0,0,0,0,0,0,0,0,0,0,0,0,0,0,0,0,0,0,0,0,0,0],"sum_hessian":[3.40709E4,1.5244983E4,1.8825916E4,6.0522446E3,9.192738E3,1.1170947E4,7.6549688E3,2.2668376E3,3.785407E3,5.2034023E3,3.9893364E3,5.7969717E3,5.373975E3,4.774303E3,2.8806655E3,5.4599243E2,1.7208453E3,1.349425E3,2.435982E3,2.5093374E3,2.694065E3,2.675386E3,1.3139503E3,3.293473E3,2.503499E3,3.8942922E3,1.479683E3,3.889291E3,8.850119E2,2.4238215E3,4.5684393E2],"tree_param":{"num_deleted":"0","num_feature":"37","num_nodes":"31","size_leaf_vector":"1"}},{"base_weights":[1.0030976E-3,3.6669445E-1,-3.0208823E-1,1.9739035E-1,7.320915E-1,-1.5705216E-1,-5.194356E-1,1.1085254E-1,4.162178E-1,8.780124E-1,5.8735543E-1,-2.9159403E-1,2.8543117E-2,-6.5827036E-1,-3.497835E-1,2.1190702E-3,2.6071558E-4,2.656597E-3,5.9735114E-3,7.3205773E-3,1.0669582E-2,3.1884497E-3,6.4660823E-3,-2.133982E-3,-4.8206723E-3,-2.3749286E-4,4.589061E-3,-7.4385856E-3,-5.187057E-3,-2.1421919E-3,-5.4652765E-3],"categories":[],"categories_nodes":[],"categories_segments":[],"categories_sizes":[],"default_left":[0,0,0,0,0,0,0,0,0,0,0,0,0,0,0,0,0,0,0,0,0,0,0,0,0,0,0,0,0,0,0],"id":36,"left_children":[1,3,5,7,9,11,13,15,17,19,21,23,25,27,29,-1,-1,-1,-1,-1,-1,-1,-1,-1,-1,-1,-1,-1,-1,-1,-1],"loss_changes":[3.7913728E3,9.550178E2,5.865985E2,1.989833E2,9.39436E1,2.8147855E2,1.70646E2,6.4606674E1,7.7498474E1,5.324536E1,3.482843E1,9.4071106E1,1.076925E2,4.1181763E1,8.70556E1,0E0,0E0,0E0,0E0,0E0,0E0,0E0,0E0,0E0,0E0,0E0,0E0,0E0,0E0,0E0,0E0],"parents":[2147483647,0,0,1,1,2,2,3,3,4,4,5,5,6,6,7,7,8,8,9,9,10,10,11,11,12,12,13,13,14,14],"right_children":[2,4,6,8,10,12,14,16,18,20,22,24,26,28,30,-1,-1,-1,-1,-1,-1,-1,-1,-1,-1,-1,-1,-1,-1,-1,-1],"split_conditions":[-3.1813112E-4,9.136671E0,3.17319E-3,5.1026754E-2,9.698606E-1,3.254342E-1,6.5064354E1,-2.341734E-3,6.4869127E0,1.1763364E1,-9.800314E-1,1.7982214E-3,4.7197504E0,9.9708533E-1,6.656162E-3,2.1190702E-3,2.6071558E-4,2.656597E-3,5.9735114E-3,7.3205773E-3,1.0669582E-2,3.1884497E-3,6.4660823E-3,-2.133982E-3,-4.8206723E-3,-2.3749286E-4,4.589061E-3,-7.4385856E-3,-5.187057E-3,-2.1421919E-3,-5.4652765E-3],"split_indices":[12,28,12,19,16,19,18,12,28,28,19,12,28,16,12,0,0,0,0,0,0,0,0,0,0,0,0,0,0,0,0],"split_type":[0,0,0,0,0,0,0,0,0,0,0,0,0,0,0,0,0,0,0,0,0,0,0,0,0,0,0,0,0,0,0],"sum_hessian":[3.418473E4,1.5496004E4,1.8688727E4,1.0605592E4,4.8904126E3,1.1227582E4,7.461145E3,7.6206816E3,2.98491E3,2.3996892E3,2.4907234E3,6.515102E3,4.7124795E3,4.0776863E3,3.3834585E3,3.4536875E3,4.1669937E3,1.6525438E3,1.3323662E3,1.3903273E3,1.00936194E3,4.7095978E2,2.0197637E3,4.645088E3,1.8700143E3,4.2041235E3,5.08356E2,2.4874563E3,1.5902299E3,2.0245807E3,1.3588778E3],"tree_param":{"num_deleted":"0","num_feature":"37","num_nodes":"31","size_leaf_vector":"1"}},{"base_weights":[-3.5327652E-3,-2.1569498E-1,5.2824944E-1,-3.3287027E-1,1.4786891E-3,3.4759718E-1,7.468298E-1,-2.9660866E-1,-6.9604564E-1,-1.0493911E-1,1.6899754E-1,1.5380919E-2,4.6148512E-1,4.5644972E-1,9.003899E-1,-3.8946508E-3,-1.9281771E-3,-8.019615E-3,-1.1431265E-3,-2.0236112E-3,-2.0143433E-4,1.886459E-3,-3.4137126E-3,1.1223126E-3,-1.4508478E-3,3.621146E-3,6.0834205E-3,-1.3321599E-3,5.125545E-3,7.7460078E-3,1.1342275E-2],"categories":[],"categories_nodes":[],"categories_segments":[],"categories_sizes":[],"default_left":[0,0,0,0,0,0,0,0,0,0,0,0,0,0,0,0,0,0,0,0,0,0,0,0,0,0,0,0,0,0,0],"id":37,"left_children":[1,3,5,7,9,11,13,15,17,19,21,23,25,27,29,-1,-1,-1,-1,-1,-1,-1,-1,-1,-1,-1,-1,-1,-1,-1,-1],"loss_changes":[3.8512708E3,6.221742E2,3.7845654E2,2.0388159E2,1.5289233E2,2.0111359E2,1.8748633E2,1.3675842E2,8.4151855E1,4.2473858E1,3.3663742E1,2.1576578E1,5.2980835E1,5.2930145E1,6.941138E1,0E0,0E0,0E0,0E0,0E0,0E0,0E0,0E0,0E0,0E0,0E0,0E0,0E0,0E0,0E0,0E0],"parents":[2147483647,0,0,1,1,2,2,3,3,4,4,5,5,6,6,7,7,8,8,9,9,10,10,11,11,12,12,13,13,14,14],"right_children":[2,4,6,8,10,12,14,16,18,20,22,24,26,28,30,-1,-1,-1,-1,-1,-1,-1,-1,-1,-1,-1,-1,-1,-1,-1,-1],"split_conditions":[6.4281254E0,3.5151193E0,9.514352E0,9.843329E0,4.4098204E-1,-1.3678452E-3,-4.422887E-1,3.7785363E-1,1.4315315E0,4.7197504E0,7.164171E0,1.670908E-3,9.372056E-2,7.411479E-4,1.27799E1,-3.8946508E-3,-1.9281771E-3,-8.019615E-3,-1.1431265E-3,-2.0236112E-3,-2.0143433E-4,1.886459E-3,-3.4137126E-3,1.1223126E-3,-1.4508478E-3,3.621146E-3,6.0834205E-3,-1.3321599E-3,5.125545E-3,7.7460078E-3,1.1342275E-2],"split_indices":[28,28,28,27,7,10,21,19,20,28,27,13,19,13,28,0,0,0,0,0,0,0,0,0,0,0,0,0,0,0,0],"split_type":[0,0,0,0,0,0,0,0,0,0,0,0,0,0,0,0,0,0,0,0,0,0,0,0,0,0,0,0,0,0,0],"sum_hessian":[3.412339E4,2.4400174E4,9.723218E3,1.5854449E4,8.545725E3,5.345171E3,4.3780474E3,1.4439182E4,1.4152667E3,5.2172495E3,3.3284756E3,1.3742151E3,3.9709556E3,1.534877E3,2.8431704E3,7.591251E3,6.847931E3,1.1897135E3,2.2555325E2,2.4049504E3,2.812299E3,3.2168154E3,1.1166025E2,8.705121E2,5.0370297E2,2.4012437E3,1.569712E3,1.2751107E2,1.4073658E3,1.8850782E3,9.580922E2],"tree_param":{"num_deleted":"0","num_feature":"37","num_nodes":"31","size_leaf_vector":"1"}},{"base_weights":[2.7457818E-3,3.5196194E-1,-3.311429E-1,5.63947E-1,1.9279094E-1,-2.1597824E-1,-7.2821414E-1,7.131447E-1,4.3643436E-1,1.2346469E-1,4.5023578E-1,-3.3605757E-1,-9.9582285E-2,-6.439761E-1,-1.0095799E0,9.073472E-3,5.9716543E-3,2.680019E-3,6.07359E-3,2.1004505E-3,-5.888282E-4,6.4708726E-3,3.373007E-3,-2.174113E-3,-4.5869965E-3,2.3817719E-4,-2.5695881E-3,-7.6784883E-3,-4.5854556E-3,-1.1031319E-2,-4.8501412E-3],"categories":[],"categories_nodes":[],"categories_segments":[],"categories_sizes":[],"default_left":[0,0,0,0,0,0,0,0,0,0,0,0,0,0,0,0,0,0,0,0,0,0,0,0,0,0,0,0,0,0,0],"id":38,"left_children":[1,3,5,7,9,11,13,15,17,19,21,23,25,27,29,-1,-1,-1,-1,-1,-1,-1,-1,-1,-1,-1,-1,-1,-1,-1,-1],"loss_changes":[3.9862913E3,5.606216E2,7.9460583E2,1.2955566E2,1.6852069E2,1.8794727E2,8.140845E1,6.3729126E1,1.0786163E2,1.1997059E2,3.9711945E1,9.3880615E1,1.3504852E2,6.288806E1,3.2922913E1,0E0,0E0,0E0,0E0,0E0,0E0,0E0,0E0,0E0,0E0,0E0,0E0,0E0,0E0,0E0,0E0],"parents":[2147483647,0,0,1,1,2,2,3,3,4,4,5,5,6,6,7,7,8,8,9,9,10,10,11,11,12,12,13,13,14,14],"right_children":[2,4,6,8,10,12,14,16,18,20,22,24,26,28,30,-1,-1,-1,-1,-1,-1,-1,-1,-1,-1,-1,-1,-1,-1,-1,-1],"split_conditions":[5.0490946E-1,-4.3135146E-3,1.0516284E1,-8.0006905E-3,2.3168974E-4,5.551204E1,1.5248543E1,1.1122256E-3,-1.1689152E-3,3.411673E-1,3.4968218E-1,6.172082E0,7.033869E0,6.5064354E1,1.227419E0,9.073472E-3,5.9716543E-3,2.680019E-3,6.07359E-3,2.1004505E-3,-5.888282E-4,6.4708726E-3,3.373007E-3,-2.174113E-3,-4.5869965E-3,2.3817719E-4,-2.5695881E-3,-7.6784883E-3,-4.5854556E-3,-1.1031319E-2,-4.8501412E-3],"split_indices":[9,6,29,6,11,18,29,13,2,9,9,29,29,18,20,0,0,0,0,0,0,0,0,0,0,0,0,0,0,0,0],"split_type":[0,0,0,0,0,0,0,0,0,0,0,0,0,0,0,0,0,0,0,0,0,0,0,0,0,0,0,0,0,0,0],"sum_hessian":[3.4167414E4,1.670451E4,1.7462902E4,7.1447725E3,9.559738E3,1.3554588E4,3.9083147E3,3.2604224E3,3.8843503E3,7.552426E3,2.0073125E3,6.649754E3,6.904834E3,3.0413235E3,8.669912E2,1.183912E3,2.0765103E3,1.9782122E3,1.9061381E3,5.1310747E3,2.421351E3,7.0485455E2,1.3024579E3,3.4064648E3,3.2432893E3,3.864263E3,3.040571E3,1.7947761E3,1.2465474E3,7.215584E2,1.454328E2],"tree_param":{"num_deleted":"0","num_feature":"37","num_nodes":"31","size_leaf_vector":"1"}},{"base_weights":[-1.0008276E-3,3.5825694E-1,-2.9389128E-1,5.2819175E-1,1.6048916E-1,-1.6263743E-1,-5.3523976E-1,3.5375336E-1,6.640098E-1,-8.759623E-3,3.4566656E-1,-3.1620032E-1,-1.3657133E-2,-6.8400747E-1,-3.562476E-1,2.3482558E-3,5.2110064E-3,5.300238E-3,7.852788E-3,-7.4799336E-4,1.5295054E-3,-2.0870604E-3,3.6830844E-3,-2.3887837E-3,-5.2621737E-3,1.694348E-3,-8.5518387E-4,-8.950228E-3,-6.032745E-3,-1.7989579E-3,-5.1628035E-3],"categories":[],"categories_nodes":[],"categories_segments":[],"categories_sizes":[],"default_left":[0,0,0,0,0,0,0,0,0,0,0,0,0,0,0,0,0,0,0,0,0,0,0,0,0,0,0,0,0,0,0],"id":39,"left_children":[1,3,5,7,9,11,13,15,17,19,21,23,25,27,29,-1,-1,-1,-1,-1,-1,-1,-1,-1,-1,-1,-1,-1,-1,-1,-1],"loss_changes":[3.5871162E3,5.1151355E2,5.921218E2,1.8935059E2,2.2345692E2,2.7785962E2,1.7032275E2,6.8745056E1,6.664526E1,3.949024E1,4.38938E1,9.376044E1,8.157239E1,5.1213867E1,8.243881E1,0E0,0E0,0E0,0E0,0E0,0E0,0E0,0E0,0E0,0E0,0E0,0E0,0E0,0E0,0E0,0E0],"parents":[2147483647,0,0,1,1,2,2,3,3,4,4,5,5,6,6,7,7,8,8,9,9,10,10,11,11,12,12,13,13,14,14],"right_children":[2,4,6,8,10,12,14,16,18,20,22,24,26,28,30,-1,-1,-1,-1,-1,-1,-1,-1,-1,-1,-1,-1,-1,-1,-1,-1],"split_conditions":[-3.555791E-4,-2.5926956E-3,3.5407543E-3,-1.9509032E-1,-1.8626896E-1,1.9287859E-1,6.5302185E1,-4.9252552E-1,-1.4344625E-3,-8.7275123E-4,6.5505464E-4,1.9666427E-3,7.8453514E-4,-9.870646E-3,6.0689566E-3,2.3482558E-3,5.2110064E-3,5.300238E-3,7.852788E-3,-7.4799336E-4,1.5295054E-3,-2.0870604E-3,3.6830844E-3,-2.3887837E-3,-5.2621737E-3,1.694348E-3,-8.5518387E-4,-8.950228E-3,-6.032745E-3,-1.7989579E-3,-5.1628035E-3],"split_indices":[12,12,12,21,19,19,18,19,2,2,15,12,12,36,12,0,0,0,0,0,0,0,0,0,0,0,0,0,0,0,0],"split_type":[0,0,0,0,0,0,0,0,0,0,0,0,0,0,0,0,0,0,0,0,0,0,0,0,0,0,0,0,0,0,0],"sum_hessian":[3.4072383E4,1.5296863E4,1.877552E4,8.2102295E3,7.086634E3,1.2180501E4,6.5950195E3,3.6195642E3,4.590665E3,3.699074E3,3.38756E3,5.982559E3,6.197942E3,3.5770288E3,3.0179905E3,2.14041E3,1.4791543E3,2.218246E3,2.3724187E3,2.6434568E3,1.0556171E3,1.24503174E2,3.263057E3,4.398737E3,1.5838226E3,1.7313615E3,4.46658E3,9.51646E2,2.6253828E3,1.4548129E3,1.5631776E3],"tree_param":{"num_deleted":"0","num_feature":"37","num_nodes":"31","size_leaf_vector":"1"}},{"base_weights":[-2.431235E-3,4.6694714E-1,-3.614084E-1,7.8838706E-1,3.3268753E-1,-9.316074E-2,-5.799221E-1,5.2663934E-1,9.3014777E-1,4.5194933E-1,2.0809089E-1,-1.6374598E-1,9.1470025E-2,-4.115808E-1,-7.410968E-1,1.9251504E-3,5.8590667E-3,6.557044E-3,1.0215212E-2,2.1176252E-3,5.1189987E-3,1.0416167E-3,3.5579044E-3,-5.5120845E-4,-2.61158E-3,-3.238625E-3,1.4827744E-3,-4.469539E-3,4.4528968E-4,-9.467418E-3,-6.310389E-3],"categories":[],"categories_nodes":[],"categories_segments":[],"categories_sizes":[],"default_left":[0,0,0,0,0,0,0,0,0,0,0,0,0,0,0,0,0,0,0,0,0,0,0,0,0,0,0,0,0,0,0],"id":40,"left_children":[1,3,5,7,9,11,13,15,17,19,21,23,25,27,29,-1,-1,-1,-1,-1,-1,-1,-1,-1,-1,-1,-1,-1,-1,-1,-1],"loss_changes":[5.745225E3,6.315879E2,1.1302122E3,1.517229E2,1.522854E2,1.1366207E2,2.822307E2,2.732547E1,5.833374E1,7.328943E1,7.713466E1,6.561728E1,5.6556023E1,8.589703E1,1.11851074E2,0E0,0E0,0E0,0E0,0E0,0E0,0E0,0E0,0E0,0E0,0E0,0E0,0E0,0E0,0E0,0E0],"parents":[2147483647,0,0,1,1,2,2,3,3,4,4,5,5,6,6,7,7,8,8,9,9,10,10,11,11,12,12,13,13,14,14],"right_children":[2,4,6,8,10,12,14,16,18,20,22,24,26,28,30,-1,-1,-1,-1,-1,-1,-1,-1,-1,-1,-1,-1,-1,-1,-1,-1],"split_conditions":[-8.515378E-4,-8.4352875E-3,3.7553855E-3,-5E-1,-3.7374932E-3,8.2408804E-1,7.812723E-3,9.963608E-4,9.323592E0,-1.4274063E-3,1.3488228E-4,1.1675387E-3,-9.238795E-1,2.5035394E-3,8.4076554E-1,1.9251504E-3,5.8590667E-3,6.557044E-3,1.0215212E-2,2.1176252E-3,5.1189987E-3,1.0416167E-3,3.5579044E-3,-5.5120845E-4,-2.61158E-3,-3.238625E-3,1.4827744E-3,-4.469539E-3,4.4528968E-4,-9.467418E-3,-6.310389E-3],"split_indices":[3,3,3,21,3,7,3,15,28,10,10,3,21,10,16,0,0,0,0,0,0,0,0,0,0,0,0,0,0,0,0],"split_type":[0,0,0,0,0,0,0,0,0,0,0,0,0,0,0,0,0,0,0,0,0,0,0,0,0,0,0,0,0,0,0],"sum_hessian":[3.407894E4,1.4763566E4,1.9315373E4,4.32875E3,1.0434816E4,8.683496E3,1.0631878E4,1.5447778E3,2.7839722E3,5.3058223E3,5.128994E3,6.294469E3,2.3890266E3,5.226809E3,5.405069E3,2.4675824E2,1.2980195E3,7.240011E2,2.0599712E3,1.078853E3,4.226969E3,3.0325178E3,2.0964766E3,2.997917E3,3.2965525E3,2.754351E2,2.1135916E3,4.856915E3,3.6989435E2,1.8482677E3,3.556801E3],"tree_param":{"num_deleted":"0","num_feature":"37","num_nodes":"31","size_leaf_vector":"1"}},{"base_weights":[-3.091235E-3,4.523029E-1,-3.733987E-1,6.41033E-1,2.1004596E-1,-1.968705E-1,-6.9719124E-1,4.4631848E-1,7.5535005E-1,1.3617969E-1,3.7355608E-1,-7.859853E-2,-3.3526087E-1,-5.152954E-1,-7.958268E-1,3.5252403E-3,5.775628E-3,9.538887E-3,5.761076E-3,1.9744916E-3,1.8112663E-4,4.848214E-3,2.3701377E-3,-3.2791912E-3,-2.7482637E-4,-4.0187724E-3,-1.3953857E-3,-3.9426237E-3,-6.737655E-3,-8.398209E-3,-3.6889627E-3],"categories":[],"categories_nodes":[],"categories_segments":[],"categories_sizes":[],"default_left":[0,0,0,0,0,0,0,0,0,0,0,0,0,0,0,0,0,0,0,0,0,0,0,0,0,0,0,0,0,0,0],"id":41,"left_children":[1,3,5,7,9,11,13,15,17,19,21,23,25,27,29,-1,-1,-1,-1,-1,-1,-1,-1,-1,-1,-1,-1,-1,-1,-1,-1],"loss_changes":[5.748769E3,6.9497144E2,1.0708523E3,1.8401001E2,7.906973E1,1.9802426E2,1.1083276E2,3.4665527E1,1.8144165E2,3.298474E1,2.8153534E1,8.292683E1,7.086456E1,3.9568176E1,7.341577E1,0E0,0E0,0E0,0E0,0E0,0E0,0E0,0E0,0E0,0E0,0E0,0E0,0E0,0E0,0E0,0E0],"parents":[2147483647,0,0,1,1,2,2,3,3,4,4,5,5,6,6,7,7,8,8,9,9,10,10,11,11,12,12,13,13,14,14],"right_children":[2,4,6,8,10,12,14,16,18,20,22,24,26,28,30,-1,-1,-1,-1,-1,-1,-1,-1,-1,-1,-1,-1,-1,-1,-1,-1],"split_conditions":[-5.8557873E-4,-4.479402E-3,6.6102236E-3,-4.422887E-1,5.508759E-4,2.8384908E-3,-5E-1,1.5811605E0,-8.7848455E-3,-1.8443159E-3,-2.1312444E-3,-1.3246532E-3,1.2549671E-3,1.5337981E0,5.249074E-2,3.5252403E-3,5.775628E-3,9.538887E-3,5.761076E-3,1.9744916E-3,1.8112663E-4,4.848214E-3,2.3701377E-3,-3.2791912E-3,-2.7482637E-4,-4.0187724E-3,-1.3953857E-3,-3.9426237E-3,-6.737655E-3,-8.398209E-3,-3.6889627E-3],"split_indices":[3,3,3,21,4,3,21,27,3,3,3,4,4,28,34,0,0,0,0,0,0,0,0,0,0,0,0,0,0,0,0],"split_type":[0,0,0,0,0,0,0,0,0,0,0,0,0,0,0,0,0,0,0,0,0,0,0,0,0,0,0,0,0,0,0],"sum_hessian":[3.4071227E4,1.5275505E4,1.8795719E4,8.570117E3,6.7053877E3,1.2180428E4,6.615292E3,3.1981104E3,5.3720073E3,4.644083E3,2.061305E3,6.5877354E3,5.592692E3,2.3585317E3,4.2567603E3,1.8999905E3,1.2981199E3,2.5203616E3,2.8516455E3,3.0362988E3,1.6077842E3,1.1096211E3,9.5168384E2,1.1016302E3,5.4861055E3,4.1532305E3,1.4394615E3,1.3677274E3,9.908043E2,3.8439526E3,4.128079E2],"tree_param":{"num_deleted":"0","num_feature":"37","num_nodes":"31","size_leaf_vector":"1"}},{"base_weights":[-2.086734E-3,4.5196882E-1,-3.7234595E-1,7.354322E-1,2.9697934E-1,-1.9981727E-1,-6.9019645E-1,4.854037E-1,8.680797E-1,3.8639492E-1,1.5630874E-1,-7.494979E-2,-3.4508717E-1,-4.7100335E-1,-7.7713954E-1,5.2844645E-3,-2.8055668E-4,6.0297484E-3,9.907339E-3,2.9468432E-3,5.003559E-3,1.3212797E-4,2.7965594E-3,-2.3072532E-3,6.056157E-5,-4.3285657E-3,-1.7408824E-3,-5.271118E-3,-1.0445692E-3,-7.113273E-3,-9.751566E-3],"categories":[],"categories_nodes":[],"categories_segments":[],"categories_sizes":[],"default_left":[0,0,0,0,0,0,0,0,0,0,0,0,0,0,0,0,0,0,0,0,0,0,0,0,0,0,0,0,0,0,0],"id":42,"left_children":[1,3,5,7,9,11,13,15,17,19,21,23,25,27,29,-1,-1,-1,-1,-1,-1,-1,-1,-1,-1,-1,-1,-1,-1,-1,-1],"loss_changes":[5.740669E3,6.684321E2,1.0276404E3,1.7105566E2,1.2276489E2,2.2004526E2,1.1854224E2,4.3746582E1,1.03451416E2,5.94328E1,6.777617E1,8.387538E1,8.195477E1,3.687964E1,4.9341797E1,0E0,0E0,0E0,0E0,0E0,0E0,0E0,0E0,0E0,0E0,0E0,0E0,0E0,0E0,0E0,0E0],"parents":[2147483647,0,0,1,1,2,2,3,3,4,4,5,5,6,6,7,7,8,8,9,9,10,10,11,11,12,12,13,13,14,14],"right_children":[2,4,6,8,10,12,14,16,18,20,22,24,26,28,30,-1,-1,-1,-1,-1,-1,-1,-1,-1,-1,-1,-1,-1,-1,-1,-1],"split_conditions":[-5.8557873E-4,-7.2578457E-3,6.6102236E-3,-5E-1,-2.635925E-3,2.8384908E-3,-6.593458E-1,2.244871E-3,9.323592E0,-7.4406664E-5,-1.4418246E-4,-3.5185818E-4,8.2408804E-1,7.63687E1,1.4929455E-2,5.2844645E-3,-2.8055668E-4,6.0297484E-3,9.907339E-3,2.9468432E-3,5.003559E-3,1.3212797E-4,2.7965594E-3,-2.3072532E-3,6.056157E-5,-4.3285657E-3,-1.7408824E-3,-5.271118E-3,-1.0445692E-3,-7.113273E-3,-9.751566E-3],"split_indices":[3,3,3,21,3,3,21,15,28,10,10,10,7,18,3,0,0,0,0,0,0,0,0,0,0,0,0,0,0,0,0],"split_type":[0,0,0,0,0,0,0,0,0,0,0,0,0,0,0,0,0,0,0,0,0,0,0,0,0,0,0,0,0,0,0],"sum_hessian":[3.4128023E4,1.5324727E4,1.8803297E4,5.3970845E3,9.927642E3,1.2204463E4,6.598835E3,1.8947888E3,3.5022954E3,6.045865E3,3.8817764E3,6.5823667E3,5.622096E3,1.9021023E3,4.6967324E3,1.7533577E3,1.4143121E2,1.1342803E3,2.3680151E3,3.384421E3,2.6614446E3,1.8134146E3,2.068362E3,2.258258E3,4.3241084E3,3.6934724E3,1.9286238E3,1.6386967E3,2.6340573E2,3.5709705E3,1.1257621E3],"tree_param":{"num_deleted":"0","num_feature":"37","num_nodes":"31","size_leaf_vector":"1"}}]},"name":"gbtree"},"learner_model_param":{"base_score":"[4.983241E-1]","boost_from_average":"1","num_class":"0","num_feature":"37","num_target":"1"},"objective":{"name":"binary:logistic","reg_loss_param":{"scale_pos_weight":"1"}}},"version":[3,2,0]}