{"learner":{"attributes":{"best_iteration":"156","best_score":"0.686897680827965"},"feature_names":["price_above_ema9","price_above_ema21","price_above_ema50","price_above_ema200","ema_bullish_count","ema_spread","dist_to_nearest_ema","ema_9_pos","ema_21_pos","ema_50_pos","ema_100_pos","ema_150_pos","ema_200_pos","ema_300_pos","ema_500_pos","ema_800_pos","ema_1000_pos","vwap_dev","vwap_dev_pct","price_vs_vwap_band","vwap_slope","ret_1bar","ret_2bar","ret_4bar","ret_8bar","ret_12bar","ret_24bar","ret_48bar","ret_96bar","atr_6h_pct","atr_24h_pct","atr_96h_pct","vol_ratio_short_long","range_pos_12h","range_pos_24h","range_pos_48h","range_pos_96h","pullback_high_12h","pullback_low_12h","pullback_high_24h","pullback_low_24h","pullback_high_48h","pullback_low_48h","vol_ratio","vol_zscore","cos_hour","sin_hour","cos_dow","rsi_14","bb_pos","consec_up","consec_down"],"feature_types":[],"gradient_booster":{"model":{"cats":{"enc":[],"feature_segments":[],"sorted_idx":[]},"gbtree_model_param":{"num_parallel_tree":"1","num_trees":"207"},"iteration_indptr":[0,1,2,3,4,5,6,7,8,9,10,11,12,13,14,15,16,17,18,19,20,21,22,23,24,25,26,27,28,29,30,31,32,33,34,35,36,37,38,39,40,41,42,43,44,45,46,47,48,49,50,51,52,53,54,55,56,57,58,59,60,61,62,63,64,65,66,67,68,69,70,71,72,73,74,75,76,77,78,79,80,81,82,83,84,85,86,87,88,89,90,91,92,93,94,95,96,97,98,99,100,101,102,103,104,105,106,107,108,109,110,111,112,113,114,115,116,117,118,119,120,121,122,123,124,125,126,127,128,129,130,131,132,133,134,135,136,137,138,139,140,141,142,143,144,145,146,147,148,149,150,151,152,153,154,155,156,157,158,159,160,161,162,163,164,165,166,167,168,169,170,171,172,173,174,175,176,177,178,179,180,181,182,183,184,185,186,187,188,189,190,191,192,193,194,195,196,197,198,199,200,201,202,203,204,205,206,207],"tree_info":[0,0,0,0,0,0,0,0,0,0,0,0,0,0,0,0,0,0,0,0,0,0,0,0,0,0,0,0,0,0,0,0,0,0,0,0,0,0,0,0,0,0,0,0,0,0,0,0,0,0,0,0,0,0,0,0,0,0,0,0,0,0,0,0,0,0,0,0,0,0,0,0,0,0,0,0,0,0,0,0,0,0,0,0,0,0,0,0,0,0,0,0,0,0,0,0,0,0,0,0,0,0,0,0,0,0,0,0,0,0,0,0,0,0,0,0,0,0,0,0,0,0,0,0,0,0,0,0,0,0,0,0,0,0,0,0,0,0,0,0,0,0,0,0,0,0,0,0,0,0,0,0,0,0,0,0,0,0,0,0,0,0,0,0,0,0,0,0,0,0,0,0,0,0,0,0,0,0,0,0,0,0,0,0,0,0,0,0,0,0,0,0,0,0,0,0,0,0,0,0,0,0,0,0,0,0,0],"trees":[{"base_weights":[-4.283572E-3,5.738662E-1,-4.907175E-1,9.109929E-1,2.9808652E-1,-2.7333492E-1,-8.804817E-1,7.57592E-1,1.178672E0,2.0397207E-1,6.20735E-1,2.0798353E-2,-3.5446426E-1,-7.567697E-1,-1.1648065E0,2.6886633E-2,4.3219186E-2,4.011336E-2,6.9534056E-2,4.9447776E-3,1.7815031E-2,1.8255688E-2,3.741395E-2,-8.1850765E-3,8.65399E-3,-2.1934139E-2,-8.753061E-3,-4.4515405E-2,-2.6586577E-2,-4.1142184E-2,-6.1813273E-2],"categories":[],"categories_nodes":[],"categories_segments":[],"categories_sizes":[],"default_left":[0,0,0,0,0,0,0,0,0,0,0,0,0,0,0,0,0,0,0,0,0,0,0,0,0,0,0,0,0,0,0],"id":0,"left_children":[1,3,5,7,9,11,13,15,17,19,21,23,25,27,29,-1,-1,-1,-1,-1,-1,-1,-1,-1,-1,-1,-1,-1,-1,-1,-1],"loss_changes":[2.8214624E3,4.209884E2,4.5724634E2,7.4077515E1,7.3793655E1,8.484332E1,5.823242E1,2.462616E1,4.627655E1,3.0074074E1,1.3624619E1,2.1410097E1,3.949051E1,3.4739502E1,2.7382812E0,0E0,0E0,0E0,0E0,0E0,0E0,0E0,0E0,0E0,0E0,0E0,0E0,0E0,0E0,0E0,0E0],"parents":[2147483647,0,0,1,1,2,2,3,3,4,4,5,5,6,6,7,7,8,8,9,9,10,10,11,11,12,12,13,13,14,14],"right_children":[2,4,6,8,10,12,14,16,18,20,22,24,26,28,30,-1,-1,-1,-1,-1,-1,-1,-1,-1,-1,-1,-1,-1,-1,-1,-1],"split_conditions":[4.6298555E-1,-4.074157E-3,3.850499E0,5.095593E0,3.424402E0,1.285634E0,5.9002156E0,3.1724952E-2,-2.5881904E-1,4.046591E-4,-1.3768057E-3,-3.4999583E-4,8.890473E-1,9.817185E-1,-7.0710677E-1,2.6886633E-2,4.3219186E-2,4.011336E-2,6.9534056E-2,4.9447776E-3,1.7815031E-2,1.8255688E-2,3.741395E-2,-8.1850765E-3,8.65399E-3,-2.1934139E-2,-8.753061E-3,-4.4515405E-2,-2.6586577E-2,-4.1142184E-2,-6.1813273E-2],"split_indices":[35,9,40,39,39,40,40,33,45,23,23,21,33,33,45,0,0,0,0,0,0,0,0,0,0,0,0,0,0,0,0],"split_type":[0,0,0,0,0,0,0,0,0,0,0,0,0,0,0,0,0,0,0,0,0,0,0,0,0,0,0,0,0,0,0],"sum_hessian":[1.00234E4,4.5767046E3,5.4466963E3,2.0492297E3,2.527475E3,3.5069653E3,1.9397308E3,1.3219869E3,7.272428E2,1.9702305E3,5.572445E2,7.5099255E2,2.7559727E3,1.3717365E3,5.679944E2,4.5124554E2,8.707414E2,2.7574728E2,4.5149554E2,1.1824883E3,7.877422E2,1.9974802E2,3.5749646E2,3.3049673E2,4.2049585E2,1.8592316E3,8.9674115E2,8.4324164E2,5.2849475E2,1.1624885E2,4.5174554E2],"tree_param":{"num_deleted":"0","num_feature":"52","num_nodes":"31","size_leaf_vector":"1"}},{"base_weights":[1.5547384E-3,5.475722E-1,-4.5533803E-1,8.5696685E-1,2.9647794E-1,-2.8046885E-1,-8.7890846E-1,6.1752284E-1,1.0108024E0,3.7880918E-1,4.1934006E-2,-4.1025215E-1,-8.138291E-2,-6.7646235E-1,-1.0247371E0,1.1829293E-2,3.3331554E-2,6.2361885E-2,4.2448927E-2,7.451491E-3,2.5921157E-2,-1.5798608E-2,9.697436E-3,-2.296262E-2,-0E0,-1.7100116E-2,-0E0,-3.8355034E-2,-1.0989809E-2,-2.9464668E-2,-5.381419E-2],"categories":[],"categories_nodes":[],"categories_segments":[],"categories_sizes":[],"default_left":[0,0,0,0,0,0,0,0,0,0,0,0,0,0,0,0,0,0,0,0,0,0,0,0,0,0,0,0,0,0,0],"id":1,"left_children":[1,3,5,7,9,11,13,15,17,19,21,23,25,27,29,-1,-1,-1,-1,-1,-1,-1,-1,-1,-1,-1,-1,-1,-1,-1,-1],"loss_changes":[2.5031082E3,3.5056995E2,3.9963892E2,6.716992E1,5.1838577E1,9.851245E1,3.8306885E1,1.1819031E1,3.5366455E1,5.881714E1,3.447292E1,4.5814148E1,3.233636E1,2.4680908E1,1.2137573E1,0E0,0E0,0E0,0E0,0E0,0E0,0E0,0E0,0E0,0E0,0E0,0E0,0E0,0E0,0E0,0E0],"parents":[2147483647,0,0,1,1,2,2,3,3,4,4,5,5,6,6,7,7,8,8,9,9,10,10,11,11,12,12,13,13,14,14],"right_children":[2,4,6,8,10,12,14,16,18,20,22,24,26,28,30,-1,-1,-1,-1,-1,-1,-1,-1,-1,-1,-1,-1,-1,-1,-1,-1],"split_conditions":[-2.943867E-4,-4.074157E-3,5.8985655E-3,-2.5881904E-1,4.9084422E-1,1.8584758E0,7.138806E0,4.488029E0,-7.704407E-3,-1.2846297E-3,8.7284184E-1,2.3376695E-3,-1.0323832E-3,1.0357238E0,7.861828E-1,1.1829293E-2,3.3331554E-2,6.2361885E-2,4.2448927E-2,7.451491E-3,2.5921157E-2,-1.5798608E-2,9.697436E-3,-2.296262E-2,-0E0,-1.7100116E-2,-0E0,-3.8355034E-2,-1.0989809E-2,-2.9464668E-2,-5.381419E-2],"split_indices":[9,9,9,45,34,41,42,41,9,23,38,22,22,49,34,0,0,0,0,0,0,0,0,0,0,0,0,0,0,0,0],"split_type":[0,0,0,0,0,0,0,0,0,0,0,0,0,0,0,0,0,0,0,0,0,0,0,0,0,0,0,0,0,0,0],"sum_hessian":[1.0022539E4,4.568477E3,5.4540625E3,2.0358815E3,2.5325957E3,3.871234E3,1.5828285E3,8.137916E2,1.2220898E3,1.9028875E3,6.2970825E2,2.331177E3,1.5400566E3,6.831768E2,8.996517E2,1.0322722E2,7.1056445E2,4.7540945E2,7.4668036E2,7.3123376E2,1.1716537E3,1.8023412E2,4.4947415E2,2.0764707E3,2.5470634E2,3.589493E2,1.1811074E3,5.617195E2,1.2145732E2,1.0796581E2,7.9168585E2],"tree_param":{"num_deleted":"0","num_feature":"52","num_nodes":"31","size_leaf_vector":"1"}},{"base_weights":[-0E0,6.035579E-1,-4.813318E-1,9.386386E-1,3.77982E-1,-2.2502762E-1,-8.3053875E-1,6.4137733E-1,1.0300689E0,5.287154E-1,2.3335852E-1,-6.463999E-2,-3.6196688E-1,-6.7526865E-1,-1.0742449E0,2.2437623E-2,3.578161E-2,3.0554106E-2,5.348294E-2,3.8216286E-3,2.8842553E-2,5.628929E-3,2.1168998E-2,-1.4613834E-2,-7.131153E-4,-2.0527614E-2,-0E0,-3.6895476E-2,-1.2804279E-2,-5.606382E-2,-3.369814E-2],"categories":[],"categories_nodes":[],"categories_segments":[],"categories_sizes":[],"default_left":[0,0,0,0,0,0,0,0,0,0,0,0,0,0,0,0,0,0,0,0,0,0,0,0,0,0,0,0,0,0,0],"id":2,"left_children":[1,3,5,7,9,11,13,15,17,19,21,23,25,27,29,-1,-1,-1,-1,-1,-1,-1,-1,-1,-1,-1,-1,-1,-1,-1,-1],"loss_changes":[2.9163608E3,3.3092908E2,4.957556E2,4.014917E1,5.5424408E1,6.960286E1,8.031958E1,1.2008972E0,1.4046753E1,2.6035522E1,2.9931358E1,1.6318922E1,3.0830566E1,3.4430725E1,7.8044434E0,0E0,0E0,0E0,0E0,0E0,0E0,0E0,0E0,0E0,0E0,0E0,0E0,0E0,0E0,0E0,0E0],"parents":[2147483647,0,0,1,1,2,2,3,3,4,4,5,5,6,6,7,7,8,8,9,9,10,10,11,11,12,12,13,13,14,14],"right_children":[2,4,6,8,10,12,14,16,18,20,22,24,26,28,30,-1,-1,-1,-1,-1,-1,-1,-1,-1,-1,-1,-1,-1,-1,-1,-1],"split_conditions":[-5.8928673E-4,-6.631793E-3,5.7263332E-3,4.926231E0,-3.1799458E-3,2.0796077E-3,1.1544259E-2,3.9123647E0,-1.1898818E0,-2.7134884E-3,2.9824462E-4,-1.3428638E-3,3.386461E-3,2.8040924E-3,1.1220497E0,2.2437623E-2,3.578161E-2,3.0554106E-2,5.348294E-2,3.8216286E-3,2.8842553E-2,5.628929E-3,2.1168998E-2,-1.4613834E-2,-7.131153E-4,-2.0527614E-2,-0E0,-3.6895476E-2,-1.2804279E-2,-5.606382E-2,-3.369814E-2],"split_indices":[26,26,26,41,26,26,26,41,49,22,22,22,23,22,49,0,0,0,0,0,0,0,0,0,0,0,0,0,0,0,0],"split_type":[0,0,0,0,0,0,0,0,0,0,0,0,0,0,0,0,0,0,0,0,0,0,0,0,0,0,0,0,0,0,0],"sum_hessian":[1.0028687E4,4.4488955E3,5.5797915E3,1.7782688E3,2.6706267E3,3.2276418E3,2.3521494E3,4.3543927E2,1.3428296E3,1.2910311E3,1.3795956E3,1.5000284E3,1.7276134E3,1.4557965E3,8.96353E2,1.4219336E2,2.932459E2,1.2956564E2,1.2132639E3,1.31425E2,1.1596061E3,8.579941E2,5.216015E2,2.5667188E2,1.2433566E3,1.5247109E3,2.0290253E2,1.2569979E3,1.9879865E2,7.8734283E2,1.090102E2],"tree_param":{"num_deleted":"0","num_feature":"52","num_nodes":"31","size_leaf_vector":"1"}},{"base_weights":[9.692922E-3,5.079298E-1,-5.2042997E-1,8.097725E-1,2.1447508E-1,-2.9258394E-1,-8.21267E-1,1.0031787E0,6.332927E-1,3.8825536E-1,9.3127355E-2,-1.259711E-1,-4.191039E-1,-6.8832034E-1,-1.0168704E0,5.2770074E-2,2.8037826E-2,2.2463556E-2,3.5824742E-2,8.102553E-3,2.2910926E-2,-3.1930339E-3,9.153771E-3,-1.6292369E-2,-7.8160886E-4,-2.4383588E-2,-9.5547605E-3,-3.788174E-2,-1.4035292E-2,-4.349025E-2,-5.7459354E-2],"categories":[],"categories_nodes":[],"categories_segments":[],"categories_sizes":[],"default_left":[0,0,0,0,0,0,0,0,0,0,0,0,0,0,0,0,0,0,0,0,0,0,0,0,0,0,0,0,0,0,0],"id":3,"left_children":[1,3,5,7,9,11,13,15,17,19,21,23,25,27,29,-1,-1,-1,-1,-1,-1,-1,-1,-1,-1,-1,-1,-1,-1,-1,-1],"loss_changes":[2.6456377E3,4.536931E2,3.2791016E2,7.861047E1,5.3867554E1,5.656247E1,4.5522583E1,1.9807373E1,1.55598755E1,1.4705597E1,2.2532675E1,2.5732504E1,2.1948639E1,3.1535034E1,4.9561768E0,0E0,0E0,0E0,0E0,0E0,0E0,0E0,0E0,0E0,0E0,0E0,0E0,0E0,0E0,0E0,0E0],"parents":[2147483647,0,0,1,1,2,2,3,3,4,4,5,5,6,6,7,7,8,8,9,9,10,10,11,11,12,12,13,13,14,14],"right_children":[2,4,6,8,10,12,14,16,18,20,22,24,26,28,30,-1,-1,-1,-1,-1,-1,-1,-1,-1,-1,-1,-1,-1,-1,-1,-1],"split_conditions":[6.472115E-4,-4.45812E-3,6.4762407E-3,-8.821419E-3,-2.1670808E-3,2.9056477E-3,1.2043087E-2,4.3320297E-3,4.1408753E0,2.7109072E0,-5.2498945E-4,-4.157011E-4,1.3606071E-3,2.7305542E-3,7.744329E0,5.2770074E-2,2.8037826E-2,2.2463556E-2,3.5824742E-2,8.102553E-3,2.2910926E-2,-3.1930339E-3,9.153771E-3,-1.6292369E-2,-7.8160886E-4,-2.4383588E-2,-9.5547605E-3,-3.788174E-2,-1.4035292E-2,-4.349025E-2,-5.7459354E-2],"split_indices":[26,26,26,26,26,26,26,30,41,41,22,22,22,22,42,0,0,0,0,0,0,0,0,0,0,0,0,0,0,0,0],"split_type":[0,0,0,0,0,0,0,0,0,0,0,0,0,0,0,0,0,0,0,0,0,0,0,0,0,0,0,0,0,0,0],"sum_hessian":[1.0006683E4,5.161503E3,4.845179E3,2.5350117E3,2.6264912E3,2.768344E3,2.0768352E3,1.1902177E3,1.3447942E3,1.065247E3,1.5612443E3,1.2093944E3,1.5589496E3,1.2590336E3,8.1780164E2,1.052298E3,1.379197E2,4.3990155E2,9.048926E2,2.656879E2,7.995591E2,5.570726E2,1.0041717E3,4.1701935E2,7.9237506E2,1.1840308E3,3.7491882E2,1.0660923E3,1.9294131E2,4.1598743E2,4.0181418E2],"tree_param":{"num_deleted":"0","num_feature":"52","num_nodes":"31","size_leaf_vector":"1"}},{"base_weights":[7.841768E-4,5.4499745E-1,-4.2959058E-1,7.846284E-1,3.0645502E-1,-1.10370405E-1,-6.7762536E-1,6.221661E-1,9.4652367E-1,4.716209E-1,2.0725542E-1,-4.9998477E-2,-3.2811472E-1,-5.35281E-1,-9.2656094E-1,3.5879444E-2,2.2590287E-2,5.603937E-2,3.86356E-2,3.5634905E-3,2.6317362E-2,6.6314763E-3,1.867E-2,1.7850373E-2,-3.8859055E-3,-8.547122E-3,-2.321019E-2,-2.9755184E-2,-1.1122148E-2,-3.95827E-2,-5.4384936E-2],"categories":[],"categories_nodes":[],"categories_segments":[],"categories_sizes":[],"default_left":[0,0,0,0,0,0,0,0,0,0,0,0,0,0,0,0,0,0,0,0,0,0,0,0,0,0,0,0,0,0,0],"id":4,"left_children":[1,3,5,7,9,11,13,15,17,19,21,23,25,27,29,-1,-1,-1,-1,-1,-1,-1,-1,-1,-1,-1,-1,-1,-1,-1,-1],"loss_changes":[2.346753E3,2.485846E2,4.3995215E2,5.01875E1,3.406169E1,3.106924E1,1.0440271E2,1.3100891E1,2.2779968E1,1.6043686E1,1.5783295E1,2.1182915E1,8.851265E0,3.4638306E1,1.4574158E1,0E0,0E0,0E0,0E0,0E0,0E0,0E0,0E0,0E0,0E0,0E0,0E0,0E0,0E0,0E0,0E0],"parents":[2147483647,0,0,1,1,2,2,3,3,4,4,5,5,6,6,7,7,8,8,9,9,10,10,11,11,12,12,13,13,14,14],"right_children":[2,4,6,8,10,12,14,16,18,20,22,24,26,28,30,-1,-1,-1,-1,-1,-1,-1,-1,-1,-1,-1,-1,-1,-1,-1,-1],"split_conditions":[-5.8928673E-4,-5.315841E-3,3.9053557E-3,4.444882E0,-3.2675765E-3,2.9056477E-3,1.0105292E-2,2.8872812E-1,1.2246469E-16,-3.371841E-3,8.5122266E-4,-6.4536054E-3,5.016287E-3,3.5372726E-3,7.744329E0,3.5879444E-2,2.2590287E-2,5.603937E-2,3.86356E-2,3.5634905E-3,2.6317362E-2,6.6314763E-3,1.867E-2,1.7850373E-2,-3.8859055E-3,-8.547122E-3,-2.321019E-2,-2.9755184E-2,-1.1122148E-2,-3.95827E-2,-5.4384936E-2],"split_indices":[26,26,26,39,26,26,26,36,46,23,23,18,15,23,42,0,0,0,0,0,0,0,0,0,0,0,0,0,0,0,0],"split_type":[0,0,0,0,0,0,0,0,0,0,0,0,0,0,0,0,0,0,0,0,0,0,0,0,0,0,0,0,0,0,0],"sum_hessian":[1.0008148E4,4.4220547E3,5.586094E3,2.1940103E3,2.2280442E3,2.4509924E3,3.1351016E3,1.116423E3,1.0775873E3,8.1765204E2,1.4103921E3,1.934545E3,5.1644745E2,2.0122664E3,1.1228353E3,6.940172E2,4.224058E2,5.15872E2,5.617152E2,1.06305214E2,7.1134686E2,9.9191095E2,4.1848117E2,1.126652E2,1.8218799E3,2.5512401E2,2.6132346E2,1.6774027E3,3.348636E2,6.3738745E2,4.8544785E2],"tree_param":{"num_deleted":"0","num_feature":"52","num_nodes":"31","size_leaf_vector":"1"}},{"base_weights":[-2.0305031E-4,4.4804704E-1,-3.920832E-1,5.9850734E-1,1.721116E-1,-2.1537353E-1,-7.0084214E-1,8.841764E-1,4.820176E-1,2.035235E-2,2.7525413E-1,-4.6626844E-2,-3.0135533E-1,-4.5388412E-1,-8.350792E-1,2.6480032E-2,4.8914213E-2,1.668493E-2,3.0631123E-2,9.596822E-3,-7.587775E-3,5.8259354E-3,2.1206645E-2,-5.723136E-3,1.2540074E-2,-1.9781297E-2,-6.8787592E-3,-2.7321726E-2,-5.2667516E-3,-4.426385E-2,-2.687191E-2],"categories":[],"categories_nodes":[],"categories_segments":[],"categories_sizes":[],"default_left":[0,0,0,0,0,0,0,0,0,0,0,0,0,0,0,0,0,0,0,0,0,0,0,0,0,0,0,0,0,0,0],"id":5,"left_children":[1,3,5,7,9,11,13,15,17,19,21,23,25,27,29,-1,-1,-1,-1,-1,-1,-1,-1,-1,-1,-1,-1,-1,-1,-1,-1],"loss_changes":[1.7559349E3,1.9062799E2,2.8771625E2,9.381421E1,2.5041824E1,4.833409E1,5.836682E1,2.1494873E1,3.7863953E1,2.0588377E1,2.1174995E1,2.3301773E1,3.2790497E1,2.0338959E1,1.1871094E1,0E0,0E0,0E0,0E0,0E0,0E0,0E0,0E0,0E0,0E0,0E0,0E0,0E0,0E0,0E0,0E0],"parents":[2147483647,0,0,1,1,2,2,3,3,4,4,5,5,6,6,7,7,8,8,9,9,10,10,11,11,12,12,13,13,14,14],"right_children":[2,4,6,8,10,12,14,16,18,20,22,24,26,28,30,-1,-1,-1,-1,-1,-1,-1,-1,-1,-1,-1,-1,-1,-1,-1,-1],"split_conditions":[4.7832185E-1,2.5225964E-1,3.850499E0,-1.0328747E-2,-2.483699E-4,1.8020947E0,5.9266133E0,-7.0710677E-1,-1.8369701E-16,-1.0836181E-3,4.7443347E-5,2.9308133E0,8.796345E-1,7.685509E1,3.5907126E-3,2.6480032E-2,4.8914213E-2,1.668493E-2,3.0631123E-2,9.596822E-3,-7.587775E-3,5.8259354E-3,2.1206645E-2,-5.723136E-3,1.2540074E-2,-1.9781297E-2,-6.8787592E-3,-2.7321726E-2,-5.2667516E-3,-4.426385E-2,-2.687191E-2],"split_indices":[35,35,40,18,22,40,42,45,45,8,5,41,33,48,22,0,0,0,0,0,0,0,0,0,0,0,0,0,0,0,0],"split_type":[0,0,0,0,0,0,0,0,0,0,0,0,0,0,0,0,0,0,0,0,0,0,0,0,0,0,0,0,0,0,0],"sum_hessian":[9.987152E3,4.6546187E3,5.3325337E3,3.0013464E3,1.653272E3,3.403079E3,1.9294545E3,8.5236896E2,2.1489775E3,6.8316565E2,9.701063E2,1.1630656E3,2.2400137E3,6.950376E2,1.2344169E3,1.9241437E2,6.599546E2,1.0253278E3,1.1236498E3,3.5054367E2,3.32622E2,4.835772E2,4.865291E2,9.57782E2,2.0528358E2,1.4055784E3,8.3443524E2,5.4016223E2,1.5487535E2,1.0392021E3,1.9521466E2],"tree_param":{"num_deleted":"0","num_feature":"52","num_nodes":"31","size_leaf_vector":"1"}},{"base_weights":[-5.0270455E-3,-3.732744E-1,4.127169E-1,-2.4290685E-1,-6.9117355E-1,6.988922E-1,1.9763327E-1,-5.399085E-2,-3.1921032E-1,-7.5008863E-1,-8.1024645E-3,8.528762E-1,5.950582E-1,2.3883536E-1,-4.9761906E-2,-1.4173085E-2,1.3004736E-3,-1.7155139E-2,-0E0,-3.0110253E-2,-4.6269897E-2,4.7314953E-2,2.400343E-2,2.1642575E-2,3.7353616E-2,-7.237818E-3,1.3416548E-2,-1.228379E-2,3.380704E-3],"categories":[],"categories_nodes":[],"categories_segments":[],"categories_sizes":[],"default_left":[0,0,0,0,0,0,0,0,0,0,0,0,0,0,0,0,0,0,0,0,0,0,0,0,0,0,0,0,0],"id":6,"left_children":[1,3,5,7,9,11,13,15,17,19,-1,21,23,25,27,-1,-1,-1,-1,-1,-1,-1,-1,-1,-1,-1,-1,-1,-1],"loss_changes":[1.5266646E3,2.1512946E2,2.8259937E2,5.296495E1,4.4220093E1,2.4866882E1,2.7796814E1,2.097502E1,2.043808E1,2.8056396E1,0E0,2.0494995E1,2.4780945E1,2.654506E1,9.224262E0,0E0,0E0,0E0,0E0,0E0,0E0,0E0,0E0,0E0,0E0,0E0,0E0,0E0,0E0],"parents":[2147483647,0,0,1,1,2,2,3,3,4,4,5,5,6,6,7,7,8,8,9,9,11,11,12,12,13,13,14,14],"right_children":[2,4,6,8,10,12,14,16,18,20,-1,22,24,26,28,-1,-1,-1,-1,-1,-1,-1,-1,-1,-1,-1,-1,-1,-1],"split_conditions":[2.795125E0,5.8985655E-3,-4.074157E-3,8.977257E-4,1.2057432E0,-2.5881904E-1,6.188797E1,-8.2069886E-4,2.723728E-3,9.133774E-3,-8.1024645E-3,1.5819814E0,-5.581541E-1,-2.597928E-3,-4.503083E-1,-1.4173085E-2,1.3004736E-3,-1.7155139E-2,-0E0,-3.0110253E-2,-4.6269897E-2,4.7314953E-2,2.400343E-2,2.1642575E-2,3.7353616E-2,-7.237818E-3,1.3416548E-2,-1.228379E-2,3.380704E-3],"split_indices":[41,9,9,9,49,46,48,7,7,9,0,43,49,7,44,0,0,0,0,0,0,0,0,0,0,0,0,0,0],"split_type":[0,0,0,0,0,0,0,0,0,0,0,0,0,0,0,0,0,0,0,0,0,0,0,0,0,0,0,0,0],"sum_hessian":[9.914925E3,5.2737505E3,4.641174E3,3.7529553E3,1.520795E3,1.980656E3,2.6605178E3,1.0934904E3,2.659465E3,1.3614475E3,1.5934755E2,7.7152924E2,1.2091267E3,2.2912278E3,3.6929016E2,2.8908112E2,8.044092E2,2.4749148E3,1.8455023E2,7.598E2,6.016476E2,6.0434607E2,1.6718318E2,6.0380676E2,6.0532E2,1.549426E2,2.1362852E3,1.4588501E2,2.2340515E2],"tree_param":{"num_deleted":"0","num_feature":"52","num_nodes":"29","size_leaf_vector":"1"}},{"base_weights":[-1.0887288E-2,4.0248722E-1,-3.475981E-1,2.3685136E-1,7.7273E-1,-1.689849E-1,-6.4866066E-1,3.97117E-1,9.82158E-2,9.7217065E-1,6.5354973E-1,-2.1658023E-1,3.7437886E-1,-4.3391714E-1,-7.7482855E-1,6.376312E-3,2.3416437E-2,-0E0,1.2946032E-2,2.780263E-2,5.6024916E-2,2.5389547E-2,4.291723E-2,-4.421187E-4,-1.3584286E-2,7.960249E-3,2.6462113E-2,-2.5604775E-2,-3.014473E-3,-3.0860433E-2,-4.4677906E-2],"categories":[],"categories_nodes":[],"categories_segments":[],"categories_sizes":[],"default_left":[0,0,0,0,0,0,0,0,0,0,0,0,0,0,0,0,0,0,0,0,0,0,0,0,0,0,0,0,0,0,0],"id":7,"left_children":[1,3,5,7,9,11,13,15,17,19,21,23,25,27,29,-1,-1,-1,-1,-1,-1,-1,-1,-1,-1,-1,-1,-1,-1,-1,-1],"loss_changes":[1.3900969E3,2.707832E2,2.9321442E2,6.737305E1,2.46734E1,8.9681755E1,5.004962E1,2.5363953E1,2.6936073E1,2.2428772E1,2.0185547E1,3.5768448E1,6.718994E0,2.0804398E1,1.6511536E1,0E0,0E0,0E0,0E0,0E0,0E0,0E0,0E0,0E0,0E0,0E0,0E0,0E0,0E0,0E0,0E0],"parents":[2147483647,0,0,1,1,2,2,3,3,4,4,5,5,6,6,7,7,8,8,9,9,10,10,11,11,12,12,13,13,14,14],"right_children":[2,4,6,8,10,12,14,16,18,20,22,24,26,28,30,-1,-1,-1,-1,-1,-1,-1,-1,-1,-1,-1,-1,-1,-1,-1,-1],"split_conditions":[2.496445E0,4.10303E0,3.7436774E0,-3.7240381E-3,-2.5881904E-1,3.0155036E0,5.9266133E0,1.2430794E-2,2.493573E0,-1.0260975E0,-4.8673669E-1,6.2528245E-2,-3.4999583E-4,9.8339885E-1,5.434782E0,6.376312E-3,2.3416437E-2,-0E0,1.2946032E-2,2.780263E-2,5.6024916E-2,2.5389547E-2,4.291723E-2,-4.421187E-4,-1.3584286E-2,7.960249E-3,2.6462113E-2,-2.5604775E-2,-3.014473E-3,-3.0860433E-2,-4.4677906E-2],"split_indices":[42,39,40,18,46,39,42,38,39,49,49,37,21,49,40,0,0,0,0,0,0,0,0,0,0,0,0,0,0,0,0],"split_type":[0,0,0,0,0,0,0,0,0,0,0,0,0,0,0,0,0,0,0,0,0,0,0,0,0,0,0,0,0,0,0],"sum_hessian":[9.978371E3,4.47482E3,5.5035513E3,3.1029512E3,1.3718687E3,3.46539E3,2.0381615E3,1.424842E3,1.678109E3,4.9034665E2,8.81522E2,3.1941318E3,2.7125806E2,7.713177E2,1.2668438E3,3.094438E2,1.1153983E3,1.0391354E3,6.3897363E2,1.4041008E2,3.4993658E2,5.3371014E2,3.478118E2,6.822845E2,2.5118474E3,1.2587461E2,1.4538345E2,6.296802E2,1.4163756E2,5.6845233E2,6.983915E2],"tree_param":{"num_deleted":"0","num_feature":"52","num_nodes":"31","size_leaf_vector":"1"}},{"base_weights":[-6.2381243E-3,-3.6031744E-1,3.7618554E-1,-1.9553758E-1,-5.845728E-1,5.746346E-1,1.547658E-1,9.815845E-3,-2.2354378E-1,-3.3436495E-1,-6.7831814E-1,7.529596E-1,4.8035476E-1,2.5639704E-1,-5.511521E-2,-1.7917914E-2,-7.6894755E-3,-2.7076418E-2,-5.9116203E-3,-1.1717314E-2,-3.5328217E-2,4.1624736E-2,2.0030944E-2,1.6269108E-2,2.9967982E-2,-1.8250626E-3,1.5001619E-2,6.870888E-3,-1.5012038E-2],"categories":[],"categories_nodes":[],"categories_segments":[],"categories_sizes":[],"default_left":[0,0,0,0,0,0,0,0,0,0,0,0,0,0,0,0,0,0,0,0,0,0,0,0,0,0,0,0,0],"id":8,"left_children":[1,3,5,7,9,11,13,-1,15,17,19,21,23,25,27,-1,-1,-1,-1,-1,-1,-1,-1,-1,-1,-1,-1,-1,-1],"loss_changes":[1.339697E3,1.8707965E2,2.062005E2,3.2993393E1,4.6668396E1,3.6477905E1,4.8887745E1,0E0,2.442247E1,2.4983627E1,1.5952087E1,1.8281647E1,2.683667E1,2.0443146E1,3.5237083E1,0E0,0E0,0E0,0E0,0E0,0E0,0E0,0E0,0E0,0E0,0E0,0E0,0E0,0E0],"parents":[2147483647,0,0,1,1,2,2,3,3,4,4,5,5,6,6,8,8,9,9,10,10,11,11,12,12,13,13,14,14],"right_children":[2,4,6,8,10,12,14,-1,16,18,20,22,24,26,28,-1,-1,-1,-1,-1,-1,-1,-1,-1,-1,-1,-1,-1,-1],"split_conditions":[2.7109072E0,4.352937E-3,-3.0739661E-3,-1.3596101E-3,5.8767247E0,-7.5270124E-3,5.2519554E-1,9.815845E-3,-4.3082298E-4,1.9629626E-3,6.480201E-1,1.1723831E0,-6.4858893E-4,-9.484594E-3,2.938304E0,-1.7917914E-2,-7.6894755E-3,-2.7076418E-2,-5.9116203E-3,-1.1717314E-2,-3.5328217E-2,4.1624736E-2,2.0030944E-2,1.6269108E-2,2.9967982E-2,-1.8250626E-3,1.5001619E-2,6.870888E-3,-1.5012038E-2],"split_indices":[41,9,9,9,42,9,34,0,22,23,34,44,22,13,42,0,0,0,0,0,0,0,0,0,0,0,0,0,0],"split_type":[0,0,0,0,0,0,0,0,0,0,0,0,0,0,0,0,0,0,0,0,0,0,0,0,0,0,0,0,0],"sum_hessian":[9.8841045E3,5.13647E3,4.747634E3,2.9739724E3,2.162498E3,2.4923347E3,2.2552988E3,1.8922493E2,2.7847476E3,6.043398E2,1.5581582E3,8.3888306E2,1.6534518E3,1.5283887E3,7.269102E2,9.2783E2,1.8569176E3,2.9764166E2,3.066981E2,1.0233622E2,1.455822E3,6.718873E2,1.6699568E2,7.372532E2,9.1619855E2,1.8936417E2,1.3390245E3,4.0150662E2,3.2540356E2],"tree_param":{"num_deleted":"0","num_feature":"52","num_nodes":"29","size_leaf_vector":"1"}},{"base_weights":[5.049252E-3,4.2376676E-1,-2.6294196E-1,2.4798693E-1,6.6333765E-1,-1.0512338E-1,-4.3079975E-1,4.7688164E-2,3.2039952E-1,4.5116243E-1,7.862221E-1,1.8482837E-1,-1.5982015E-1,-3.693608E-1,-7.995866E-1,-1.6918425E-3,1.5314198E-2,3.821645E-3,2.0439E-2,1.554695E-2,3.2261796E-2,3.1143254E-2,5.2350637E-2,-4.640519E-3,1.4538566E-2,-1.5175863E-2,-2.0168973E-3,-2.2752937E-2,-1.0377485E-2,-4.7924682E-2,-2.23828E-2],"categories":[],"categories_nodes":[],"categories_segments":[],"categories_sizes":[],"default_left":[0,0,0,0,0,0,0,0,0,0,0,0,0,0,0,0,0,0,0,0,0,0,0,0,0,0,0,0,0,0,0],"id":9,"left_children":[1,3,5,7,9,11,13,15,17,19,21,23,25,27,29,-1,-1,-1,-1,-1,-1,-1,-1,-1,-1,-1,-1,-1,-1,-1,-1],"loss_changes":[1.1119282E3,1.5940527E2,1.5804236E2,3.1413757E1,3.694812E1,4.9655537E1,6.1034912E1,1.3804725E1,3.3720825E1,1.2934891E1,3.4967346E1,1.5135229E1,4.4261757E1,3.2399567E1,1.6276062E1,0E0,0E0,0E0,0E0,0E0,0E0,0E0,0E0,0E0,0E0,0E0,0E0,0E0,0E0,0E0,0E0],"parents":[2147483647,0,0,1,1,2,2,3,3,4,4,5,5,6,6,7,7,8,8,9,9,10,10,11,11,12,12,13,13,14,14],"right_children":[2,4,6,8,10,12,14,16,18,20,22,24,26,28,30,-1,-1,-1,-1,-1,-1,-1,-1,-1,-1,-1,-1,-1,-1,-1,-1],"split_conditions":[3.7120157E-1,3.7786884E0,7.9568017E-1,1.7848022E0,-2.5881904E-1,2.3927137E-1,1.5101122E-2,1.9414296E-3,-1.3428638E-3,8.522993E-2,5.364173E0,-1.9106809E-3,-5.0564147E-5,1.1888478E-3,3.1176375E-3,-1.6918425E-3,1.5314198E-2,3.821645E-3,2.0439E-2,1.554695E-2,3.2261796E-2,3.1143254E-2,5.2350637E-2,-4.640519E-3,1.4538566E-2,-1.5175863E-2,-2.0168973E-3,-2.2752937E-2,-1.0377485E-2,-4.7924682E-2,-2.23828E-2],"split_indices":[35,39,35,39,45,34,18,13,22,33,39,22,22,22,31,0,0,0,0,0,0,0,0,0,0,0,0,0,0,0,0],"split_type":[0,0,0,0,0,0,0,0,0,0,0,0,0,0,0,0,0,0,0,0,0,0,0,0,0,0,0,0,0,0,0],"sum_hessian":[9.894855E3,3.8647468E3,6.0301084E3,2.2422466E3,1.6225004E3,3.121398E3,2.9087102E3,6.085827E2,1.6336638E3,6.125783E2,1.0099221E3,4.8478296E2,2.636615E3,2.50888E3,3.9983054E2,4.571926E2,1.5139009E2,4.4594363E2,1.1877202E3,3.7215497E2,2.4042332E2,6.384486E2,3.7147348E2,1.26244286E2,3.5853867E2,1.1821157E3,1.4544991E3,1.6221564E3,8.8672345E2,2.6364496E2,1.3618556E2],"tree_param":{"num_deleted":"0","num_feature":"52","num_nodes":"31","size_leaf_vector":"1"}},{"base_weights":[-7.011832E-3,3.1088817E-1,-3.4077263E-1,1.8021502E-1,6.696985E-1,-2.3565759E-1,-7.220276E-1,4.1726306E-1,1.06539E-1,8.412025E-1,5.481045E-1,-3.9377097E-2,-2.9654866E-1,-6.7013025E-1,-5.555247E-2,1.1563591E-2,2.7236704E-2,-8.227001E-3,7.90005E-3,3.4240343E-2,4.936151E-2,1.2592672E-2,3.4762505E-2,-1.0683854E-2,5.0157695E-3,-6.1306516E-3,-1.8759185E-2,-3.675255E-2,-2.0538477E-2],"categories":[],"categories_nodes":[],"categories_segments":[],"categories_sizes":[],"default_left":[0,0,0,0,0,0,0,0,0,0,0,0,0,0,0,0,0,0,0,0,0,0,0,0,0,0,0,0,0],"id":10,"left_children":[1,3,5,7,9,11,13,15,17,19,21,23,25,27,-1,-1,-1,-1,-1,-1,-1,-1,-1,-1,-1,-1,-1,-1,-1],"loss_changes":[1.047393E3,2.3366821E2,1.8943146E2,6.309633E1,2.1479858E1,4.4251236E1,1.1790466E1,1.7659256E1,3.9880768E1,3.8562622E0,3.154599E1,2.2730927E1,3.7688187E1,1.0726746E1,0E0,0E0,0E0,0E0,0E0,0E0,0E0,0E0,0E0,0E0,0E0,0E0,0E0,0E0,0E0],"parents":[2147483647,0,0,1,1,2,2,3,3,4,4,5,5,6,6,7,7,8,8,9,9,10,10,11,11,12,12,13,13],"right_children":[2,4,6,8,10,12,14,16,18,20,22,24,26,28,-1,-1,-1,-1,-1,-1,-1,-1,-1,-1,-1,-1,-1,-1,-1],"split_conditions":[3.9676102E-4,4.1807256E0,4.950812E0,-4.074157E-3,-1.3035933E-2,1.8336807E0,7.8519244E0,-1.4786411E-3,-1.1713834E-3,-2.4904186E-4,-2.941963E-3,-1.3511602E-4,6.2528245E-2,1.5463865E-3,-5.555247E-2,1.1563591E-2,2.7236704E-2,-8.227001E-3,7.90005E-3,3.4240343E-2,4.936151E-2,1.2592672E-2,3.4762505E-2,-1.0683854E-2,5.0157695E-3,-6.1306516E-3,-1.8759185E-2,-3.675255E-2,-2.0538477E-2],"split_indices":[9,39,40,9,27,40,40,7,21,21,23,21,37,21,0,0,0,0,0,0,0,0,0,0,0,0,0,0,0],"split_type":[0,0,0,0,0,0,0,0,0,0,0,0,0,0,0,0,0,0,0,0,0,0,0,0,0,0,0,0,0],"sum_hessian":[9.860678E3,5.0459106E3,4.8147676E3,3.710483E3,1.3354279E3,3.7867026E3,1.0280648E3,8.646117E2,2.845871E3,5.3150134E2,8.0392645E2,9.102005E2,2.8765022E3,9.2587354E2,1.0219127E2,3.668915E2,4.9772018E2,4.4300964E2,2.4028616E3,2.8029608E2,2.5120528E2,2.780563E2,5.258701E2,4.1331644E2,4.968841E2,9.114284E2,1.9650737E3,7.239289E2,2.0194466E2],"tree_param":{"num_deleted":"0","num_feature":"52","num_nodes":"29","size_leaf_vector":"1"}},{"base_weights":[1.1086139E-3,3.9968362E-1,-2.486517E-1,2.2613905E-1,5.813484E-1,-7.3827185E-2,-4.1126072E-1,8.157022E-2,3.0993548E-1,4.7995356E-1,7.827689E-1,-1.2640184E-1,1.0645756E-1,-3.0940348E-1,-5.867699E-1,-4.1769925E-3,9.970071E-3,6.84172E-3,2.3136817E-2,1.6436158E-2,3.1020537E-2,3.12563E-2,4.746138E-2,-2.5977667E-3,-1.3663337E-2,-5.4681934E-3,1.0074186E-2,-8.24956E-3,-2.060168E-2,-0E0,-3.2849126E-2],"categories":[],"categories_nodes":[],"categories_segments":[],"categories_sizes":[],"default_left":[0,0,0,0,0,0,0,0,0,0,0,0,0,0,0,0,0,0,0,0,0,0,0,0,0,0,0,0,0,0,0],"id":11,"left_children":[1,3,5,7,9,11,13,15,17,19,21,23,25,27,29,-1,-1,-1,-1,-1,-1,-1,-1,-1,-1,-1,-1,-1,-1,-1,-1],"loss_changes":[9.7811096E2,1.16343506E2,1.6989871E2,2.2369507E1,3.1892578E1,2.7825615E1,5.2102844E1,1.4767216E1,3.0207153E1,2.2601837E1,8.001129E0,2.3856281E1,1.3709331E1,2.7466156E1,4.7476074E1,0E0,0E0,0E0,0E0,0E0,0E0,0E0,0E0,0E0,0E0,0E0,0E0,0E0,0E0,0E0,0E0],"parents":[2147483647,0,0,1,1,2,2,3,3,4,4,5,5,6,6,7,7,8,8,9,9,10,10,11,11,12,12,13,13,14,14],"right_children":[2,4,6,8,10,12,14,16,18,20,22,24,26,28,30,-1,-1,-1,-1,-1,-1,-1,-1,-1,-1,-1,-1,-1,-1,-1,-1],"split_conditions":[3.672292E-1,3.484238E0,7.634667E-1,1.9979656E0,5.364173E0,2.4501143E0,7.2077475E0,2.0021808E-3,-8.408117E-4,-1.257366E-3,-2.6077084E-4,3.6853435E0,-2.941963E-3,2.0913517E-1,6.35205E-1,-4.1769925E-3,9.970071E-3,6.84172E-3,2.3136817E-2,1.6436158E-2,3.1020537E-2,3.12563E-2,4.746138E-2,-2.5977667E-3,-1.3663337E-2,-5.4681934E-3,1.0074186E-2,-8.24956E-3,-2.060168E-2,-0E0,-3.2849126E-2],"split_indices":[35,39,35,39,39,39,42,30,23,23,21,42,23,37,34,0,0,0,0,0,0,0,0,0,0,0,0,0,0,0,0],"split_type":[0,0,0,0,0,0,0,0,0,0,0,0,0,0,0,0,0,0,0,0,0,0,0,0,0,0,0,0,0,0,0],"sum_hessian":[9.810957E3,3.7829775E3,6.027979E3,1.9489152E3,1.8340625E3,2.9172737E3,3.1107053E3,7.318931E2,1.217022E3,1.2411017E3,5.929608E2,2.2726562E3,6.4461743E2,1.9879186E3,1.1227867E3,2.9480075E2,4.3709238E2,5.8425604E2,6.32766E2,6.159588E2,6.251429E2,3.2601312E2,2.6694766E2,1.5262094E3,7.4644684E2,1.8717801E2,4.5743945E2,8.4341156E2,1.1445071E3,1.1818152E2,1.0046053E3],"tree_param":{"num_deleted":"0","num_feature":"52","num_nodes":"31","size_leaf_vector":"1"}},{"base_weights":[-7.611546E-3,3.4605366E-1,-3.939322E-1,5.6296915E-1,1.409867E-1,-2.2550254E-1,-6.174447E-1,7.7617437E-1,4.979064E-1,2.6758415E-1,7.065791E-2,-3.9799523E-1,-1.3789222E-1,-6.655029E-1,-3.5267666E-1,4.489883E-2,1.738582E-2,1.3294806E-2,2.7676E-2,-1.5118573E-3,1.6009046E-2,-5.9673806E-5,9.445647E-3,-5.191959E-3,-2.1886729E-2,-8.864199E-3,6.788153E-3,-2.890391E-2,-4.02286E-2,-2.483058E-2,-8.114086E-3],"categories":[],"categories_nodes":[],"categories_segments":[],"categories_sizes":[],"default_left":[0,0,0,0,0,0,0,0,0,0,0,0,0,0,0,0,0,0,0,0,0,0,0,0,0,0,0,0,0,0,0],"id":12,"left_children":[1,3,5,7,9,11,13,15,17,19,21,23,25,27,29,-1,-1,-1,-1,-1,-1,-1,-1,-1,-1,-1,-1,-1,-1,-1,-1],"loss_changes":[1.3441881E3,2.2575983E2,1.7392151E2,2.8716919E1,2.2499702E1,3.8905197E1,2.1368103E1,2.3994476E1,2.1691925E1,1.5485649E1,1.5235663E1,8.609116E0,1.9746193E1,1.404126E1,6.643589E0,0E0,0E0,0E0,0E0,0E0,0E0,0E0,0E0,0E0,0E0,0E0,0E0,0E0,0E0,0E0,0E0],"parents":[2147483647,0,0,1,1,2,2,3,3,4,4,5,5,6,6,7,7,8,8,9,9,10,10,11,11,12,12,13,13,14,14],"right_children":[2,4,6,8,10,12,14,16,18,20,22,24,26,28,30,-1,-1,-1,-1,-1,-1,-1,-1,-1,-1,-1,-1,-1,-1,-1,-1],"split_conditions":[7.8173506E-4,-4.3635615E-3,6.4762407E-3,-1.310908E-2,-2.3181585E-3,-4.008436E-4,1.5819814E0,3.4679852E-3,-2.090483E-3,-1.3695555E-3,3.465866E-4,-5.8936547E-3,3.9020036E-3,1.2319709E-2,9.965257E-1,4.489883E-2,1.738582E-2,1.3294806E-2,2.7676E-2,-1.5118573E-3,1.6009046E-2,-5.9673806E-5,9.445647E-3,-5.191959E-3,-2.1886729E-2,-8.864199E-3,6.788153E-3,-2.890391E-2,-4.02286E-2,-2.483058E-2,-8.114086E-3],"split_indices":[26,26,26,26,26,22,43,31,22,21,22,27,23,26,35,0,0,0,0,0,0,0,0,0,0,0,0,0,0,0,0],"split_type":[0,0,0,0,0,0,0,0,0,0,0,0,0,0,0,0,0,0,0,0,0,0,0,0,0,0,0,0,0,0,0],"sum_hessian":[9.827254E3,5.126682E3,4.7005713E3,2.4800168E3,2.6466655E3,2.693973E3,2.0065985E3,5.563028E2,1.923714E3,9.2496814E2,1.7216973E3,8.899086E2,1.8040643E3,1.6823378E3,3.2426077E2,4.2344473E2,1.3285808E2,3.8797964E2,1.5357344E3,1.3059286E2,7.943753E2,1.0582739E3,6.6342334E2,1.1704946E2,7.7285913E2,1.5881753E3,2.1588902E2,1.0620465E3,6.2029126E2,1.7110802E2,1.5315274E2],"tree_param":{"num_deleted":"0","num_feature":"52","num_nodes":"31","size_leaf_vector":"1"}},{"base_weights":[1.432621E-3,3.242922E-1,-2.658447E-1,2.0596978E-1,6.364375E-1,-1.2300369E-1,-3.9556456E-1,4.25204E-2,2.9278138E-1,8.079372E-1,4.6973145E-1,-1.8466903E-1,4.8215505E-2,-2.3632605E-1,-5.416191E-1,-4.430849E-3,6.4897262E-3,1.0299637E-2,2.3630133E-2,3.2457374E-2,5.0279777E-2,3.628935E-3,2.7154723E-2,-4.918357E-3,-2.2123346E-2,1.4544289E-2,-4.1778325E-4,-2.0972395E-2,-4.2458023E-3,-2.0159759E-2,-3.4771025E-2],"categories":[],"categories_nodes":[],"categories_segments":[],"categories_sizes":[],"default_left":[0,0,0,0,0,0,0,0,0,0,0,0,0,0,0,0,0,0,0,0,0,0,0,0,0,0,0,0,0,0,0],"id":13,"left_children":[1,3,5,7,9,11,13,15,17,19,21,23,25,27,29,-1,-1,-1,-1,-1,-1,-1,-1,-1,-1,-1,-1,-1,-1,-1,-1],"loss_changes":[8.4266113E2,1.6031741E2,9.707788E1,4.4683838E1,2.8790314E1,2.7461338E1,6.175882E1,1.3186234E1,3.0142838E1,9.955383E0,1.6401886E1,4.031048E1,1.00356045E1,3.57465E1,2.5918E1,0E0,0E0,0E0,0E0,0E0,0E0,0E0,0E0,0E0,0E0,0E0,0E0,0E0,0E0,0E0,0E0],"parents":[2147483647,0,0,1,1,2,2,3,3,4,4,5,5,6,6,7,7,8,8,9,9,10,10,11,11,12,12,13,13,14,14],"right_children":[2,4,6,8,10,12,14,16,18,20,22,24,26,28,30,-1,-1,-1,-1,-1,-1,-1,-1,-1,-1,-1,-1,-1,-1,-1,-1],"split_conditions":[4.6298555E-1,4.3087516E0,1.690686E-3,2.0521193E0,1.2246469E-16,4.0050273E-4,5.9266133E0,2.0021808E-3,-3.122823E-4,-1.599709E-3,1.8772411E1,7.0879894E-4,7.354344E-4,1.6373132E-3,2.9720548E-1,-4.430849E-3,6.4897262E-3,1.0299637E-2,2.3630133E-2,3.2457374E-2,5.0279777E-2,3.628935E-3,2.7154723E-2,-4.918357E-3,-2.2123346E-2,1.4544289E-2,-4.1778325E-4,-2.0972395E-2,-4.2458023E-3,-2.0159759E-2,-3.4771025E-2],"split_indices":[35,39,8,39,46,7,42,30,7,23,48,8,8,7,39,0,0,0,0,0,0,0,0,0,0,0,0,0,0,0,0],"split_type":[0,0,0,0,0,0,0,0,0,0,0,0,0,0,0,0,0,0,0,0,0,0,0,0,0,0,0,0,0,0,0],"sum_hessian":[9.753083E3,4.4218433E3,5.3312397E3,3.219401E3,1.2024425E3,2.552939E3,2.778301E3,1.1313308E3,2.08807E3,5.743492E2,6.2809326E2,1.8895411E3,6.633979E2,1.3452499E3,1.4330511E3,4.3829736E2,6.9303345E2,1.4268356E3,6.612344E2,3.387841E2,2.355651E2,1.05859406E2,5.222339E2,1.4295288E3,4.6001236E2,1.3152463E2,5.318732E2,5.958898E2,7.4936005E2,7.7402673E2,6.5902435E2],"tree_param":{"num_deleted":"0","num_feature":"52","num_nodes":"31","size_leaf_vector":"1"}},{"base_weights":[-2.9961828E-3,3.8670012E-1,-2.9346806E-1,5.9358925E-1,2.4528904E-1,-4.466384E-2,-4.4430786E-1,6.2032765E-1,7.7866996E-3,1.879911E-1,3.9264137E-1,-1.7273311E-1,4.868431E-2,-3.732304E-1,-7.0769817E-1,3.97048E-2,2.5293713E-2,1.3385628E-2,4.682397E-3,2.318773E-2,1.1724538E-2,-1.1156801E-2,5.2140537E-3,1.6632693E-2,5.261046E-4,-2.107901E-2,-9.933267E-3,-3.9894294E-2,-2.0450143E-2],"categories":[],"categories_nodes":[],"categories_segments":[],"categories_sizes":[],"default_left":[0,0,0,0,0,0,0,0,0,0,0,0,0,0,0,0,0,0,0,0,0,0,0,0,0,0,0,0,0],"id":14,"left_children":[1,3,5,7,9,11,13,15,-1,17,19,21,23,25,27,-1,-1,-1,-1,-1,-1,-1,-1,-1,-1,-1,-1,-1,-1],"loss_changes":[1.1059893E3,1.1873346E2,2.0874084E2,1.6864685E1,1.8943054E1,2.5855991E1,6.059796E1,2.5430542E1,0E0,1.2477188E1,4.9971313E0,1.3204483E1,1.2187794E1,2.1019806E1,1.4281372E1,0E0,0E0,0E0,0E0,0E0,0E0,0E0,0E0,0E0,0E0,0E0,0E0,0E0,0E0],"parents":[2147483647,0,0,1,1,2,2,3,3,4,4,5,5,6,6,7,7,9,9,10,10,11,11,12,12,13,13,14,14],"right_children":[2,4,6,8,10,12,14,16,-1,18,20,22,24,26,28,-1,-1,-1,-1,-1,-1,-1,-1,-1,-1,-1,-1,-1,-1],"split_conditions":[-9.3414984E-4,-6.758158E-3,2.9779007E-3,4.238205E-3,7.997415E-4,-1.431217E-4,1.2319709E-2,-1.1988401E-2,7.7866996E-3,-3.2675765E-3,-2.3181585E-3,1.3922486E-2,-5.2263075E-4,8.275938E-1,9.129161E-1,3.97048E-2,2.5293713E-2,1.3385628E-2,4.682397E-3,2.318773E-2,1.1724538E-2,-1.1156801E-2,5.2140537E-3,1.6632693E-2,5.261046E-4,-2.107901E-2,-9.933267E-3,-3.9894294E-2,-2.0450143E-2],"split_indices":[26,26,26,31,23,21,26,26,0,26,26,13,26,49,49,0,0,0,0,0,0,0,0,0,0,0,0,0,0],"split_type":[0,0,0,0,0,0,0,0,0,0,0,0,0,0,0,0,0,0,0,0,0,0,0,0,0,0,0,0,0],"sum_hessian":[9.763042E3,4.1642764E3,5.598766E3,1.675606E3,2.4886702E3,2.123125E3,3.475641E3,1.5707499E3,1.0485599E2,1.8147451E3,6.739252E2,9.068522E2,1.216273E3,2.755522E3,7.20119E2,6.0154877E2,9.692012E2,9.613782E2,8.5336694E2,4.4513632E2,2.2878883E2,7.7723584E2,1.2961632E2,1.3020515E2,1.0860677E3,2.1388564E3,6.166656E2,5.3898016E2,1.8113882E2],"tree_param":{"num_deleted":"0","num_feature":"52","num_nodes":"29","size_leaf_vector":"1"}},{"base_weights":[-5.740098E-3,3.0704808E-1,-3.4963745E-1,4.9735343E-1,1.2703353E-1,-2.0863315E-1,-5.449707E-1,3.3977115E-1,6.005225E-1,2.1217072E-1,3.0800732E-2,-2.7608177E-1,-2.364747E-2,-3.6246467E-1,-6.267984E-1,2.3615032E-2,1.2244082E-2,2.522535E-2,4.3495074E-2,1.2831792E-2,8.867993E-4,-5.507492E-3,6.665806E-3,-9.245011E-3,-1.7333437E-2,4.2841425E-3,-7.54022E-3,-2.3218405E-2,-1.103999E-2,-3.5523176E-2,-2.2556504E-2],"categories":[],"categories_nodes":[],"categories_segments":[],"categories_sizes":[],"default_left":[0,0,0,0,0,0,0,0,0,0,0,0,0,0,0,0,0,0,0,0,0,0,0,0,0,0,0,0,0,0,0],"id":15,"left_children":[1,3,5,7,9,11,13,15,17,19,21,23,25,27,29,-1,-1,-1,-1,-1,-1,-1,-1,-1,-1,-1,-1,-1,-1,-1,-1],"loss_changes":[1.04957E3,1.7268481E2,1.25286865E2,3.6341064E1,2.0852093E1,3.298654E1,2.4839294E1,9.857506E0,3.184961E1,1.1105225E1,1.8359982E1,1.0826996E1,1.0599067E1,6.42778E0,1.43116455E1,0E0,0E0,0E0,0E0,0E0,0E0,0E0,0E0,0E0,0E0,0E0,0E0,0E0,0E0,0E0,0E0],"parents":[2147483647,0,0,1,1,2,2,3,3,4,4,5,5,6,6,7,7,8,8,9,9,10,10,11,11,12,12,13,13,14,14],"right_children":[2,4,6,8,10,12,14,16,18,20,22,24,26,28,30,-1,-1,-1,-1,-1,-1,-1,-1,-1,-1,-1,-1,-1,-1,-1,-1],"split_conditions":[7.8173506E-4,-4.3635615E-3,6.5906346E-3,-2.5881904E-1,-1.4431537E-3,9.3028545E-1,-5E-1,-8.936499E-3,5.29036E0,5.29394E0,-1.475224E-3,2.9779007E-3,3.8160328E-3,2.5141416E-3,2.8268682E-2,2.3615032E-2,1.2244082E-2,2.522535E-2,4.3495074E-2,1.2831792E-2,8.867993E-4,-5.507492E-3,6.665806E-3,-9.245011E-3,-1.7333437E-2,4.2841425E-3,-7.54022E-3,-2.3218405E-2,-1.103999E-2,-3.5523176E-2,-2.2556504E-2],"split_indices":[26,26,26,45,26,33,45,18,39,41,11,26,26,31,15,0,0,0,0,0,0,0,0,0,0,0,0,0,0,0,0],"split_type":[0,0,0,0,0,0,0,0,0,0,0,0,0,0,0,0,0,0,0,0,0,0,0,0,0,0,0,0,0,0,0],"sum_hessian":[9.74618E3,5.099655E3,4.6465244E3,2.4665847E3,2.63307E3,2.7134663E3,1.9330583E3,9.959295E2,1.4706552E3,1.3773394E3,1.2557308E3,1.9747592E3,7.3870715E2,6.181548E2,1.3149036E3,3.9405765E2,6.018719E2,1.1030077E3,3.6764743E2,1.1071233E3,2.70216E2,5.162675E2,7.394634E2,8.881187E2,1.0866404E3,3.8538696E2,3.5332016E2,3.4059158E2,2.775632E2,8.688155E2,4.4608813E2],"tree_param":{"num_deleted":"0","num_feature":"52","num_nodes":"31","size_leaf_vector":"1"}},{"base_weights":[4.8637586E-3,3.9092565E-1,-2.478826E-1,5.7926923E-1,2.8070864E-1,-1.1516419E-1,-5.221149E-1,3.2545775E-1,7.499212E-1,1.6732961E-1,3.5373366E-1,-2.9244727E-2,-2.4749218E-1,-3.4422046E-1,-6.010986E-1,2.700803E-2,1.0262106E-2,2.4460133E-2,4.0754262E-2,3.261647E-3,1.5518096E-2,2.1325918E-2,1.1170677E-2,-1.3538946E-2,9.72128E-4,-1.4076725E-2,9.045863E-3,-1.0105165E-2,-2.4750477E-2,-3.227837E-2,-1.7907493E-2],"categories":[],"categories_nodes":[],"categories_segments":[],"categories_sizes":[],"default_left":[0,0,0,0,0,0,0,0,0,0,0,0,0,0,0,0,0,0,0,0,0,0,0,0,0,0,0,0,0,0,0],"id":16,"left_children":[1,3,5,7,9,11,13,15,17,19,21,23,25,27,29,-1,-1,-1,-1,-1,-1,-1,-1,-1,-1,-1,-1,-1,-1,-1,-1],"loss_changes":[9.499526E2,7.662811E1,2.116612E2,5.655191E1,1.8438278E1,4.4312656E1,2.2933594E1,1.2233799E1,8.2152405E0,1.3170416E1,1.1522293E1,2.9341522E1,2.3160965E1,1.047924E1,9.906952E0,0E0,0E0,0E0,0E0,0E0,0E0,0E0,0E0,0E0,0E0,0E0,0E0,0E0,0E0,0E0,0E0],"parents":[2147483647,0,0,1,1,2,2,3,3,4,4,5,5,6,6,7,7,8,8,9,9,10,10,11,11,12,12,13,13,14,14],"right_children":[2,4,6,8,10,12,14,16,18,20,22,24,26,28,30,-1,-1,-1,-1,-1,-1,-1,-1,-1,-1,-1,-1,-1,-1,-1,-1],"split_conditions":[-1.4431537E-3,-7.7176914E-3,6.5906346E-3,-2.5881904E-1,-2.5881904E-1,2.9779007E-3,-5E-1,-2.5881904E-1,5.016088E0,8.14303E-1,-3.2675765E-3,-1.3428638E-3,7.731347E1,1.1279592E-2,1.5463865E-3,2.700803E-2,1.0262106E-2,2.4460133E-2,4.0754262E-2,3.261647E-3,1.5518096E-2,2.1325918E-2,1.1170677E-2,-1.3538946E-2,9.72128E-4,-1.4076725E-2,9.045863E-3,-1.0105165E-2,-2.4750477E-2,-3.227837E-2,-1.7907493E-2],"split_indices":[26,26,26,45,45,26,45,46,41,38,26,22,48,26,21,0,0,0,0,0,0,0,0,0,0,0,0,0,0,0,0],"split_type":[0,0,0,0,0,0,0,0,0,0,0,0,0,0,0,0,0,0,0,0,0,0,0,0,0,0,0,0,0,0,0],"sum_hessian":[9.721178E3,3.8498271E3,5.87135E3,1.4033035E3,2.4465237E3,3.968689E3,1.9026614E3,5.7709814E2,8.262054E2,9.8098285E2,1.4655408E3,2.4237463E3,1.5449425E3,6.04938E2,1.2977234E3,1.9191685E2,3.8518127E2,1.8292087E2,6.432845E2,5.8888824E2,3.920946E2,9.1828674E2,5.472541E2,4.1311615E2,2.0106302E3,1.4392903E3,1.056522E2,3.2769012E2,2.7724786E2,1.0795E3,2.1822336E2],"tree_param":{"num_deleted":"0","num_feature":"52","num_nodes":"31","size_leaf_vector":"1"}},{"base_weights":[8.085862E-3,3.7105197E-1,-2.2873352E-1,5.619329E-1,2.6203674E-1,-9.7166955E-2,-4.9163637E-1,3.2945618E-1,7.153279E-1,2.8923035E-2,3.0349416E-1,-2.3408157E-1,-2.2001421E-2,-3.89252E-1,-6.6308266E-1,2.5786111E-2,1.1245494E-2,4.1440938E-2,2.7951378E-2,-5.3681065E-3,8.167128E-3,1.2873681E-2,2.6456503E-2,-2.9719744E-3,-1.6016109E-2,3.524158E-3,-8.174009E-3,-7.102379E-3,-2.4530021E-2,-3.8217288E-2,-1.9118285E-2],"categories":[],"categories_nodes":[],"categories_segments":[],"categories_sizes":[],"default_left":[0,0,0,0,0,0,0,0,0,0,0,0,0,0,0,0,0,0,0,0,0,0,0,0,0,0,0,0,0,0,0],"id":17,"left_children":[1,3,5,7,9,11,13,15,17,19,21,23,25,27,29,-1,-1,-1,-1,-1,-1,-1,-1,-1,-1,-1,-1,-1,-1,-1,-1],"loss_changes":[8.295823E2,7.6149475E1,1.9973804E2,4.4611115E1,2.2604584E1,3.9352894E1,2.9544312E1,8.1504135E0,7.9678955E0,7.3247323E0,1.841037E1,1.9368576E1,3.3546803E1,2.8707565E1,1.5166962E1,0E0,0E0,0E0,0E0,0E0,0E0,0E0,0E0,0E0,0E0,0E0,0E0,0E0,0E0,0E0,0E0],"parents":[2147483647,0,0,1,1,2,2,3,3,4,4,5,5,6,6,7,7,8,8,9,9,10,10,11,11,12,12,13,13,14,14],"right_children":[2,4,6,8,10,12,14,16,18,20,22,24,26,28,30,-1,-1,-1,-1,-1,-1,-1,-1,-1,-1,-1,-1,-1,-1,-1,-1],"split_conditions":[-1.4431537E-3,-7.7176914E-3,6.4762407E-3,-2.5881904E-1,-2.0002653E-3,-3.8438532E-4,1.2319709E-2,-2.5881904E-1,5E-1,1.0843892E-3,2.7328663E0,7.0599245E-4,2.9779007E-3,2.045715E-1,3.0073528E-3,2.5786111E-2,1.1245494E-2,4.1440938E-2,2.7951378E-2,-5.3681065E-3,8.167128E-3,1.2873681E-2,2.6456503E-2,-2.9719744E-3,-1.6016109E-2,3.524158E-3,-8.174009E-3,-7.102379E-3,-2.4530021E-2,-3.8217288E-2,-1.9118285E-2],"split_indices":[26,26,26,45,22,22,26,46,46,6,37,26,26,41,31,0,0,0,0,0,0,0,0,0,0,0,0,0,0,0,0],"split_type":[0,0,0,0,0,0,0,0,0,0,0,0,0,0,0,0,0,0,0,0,0,0,0,0,0,0,0,0,0,0,0],"sum_hessian":[9.636182E3,3.8086343E3,5.8275474E3,1.3669215E3,2.4417126E3,3.8960667E3,1.9314808E3,5.574215E2,8.0949994E2,3.8088123E2,2.0608315E3,1.3629532E3,2.5331133E3,1.2305005E3,7.009804E2,1.8300629E2,3.7441522E2,4.4539096E2,3.6410898E2,1.785457E2,2.0233551E2,1.7316472E3,3.291842E2,4.6484613E2,8.981072E2,1.5204805E3,1.0126328E3,3.698901E2,8.6061035E2,5.0096576E2,2.000146E2],"tree_param":{"num_deleted":"0","num_feature":"52","num_nodes":"31","size_leaf_vector":"1"}},{"base_weights":[2.431001E-3,2.0637958E-1,-2.4623482E-1,3.9701754E-1,7.03693E-2,-1.7696556E-1,-4.5432442E-1,1.9836612E-1,5.283577E-1,-1.8609282E-2,1.5997025E-1,-2.5017804E-1,-6.199577E-2,-5.1318395E-1,-6.677892E-4,1.5368247E-2,-2.5794617E-4,3.5324443E-2,2.0144438E-2,3.8758E-3,-9.225027E-3,1.2337103E-2,-1.8146163E-3,-1.8050239E-3,-1.4133162E-2,-6.4550415E-3,3.9815004E-3,-1.8267034E-2,-3.281089E-2],"categories":[],"categories_nodes":[],"categories_segments":[],"categories_sizes":[],"default_left":[0,0,0,0,0,0,0,0,0,0,0,0,0,0,0,0,0,0,0,0,0,0,0,0,0,0,0,0,0],"id":18,"left_children":[1,3,5,7,9,11,13,15,17,19,21,23,25,27,-1,-1,-1,-1,-1,-1,-1,-1,-1,-1,-1,-1,-1,-1,-1],"loss_changes":[4.9098676E2,1.3657469E2,6.050479E1,5.4896942E1,2.5345802E1,2.6659698E1,2.6264603E1,2.0786716E1,2.4681793E1,2.5191534E1,2.7479904E1,1.2839226E1,1.2570852E1,1.564566E1,0E0,0E0,0E0,0E0,0E0,0E0,0E0,0E0,0E0,0E0,0E0,0E0,0E0,0E0,0E0],"parents":[2147483647,0,0,1,1,2,2,3,3,4,4,5,5,6,6,7,7,8,8,9,9,10,10,11,11,12,12,13,13],"right_children":[2,4,6,8,10,12,14,16,18,20,22,24,26,28,-1,-1,-1,-1,-1,-1,-1,-1,-1,-1,-1,-1,-1,-1,-1],"split_conditions":[8.443106E-4,-3.4792225E-3,7.0838477E-3,-2.5881904E-1,7.383955E-1,4.118648E-4,1.2057432E0,-1.0681882E1,-2.5881904E-1,2.7774656E-1,6.734066E-1,4.29375E-1,7.0710677E-1,7.830742E0,-6.677892E-4,1.5368247E-2,-2.5794617E-4,3.5324443E-2,2.0144438E-2,3.8758E-3,-9.225027E-3,1.2337103E-2,-1.8146163E-3,-1.8050239E-3,-1.4133162E-2,-6.4550415E-3,3.9815004E-3,-1.8267034E-2,-3.281089E-2],"split_indices":[9,9,9,45,38,21,49,17,46,34,34,34,46,42,0,0,0,0,0,0,0,0,0,0,0,0,0,0,0],"split_type":[0,0,0,0,0,0,0,0,0,0,0,0,0,0,0,0,0,0,0,0,0,0,0,0,0,0,0,0,0],"sum_hessian":[9.673633E3,5.321778E3,4.351855E3,2.2027102E3,3.1190674E3,3.2827546E3,1.0691003E3,8.907887E2,1.3119215E3,1.5501573E3,1.5689102E3,1.9860615E3,1.296693E3,9.364791E2,1.3262117E2,5.8804663E2,3.0274203E2,5.227279E2,7.8919354E2,9.716922E2,5.7846515E2,1.0976262E3,4.7128394E2,2.752261E2,1.7108354E3,8.9449066E2,4.0220236E2,4.795498E2,4.5692932E2],"tree_param":{"num_deleted":"0","num_feature":"52","num_nodes":"29","size_leaf_vector":"1"}},{"base_weights":[1.4183596E-3,2.520199E-1,-1.9704062E-1,3.3046365E-1,9.851383E-2,-7.4482694E-2,-2.9755738E-1,2.1081959E-1,4.4080523E-1,1.3421322E-1,-1.690392E-2,2.423198E-2,-1.2963349E-1,-2.1326399E-1,-4.3152735E-1,7.096754E-3,1.922686E-2,2.8863734E-2,1.49067E-2,-1.8917349E-3,1.0901249E-2,7.1893632E-3,-9.5882E-3,-9.2038475E-3,2.7655165E-3,-2.6488183E-3,-1.3723682E-2,-1.4940344E-2,-3.1149998E-2],"categories":[],"categories_nodes":[],"categories_segments":[],"categories_sizes":[],"default_left":[0,0,0,0,0,0,0,0,0,0,0,0,0,0,0,0,0,0,0,0,0,0,0,0,0,0,0,0,0],"id":19,"left_children":[1,3,5,7,9,11,13,15,17,19,-1,21,23,25,27,-1,-1,-1,-1,-1,-1,-1,-1,-1,-1,-1,-1,-1,-1],"loss_changes":[4.790125E2,4.986862E1,6.4882416E1,3.461664E1,2.2392036E1,1.3605945E1,3.0729431E1,1.4524891E1,2.4585663E1,2.0204403E1,0E0,2.2167297E1,1.6391994E1,1.6840736E1,2.4617493E1,0E0,0E0,0E0,0E0,0E0,0E0,0E0,0E0,0E0,0E0,0E0,0E0,0E0,0E0],"parents":[2147483647,0,0,1,1,2,2,3,3,4,4,5,5,6,6,7,7,8,8,9,9,11,11,12,12,13,13,14,14],"right_children":[2,4,6,8,10,12,14,16,18,20,-1,22,24,26,28,-1,-1,-1,-1,-1,-1,-1,-1,-1,-1,-1,-1,-1,-1],"split_conditions":[4.472733E-1,2.4838781E-1,7.7960366E-1,-1.8369701E-16,3.8045098E-3,4E0,7.138806E0,7.4546804E0,-3.9244536E-3,-1.0760834E-2,-1.690392E-2,3.541062E-3,2.8774252E0,1.7974634E-1,6.3689398E-3,7.096754E-3,1.922686E-2,2.8863734E-2,1.49067E-2,-1.8917349E-3,1.0901249E-2,7.1893632E-3,-9.5882E-3,-9.2038475E-3,2.7655165E-3,-2.6488183E-3,-1.3723682E-2,-1.4940344E-2,-3.1149998E-2],"split_indices":[35,35,35,45,30,51,42,41,25,5,0,25,41,41,25,0,0,0,0,0,0,0,0,0,0,0,0,0,0],"split_type":[0,0,0,0,0,0,0,0,0,0,0,0,0,0,0,0,0,0,0,0,0,0,0,0,0,0,0,0,0],"sum_hessian":[9.618155E3,4.256757E3,5.3613984E3,2.8004043E3,1.4563527E3,2.4332004E3,2.928198E3,1.3635933E3,1.4368112E3,1.3558237E3,1.00529015E2,8.5365186E2,1.5795487E3,1.8190261E3,1.109172E3,9.952857E2,3.683075E2,7.1583466E2,7.209765E2,4.3329944E2,9.2252423E2,5.5951636E2,2.9413553E2,1.2328646E3,3.4668405E2,5.1880035E2,1.3002257E3,6.7190656E2,4.372654E2],"tree_param":{"num_deleted":"0","num_feature":"52","num_nodes":"29","size_leaf_vector":"1"}},{"base_weights":[4.8749726E-3,2.7765402E-1,-1.669516E-1,2.1450774E-1,6.0764784E-1,-6.894253E-2,-4.275729E-1,3.6131003E-1,1.481699E-1,1.8401472E-2,7.167422E-1,-1.2638082E-1,9.1822315E-3,-4.733314E-1,-9.703461E-2,-5.2785124E-3,2.1224301E-2,4.3522823E-3,1.4726783E-2,4.274552E-2,2.4720503E-2,1.087882E-3,-9.536471E-3,5.299609E-3,-2.3052199E-3,-2.0050643E-2,-3.205555E-2,3.6589827E-3,-1.4373565E-2],"categories":[],"categories_nodes":[],"categories_segments":[],"categories_sizes":[],"default_left":[0,0,0,0,0,0,0,0,0,0,0,0,0,0,0,0,0,0,0,0,0,0,0,0,0,0,0,0,0],"id":20,"left_children":[1,3,5,7,9,11,13,15,17,-1,19,21,23,25,27,-1,-1,-1,-1,-1,-1,-1,-1,-1,-1,-1,-1,-1,-1],"loss_changes":[4.503491E2,7.434256E1,1.4865944E2,2.873996E1,1.0764114E1,1.96095E1,2.223941E1,2.9448563E1,1.825027E1,0E0,5.797104E0,2.4310902E1,9.840048E0,1.2514832E1,7.5119886E0,0E0,0E0,0E0,0E0,0E0,0E0,0E0,0E0,0E0,0E0,0E0,0E0,0E0,0E0],"parents":[2147483647,0,0,1,1,2,2,3,3,4,4,5,5,6,6,7,7,8,8,10,10,11,11,12,12,13,13,14,14],"right_children":[2,4,6,8,10,12,14,16,18,-1,20,22,24,26,28,-1,-1,-1,-1,-1,-1,-1,-1,-1,-1,-1,-1,-1,-1],"split_conditions":[3.7120157E-1,5.29036E0,4.069988E0,-1.1359669E1,-2.0466975E-3,4.3942966E-4,2.4137043E-3,1.4947138E0,4.8704733E-4,1.8401472E-2,-6.530509E-3,1.3020271E0,2.132538E0,5.983325E0,5.579407E0,-5.2785124E-3,2.1224301E-2,4.3522823E-3,1.4726783E-2,4.274552E-2,2.4720503E-2,1.087882E-3,-9.536471E-3,5.299609E-3,-2.3052199E-3,-2.0050643E-2,-3.205555E-2,3.6589827E-3,-1.4373565E-2],"split_indices":[35,39,40,17,22,22,21,39,22,0,25,40,40,40,40,0,0,0,0,0,0,0,0,0,0,0,0,0,0],"split_type":[0,0,0,0,0,0,0,0,0,0,0,0,0,0,0,0,0,0,0,0,0,0,0,0,0,0,0,0,0],"sum_hessian":[9.591301E3,3.7123037E3,5.8789966E3,3.1305884E3,5.817154E2,4.2853027E3,1.5936942E3,9.5337103E2,2.1772173E3,1.974332E2,3.8428217E2,2.489963E3,1.7953396E3,1.3900278E3,2.0366638E2,1.07570045E2,8.4580096E2,1.5559164E3,6.21301E2,2.1990381E2,1.6437836E2,7.409326E2,1.7490304E3,6.706577E2,1.1246819E3,9.956857E2,3.943421E2,1.0085051E2,1.0281587E2],"tree_param":{"num_deleted":"0","num_feature":"52","num_nodes":"29","size_leaf_vector":"1"}},{"base_weights":[8.102864E-3,2.9266995E-1,-2.1969593E-1,5.322911E-1,2.0927954E-1,-9.429735E-2,-3.9537734E-1,2.715812E-1,6.566745E-1,1.2794547E-1,3.034998E-1,-1.4095536E-1,4.298547E-2,-4.9977762E-1,-2.5162178E-1,2.7847635E-3,2.1045892E-2,3.6071002E-2,1.59244E-2,9.433085E-3,-1.1030731E-3,1.6618088E-2,1.1482313E-3,-3.813943E-3,-1.01610655E-2,8.783904E-3,-4.02281E-3,-1.702111E-2,-2.9363519E-2,-7.148161E-3,-2.081747E-2],"categories":[],"categories_nodes":[],"categories_segments":[],"categories_sizes":[],"default_left":[0,0,0,0,0,0,0,0,0,0,0,0,0,0,0,0,0,0,0,0,0,0,0,0,0,0,0,0,0,0,0],"id":21,"left_children":[1,3,5,7,9,11,13,15,17,19,21,23,25,27,29,-1,-1,-1,-1,-1,-1,-1,-1,-1,-1,-1,-1,-1,-1,-1,-1],"loss_changes":[6.210274E2,8.2415344E1,1.15395325E2,3.1611816E1,2.2884384E1,2.0288399E1,3.0155823E1,1.0310749E1,1.161496E1,1.6301716E1,1.0658646E1,8.522327E0,1.3101836E1,1.3758301E1,1.49980545E1,0E0,0E0,0E0,0E0,0E0,0E0,0E0,0E0,0E0,0E0,0E0,0E0,0E0,0E0,0E0,0E0],"parents":[2147483647,0,0,1,1,2,2,3,3,4,4,5,5,6,6,7,7,8,8,9,9,10,10,11,11,12,12,13,13,14,14],"right_children":[2,4,6,8,10,12,14,16,18,20,22,24,26,28,30,-1,-1,-1,-1,-1,-1,-1,-1,-1,-1,-1,-1,-1,-1,-1,-1],"split_conditions":[-5.8928673E-4,-8.821419E-3,5.636046E-3,-5E-1,7.383955E-1,9.2450434E-1,1.0055146E0,-1.5870163E-2,3.415137E-3,-2.465776E-3,1.912136E-3,2.0796077E-3,2.6098276E-3,4.1588548E-1,1.1544259E-2,2.7847635E-3,2.1045892E-2,3.6071002E-2,1.59244E-2,9.433085E-3,-1.1030731E-3,1.6618088E-2,1.1482313E-3,-3.813943E-3,-1.01610655E-2,8.783904E-3,-4.02281E-3,-1.702111E-2,-2.9363519E-2,-7.148161E-3,-2.081747E-2],"split_indices":[26,26,26,45,38,33,43,28,31,26,9,26,26,41,26,0,0,0,0,0,0,0,0,0,0,0,0,0,0,0,0],"split_type":[0,0,0,0,0,0,0,0,0,0,0,0,0,0,0,0,0,0,0,0,0,0,0,0,0,0,0,0,0,0,0],"sum_hessian":[9.566864E3,4.258667E3,5.3081973E3,1.0832045E3,3.1754626E3,3.1118027E3,2.1963948E3,3.628016E2,7.2040283E2,1.7276915E3,1.4477712E3,2.3386797E3,7.7312317E2,1.2530991E3,9.4329553E2,1.5936784E2,2.0343378E2,5.924431E2,1.2795969E2,1.2432067E3,4.8448492E2,1.3021827E3,1.4558842E2,1.1762244E3,1.1624552E3,3.8329282E2,3.8983032E2,4.6496875E2,7.8813043E2,5.849794E2,3.5831616E2],"tree_param":{"num_deleted":"0","num_feature":"52","num_nodes":"31","size_leaf_vector":"1"}},{"base_weights":[-9.834539E-5,2.3219232E-1,-2.5598058E-1,3.8606185E-1,1.2163006E-1,-1.7540807E-1,-4.6098945E-1,6.0253686E-1,3.2461601E-1,4.2714436E-2,2.3624039E-1,-1.9850579E-1,1.03520015E-2,-5.5553234E-1,-3.2225657E-1,3.7214108E-2,1.6448315E-2,1.0561334E-2,2.1618653E-2,-8.693736E-3,3.7145452E-3,7.5427615E-3,1.8988058E-2,-5.026256E-3,-1.452849E-2,-2.151497E-2,-3.3738714E-2,-0E0,-2.0113278E-2],"categories":[],"categories_nodes":[],"categories_segments":[],"categories_sizes":[],"default_left":[0,0,0,0,0,0,0,0,0,0,0,0,0,0,0,0,0,0,0,0,0,0,0,0,0,0,0,0,0],"id":22,"left_children":[1,3,5,7,9,11,13,15,17,19,21,23,-1,25,27,-1,-1,-1,-1,-1,-1,-1,-1,-1,-1,-1,-1,-1,-1],"loss_changes":[5.6581024E2,8.301074E1,7.259836E1,2.3771149E1,2.5505451E1,2.9103088E1,1.3075958E1,1.2655502E1,1.7574783E1,1.17326565E1,1.2500275E1,2.6623138E1,0E0,6.1805725E0,1.2823761E1,0E0,0E0,0E0,0E0,0E0,0E0,0E0,0E0,0E0,0E0,0E0,0E0,0E0,0E0],"parents":[2147483647,0,0,1,1,2,2,3,3,4,4,5,5,6,6,7,7,8,8,9,9,10,10,11,11,13,13,14,14],"right_children":[2,4,6,8,10,12,14,16,18,20,22,24,-1,26,28,-1,-1,-1,-1,-1,-1,-1,-1,-1,-1,-1,-1,-1,-1],"split_conditions":[7.8173506E-4,-5.213906E-3,8.830742E-3,-7.0710677E-1,2.4990694E-4,3.5907126E-3,9.551911E-1,-7.7176914E-3,-2.1295594E-3,-2.7134884E-3,5.881168E-1,3.8160328E-3,1.03520015E-2,4.950812E0,4.8475165E0,3.7214108E-2,1.6448315E-2,1.0561334E-2,2.1618653E-2,-8.693736E-3,3.7145452E-3,7.5427615E-3,1.8988058E-2,-5.026256E-3,-1.452849E-2,-2.151497E-2,-3.3738714E-2,-0E0,-2.0113278E-2],"split_indices":[26,26,26,46,23,22,36,26,24,22,36,26,0,40,40,0,0,0,0,0,0,0,0,0,0,0,0,0,0],"split_type":[0,0,0,0,0,0,0,0,0,0,0,0,0,0,0,0,0,0,0,0,0,0,0,0,0,0,0,0,0],"sum_hessian":[9.507967E3,4.9778228E3,4.530144E3,2.064736E3,2.9130867E3,3.269197E3,1.260947E3,4.3596567E2,1.6287705E3,1.7447606E3,1.168326E3,3.0926663E3,1.7653064E2,7.281116E2,5.328354E2,2.742824E2,1.6168327E2,8.1442163E2,8.143489E2,2.0704672E2,1.5377139E3,7.5205975E2,4.1626633E2,1.5190437E3,1.5736226E3,3.7864484E2,3.4946677E2,1.13421715E2,4.1941367E2],"tree_param":{"num_deleted":"0","num_feature":"52","num_nodes":"29","size_leaf_vector":"1"}},{"base_weights":[-1.2526249E-3,-1.2765032E-1,2.6202613E-1,2.326219E-2,-2.1090575E-1,1.8714342E-1,5.2395743E-1,-8.148901E-2,1.15968816E-1,-1.7749147E-1,-4.8069713E-1,-1.7676415E-2,2.5825417E-1,7.6669776E-3,5.839407E-1,1.0613622E-2,-7.0404815E-3,8.370083E-4,1.1180484E-2,-6.9187568E-3,-1.679838E-2,-3.0713921E-2,-8.809592E-3,-1.1951318E-2,2.5863918E-3,2.5263473E-2,1.0102856E-2,3.602983E-2,2.3310669E-2],"categories":[],"categories_nodes":[],"categories_segments":[],"categories_sizes":[],"default_left":[0,0,0,0,0,0,0,0,0,0,0,0,0,0,0,0,0,0,0,0,0,0,0,0,0,0,0,0,0],"id":23,"left_children":[1,3,5,7,9,11,13,15,17,19,21,23,25,-1,27,-1,-1,-1,-1,-1,-1,-1,-1,-1,-1,-1,-1,-1,-1],"loss_changes":[3.1698145E2,8.1645584E1,5.7904068E1,2.2344807E1,3.5200287E1,3.594095E1,1.2332916E1,1.8419897E1,1.239447E1,2.1461853E1,1.526326E1,1.0095938E1,2.2423004E1,0E0,3.9574738E0,0E0,0E0,0E0,0E0,0E0,0E0,0E0,0E0,0E0,0E0,0E0,0E0,0E0,0E0],"parents":[2147483647,0,0,1,1,2,2,3,3,4,4,5,5,6,6,7,7,8,8,9,9,10,10,11,11,12,12,14,14],"right_children":[2,4,6,8,10,12,14,16,18,20,22,24,26,-1,28,-1,-1,-1,-1,-1,-1,-1,-1,-1,-1,-1,-1,-1,-1],"split_conditions":[2.539797E0,3.088006E0,5.095593E0,-5.0564147E-5,1.4338793E-2,-3.0020082E-3,-1.1568689E0,-9.903099E0,-1.2036306E-3,1E0,3.1176375E-3,-2.550027E-3,-1.3325152E1,7.6669776E-3,-5.5476045E-3,1.0613622E-2,-7.0404815E-3,8.370083E-4,1.1180484E-2,-6.9187568E-3,-1.679838E-2,-3.0713921E-2,-8.809592E-3,-1.1951318E-2,2.5863918E-3,2.5263473E-2,1.0102856E-2,3.602983E-2,2.3310669E-2],"split_indices":[39,42,39,22,18,23,49,17,14,47,31,21,17,0,24,0,0,0,0,0,0,0,0,0,0,0,0,0,0],"split_type":[0,0,0,0,0,0,0,0,0,0,0,0,0,0,0,0,0,0,0,0,0,0,0,0,0,0,0,0,0],"sum_hessian":[9.527393E3,6.4464717E3,3.0809207E3,2.2804307E3,4.166041E3,2.4115234E3,6.693972E2,1.0557552E3,1.2246755E3,3.7241995E3,4.418415E2,6.1157556E2,1.7999479E3,1.0269186E2,5.667053E2,1.6671275E2,8.890425E2,6.547462E2,5.699293E2,3.009634E3,7.145655E2,2.9673178E2,1.4510973E2,1.5338673E2,4.5818884E2,3.1630112E2,1.4836467E3,2.3862561E2,3.2807974E2],"tree_param":{"num_deleted":"0","num_feature":"52","num_nodes":"29","size_leaf_vector":"1"}},{"base_weights":[-7.869029E-3,2.5452116E-1,-2.0798112E-1,4.649941E-1,1.7843676E-1,-6.49778E-2,-3.4548235E-1,5.139637E-1,1.1413721E-2,-8.1064954E-2,2.0093895E-1,-1.836056E-2,-1.5197821E-1,-3.935263E-1,-1.00389056E-1,1.815074E-2,3.041615E-2,1.8453313E-3,-9.877294E-3,1.3740316E-2,5.13387E-3,4.5072637E-3,-4.67308E-3,-4.3814626E-4,-1.1461849E-2,-1.570553E-2,-2.6284589E-2,2.3317917E-3,-1.7626885E-2],"categories":[],"categories_nodes":[],"categories_segments":[],"categories_sizes":[],"default_left":[0,0,0,0,0,0,0,0,0,0,0,0,0,0,0,0,0,0,0,0,0,0,0,0,0,0,0,0,0],"id":24,"left_children":[1,3,5,7,9,11,13,15,-1,17,19,21,23,25,27,-1,-1,-1,-1,-1,-1,-1,-1,-1,-1,-1,-1,-1,-1],"loss_changes":[5.002212E2,6.357788E1,1.050856E2,9.69957E0,1.8205688E1,1.0304136E1,3.0673737E1,8.514923E0,0E0,3.7568893E0,1.9133568E1,1.4448486E1,9.327223E0,2.0641388E1,1.8322136E1,0E0,0E0,0E0,0E0,0E0,0E0,0E0,0E0,0E0,0E0,0E0,0E0,0E0,0E0],"parents":[2147483647,0,0,1,1,2,2,3,3,4,4,5,5,6,6,7,7,9,9,10,10,11,11,12,12,13,13,14,14],"right_children":[2,4,6,8,10,12,14,16,-1,18,20,22,24,26,28,-1,-1,-1,-1,-1,-1,-1,-1,-1,-1,-1,-1,-1,-1],"split_conditions":[-7.808966E-4,-8.821419E-3,4.3139267E-3,3.3741621E-3,-1.0476695E0,1.6405165E0,9.6797293E-1,2.2148313E-1,1.1413721E-2,-5.7572736E-3,-3.2675765E-3,1.4402921E-3,4.4444445E-1,9.92602E-3,5.434782E0,1.815074E-2,3.041615E-2,1.8453313E-3,-9.877294E-3,1.3740316E-2,5.13387E-3,4.5072637E-3,-4.67308E-3,-4.3814626E-4,-1.1461849E-2,-1.570553E-2,-2.6284589E-2,2.3317917E-3,-1.7626885E-2],"split_indices":[26,26,26,31,49,39,49,40,0,15,26,26,4,26,40,0,0,0,0,0,0,0,0,0,0,0,0,0,0],"split_type":[0,0,0,0,0,0,0,0,0,0,0,0,0,0,0,0,0,0,0,0,0,0,0,0,0,0,0,0,0],"sum_hessian":[9.519289E3,4.1116616E3,5.4076274E3,1.0744402E3,3.0372212E3,2.6650828E3,2.742545E3,8.749189E2,1.9952135E2,2.3067532E2,2.806546E3,1.7616691E3,9.0341364E2,2.2802876E3,4.622574E2,3.5809482E2,5.1682404E2,1.035056E2,1.27169716E2,1.5795885E3,1.2269574E3,7.038296E2,1.0578395E3,3.3213312E2,5.712805E2,1.4491206E3,8.3116705E2,2.8705594E2,1.7520143E2],"tree_param":{"num_deleted":"0","num_feature":"52","num_nodes":"29","size_leaf_vector":"1"}},{"base_weights":[-7.893208E-3,2.6594272E-1,-1.8447521E-1,4.124632E-1,1.8589337E-1,-6.835311E-2,-3.5924077E-1,1.813133E-1,5.784762E-1,-5.227174E-3,2.0204556E-1,-1.5165932E-1,6.1220874E-4,-1.8876095E-1,-4.356932E-1,1.755945E-2,2.907666E-3,2.3716813E-2,3.312872E-2,8.094482E-3,1.85993E-2,-9.739078E-3,-1.5226024E-3,1.65714E-2,-9.574569E-4,-1.8063212E-2,-4.112923E-3,-1.6789803E-2,-2.7843058E-2],"categories":[],"categories_nodes":[],"categories_segments":[],"categories_sizes":[],"default_left":[0,0,0,0,0,0,0,0,0,0,0,0,0,0,0,0,0,0,0,0,0,0,0,0,0,0,0,0,0],"id":25,"left_children":[1,3,5,7,9,11,13,15,17,-1,19,21,23,25,27,-1,-1,-1,-1,-1,-1,-1,-1,-1,-1,-1,-1,-1,-1],"loss_changes":[4.5878162E2,4.139441E1,1.1585095E2,4.689833E1,1.1773354E1,2.0491993E1,2.7627838E1,1.0307219E1,1.5335846E0,0E0,1.3851059E1,7.654232E0,1.3346626E1,1.1960566E1,1.537262E1,0E0,0E0,0E0,0E0,0E0,0E0,0E0,0E0,0E0,0E0,0E0,0E0,0E0,0E0],"parents":[2147483647,0,0,1,1,2,2,3,3,4,4,5,5,6,6,7,7,8,8,10,10,11,11,12,12,13,13,14,14],"right_children":[2,4,6,8,10,12,14,16,18,-1,20,22,24,26,28,-1,-1,-1,-1,-1,-1,-1,-1,-1,-1,-1,-1,-1,-1],"split_conditions":[-1.4431537E-3,-7.7176914E-3,5.331273E-3,-2.5881904E-1,-2.658954E-3,-5.5329125E-5,-5E-1,-8.734155E-3,-1.7326303E-4,-5.227174E-3,2.7328663E0,2.1830183E-3,-1.2815861E-2,6.666667E-1,9.92602E-3,1.755945E-2,2.907666E-3,2.3716813E-2,3.312872E-2,8.094482E-3,1.85993E-2,-9.739078E-3,-1.5226024E-3,1.65714E-2,-9.574569E-4,-1.8063212E-2,-4.112923E-3,-1.6789803E-2,-2.7843058E-2],"split_indices":[26,26,26,45,21,21,45,5,21,0,37,9,12,4,26,0,0,0,0,0,0,0,0,0,0,0,0,0,0],"split_type":[0,0,0,0,0,0,0,0,0,0,0,0,0,0,0,0,0,0,0,0,0,0,0,0,0,0,0,0,0],"sum_hessian":[9.48286E3,3.7100115E3,5.772849E3,1.2902068E3,2.419805E3,3.4828247E3,2.2900242E3,5.5122906E2,7.3897766E2,1.1625717E2,2.3035476E3,1.5943928E3,1.8884319E3,7.265314E2,1.5634929E3,2.1754764E2,3.3368143E2,3.609196E2,3.780581E2,1.8854447E3,4.1810294E2,1.1555085E3,4.3888428E2,1.1055948E2,1.7778724E3,2.6201465E2,4.6451672E2,8.80872E2,6.8262085E2],"tree_param":{"num_deleted":"0","num_feature":"52","num_nodes":"29","size_leaf_vector":"1"}},{"base_weights":[1.2690359E-3,-1.4235471E-1,1.6563335E-1,-9.966313E-2,-4.2486292E-1,9.495311E-2,3.4584728E-1,-2.128328E-1,-5.7144094E-2,-4.7951573E-1,-4.646532E-3,-4.1960664E-2,1.4196157E-1,5.9734535E-1,2.698918E-1,2.7010113E-3,-1.2062377E-2,2.1225798E-3,-4.828203E-3,-1.1162122E-2,-2.6399998E-2,-1.2525071E-2,8.011879E-4,1.2332498E-3,1.1297449E-2,1.9343534E-2,4.2285185E-2,2.1878785E-2,6.7865658E-3],"categories":[],"categories_nodes":[],"categories_segments":[],"categories_sizes":[],"default_left":[0,0,0,0,0,0,0,0,0,0,0,0,0,0,0,0,0,0,0,0,0,0,0,0,0,0,0,0,0],"id":26,"left_children":[1,3,5,7,9,11,13,15,17,19,-1,21,23,25,27,-1,-1,-1,-1,-1,-1,-1,-1,-1,-1,-1,-1,-1,-1],"loss_changes":[2.2254645E2,5.875683E1,5.4616776E1,2.0188614E1,9.819389E0,2.081326E1,2.003067E1,9.529861E0,1.27752905E1,3.961258E0,0E0,1.0409065E1,2.2731781E1,8.849342E0,1.9594429E1,0E0,0E0,0E0,0E0,0E0,0E0,0E0,0E0,0E0,0E0,0E0,0E0,0E0,0E0],"parents":[2147483647,0,0,1,1,2,2,3,3,4,4,5,5,6,6,7,7,8,8,9,9,11,11,12,12,13,13,14,14],"right_children":[2,4,6,8,10,12,14,16,18,20,-1,22,24,26,28,-1,-1,-1,-1,-1,-1,-1,-1,-1,-1,-1,-1,-1,-1],"split_conditions":[2.795125E0,5.434782E0,4.1807256E0,-5.047207E-4,1.682836E0,1.5113704E0,-7.0710677E-1,-2.5028403E0,1.8336807E0,7.93894E-3,-4.646532E-3,1.9068688E-3,-1.227236E-3,7.040268E0,5E0,2.7010113E-3,-1.2062377E-2,2.1225798E-3,-4.828203E-3,-1.1162122E-2,-2.6399998E-2,-1.2525071E-2,8.011879E-4,1.2332498E-3,1.1297449E-2,1.9343534E-2,4.2285185E-2,2.1878785E-2,6.7865658E-3],"split_indices":[41,40,39,21,43,39,46,17,40,27,0,31,23,41,51,0,0,0,0,0,0,0,0,0,0,0,0,0,0],"split_type":[0,0,0,0,0,0,0,0,0,0,0,0,0,0,0,0,0,0,0,0,0,0,0,0,0,0,0,0,0],"sum_hessian":[9.414337E3,5.014776E3,4.399561E3,4.3715474E3,6.432287E2,3.177587E3,1.2219742E3,1.1691434E3,3.2024038E3,5.4262427E2,1.00604454E2,7.959816E2,2.3816052E3,2.6632388E2,9.556503E2,1.01917366E2,1.0672261E3,8.864002E2,2.3160037E3,1.0062862E2,4.4199564E2,1.8081573E2,6.151659E2,1.0113477E3,1.3702576E3,1.5761705E2,1.0870684E2,4.0979205E2,5.458583E2],"tree_param":{"num_deleted":"0","num_feature":"52","num_nodes":"29","size_leaf_vector":"1"}},{"base_weights":[6.945022E-3,-1.13345966E-1,2.1029319E-1,-6.85144E-2,-3.6060753E-1,2.3455623E-1,-1.0554503E-2,4.052245E-2,-1.0835558E-1,-2.8980434E-1,-3.173154E-2,4.1375563E-1,1.8351503E-1,1.779968E-2,-1.1967908E-4,1.3366988E-3,-7.733138E-3,-1.7661415E-2,-2.6134043E-3,7.325213E-3,2.4337785E-2,4.2448314E-3,1.3397041E-2],"categories":[],"categories_nodes":[],"categories_segments":[],"categories_sizes":[],"default_left":[0,0,0,0,0,0,0,0,0,0,0,0,0,0,0,0,0,0,0,0,0,0,0],"id":27,"left_children":[1,3,5,7,9,11,-1,13,15,17,-1,19,21,-1,-1,-1,-1,-1,-1,-1,-1,-1,-1],"loss_changes":[2.3082896E2,6.413153E1,3.6227005E1,2.2040052E1,1.3692055E1,2.8287476E1,0E0,1.9035275E1,2.354573E1,9.688522E0,0E0,1.1814255E1,2.0590721E1,0E0,0E0,0E0,0E0,0E0,0E0,0E0,0E0,0E0,0E0],"parents":[2147483647,0,0,1,1,2,2,3,3,4,4,5,5,7,7,8,8,9,9,11,11,12,12],"right_children":[2,4,6,8,10,12,-1,14,16,18,-1,20,22,-1,-1,-1,-1,-1,-1,-1,-1,-1,-1],"split_conditions":[3.514991E0,4.950812E0,2.9573216E0,2.0913517E-1,7.1590343E0,-1.0544433E-2,-1.0554503E-2,1.7857121E0,-5.0449413E-1,3.151056E-3,-3.173154E-2,-7.0710677E-1,-8.408117E-4,1.779968E-2,-1.1967908E-4,1.3366988E-3,-7.733138E-3,-1.7661415E-2,-2.6134043E-3,7.325213E-3,2.4337785E-2,4.2448314E-3,1.3397041E-2],"split_indices":[41,40,40,37,40,18,0,40,17,6,0,45,23,0,0,0,0,0,0,0,0,0,0],"split_type":[0,0,0,0,0,0,0,0,0,0,0,0,0,0,0,0,0,0,0,0,0,0,0],"sum_hessian":[9.414867E3,5.9076475E3,3.50722E3,5.016595E3,8.910522E2,3.3250989E3,1.8212126E2,1.3223153E3,3.69428E3,7.249681E2,1.6608415E2,7.162222E2,2.6088765E3,1.6234717E2,1.1599681E3,9.270815E2,2.7671985E3,5.6029913E2,1.6466893E2,1.6570627E2,5.50516E2,1.2243112E3,1.3845653E3],"tree_param":{"num_deleted":"0","num_feature":"52","num_nodes":"23","size_leaf_vector":"1"}},{"base_weights":[-5.0609754E-3,8.891621E-2,-2.2888553E-1,-2.1118188E-2,2.1502227E-1,-1.5189376E-1,-3.8332543E-1,-1.0979168E-1,4.8351187E-2,4.0101084E-1,1.536132E-1,-2.569247E-1,4.361627E-2,-1.794979E-1,-4.6706647E-1,-2.914029E-3,-1.153445E-2,5.432552E-3,-1.3531573E-3,3.0296845E-2,1.3575454E-2,-1.6850869E-3,1.0219014E-2,-0E0,-1.4209342E-2,-2.708513E-3,9.8863635E-3,-1.8745868E-3,-1.4992516E-2,-2.6410032E-2,-1.1273494E-2],"categories":[],"categories_nodes":[],"categories_segments":[],"categories_sizes":[],"default_left":[0,0,0,0,0,0,0,0,0,0,0,0,0,0,0,0,0,0,0,0,0,0,0,0,0,0,0,0,0,0,0],"id":28,"left_children":[1,3,5,7,9,11,13,15,17,19,21,23,25,27,29,-1,-1,-1,-1,-1,-1,-1,-1,-1,-1,-1,-1,-1,-1,-1,-1],"loss_changes":[1.9791092E2,9.223182E1,3.1228256E1,2.1883347E1,3.332126E1,3.930689E1,1.31826935E1,8.818127E0,9.159882E0,1.6496338E1,2.2829922E1,9.459015E0,1.0300834E1,3.7804718E0,6.475479E0,0E0,0E0,0E0,0E0,0E0,0E0,0E0,0E0,0E0,0E0,0E0,0E0,0E0,0E0,0E0,0E0],"parents":[2147483647,0,0,1,1,2,2,3,3,4,4,5,5,6,6,7,7,8,8,9,9,10,10,11,11,12,12,13,13,14,14],"right_children":[2,4,6,8,10,12,14,16,18,20,22,24,26,28,30,-1,-1,-1,-1,-1,-1,-1,-1,-1,-1,-1,-1,-1,-1,-1,-1],"split_conditions":[2.9315743E0,3.7373178E0,4.950812E0,-2.483699E-4,-1.0328747E-2,2.2504898E-3,-5E-1,4.0048292E-1,2.2570656E-3,-2.5881904E-1,-1.7563377E-3,1.4528986E-3,8.1745805E-3,1.1113807E-2,9.129161E-1,-2.914029E-3,-1.153445E-2,5.432552E-3,-1.3531573E-3,3.0296845E-2,1.3575454E-2,-1.6850869E-3,1.0219014E-2,-0E0,-1.4209342E-2,-2.708513E-3,9.8863635E-3,-1.8745868E-3,-1.4992516E-2,-2.6410032E-2,-1.1273494E-2],"split_indices":[40,41,40,22,18,23,45,44,30,46,22,30,12,18,49,0,0,0,0,0,0,0,0,0,0,0,0,0,0,0,0],"split_type":[0,0,0,0,0,0,0,0,0,0,0,0,0,0,0,0,0,0,0,0,0,0,0,0,0,0,0,0,0,0,0],"sum_hessian":[9.379115E3,6.598299E3,2.7808167E3,3.5132075E3,3.0850916E3,1.8752866E3,9.0552997E2,1.5609855E3,1.952222E3,7.467921E2,2.3382993E3,1.228885E3,6.464016E2,2.78703E2,6.2682697E2,1.1172009E3,4.4378455E2,1.1057012E3,8.465209E2,2.730895E2,4.7370264E2,4.8636172E2,1.8519376E3,1.08257225E2,1.1206278E3,3.8554288E2,2.608587E2,1.4229305E2,1.3640996E2,4.8560062E2,1.4122638E2],"tree_param":{"num_deleted":"0","num_feature":"52","num_nodes":"31","size_leaf_vector":"1"}},{"base_weights":[2.7225837E-3,1.5966275E-1,-1.966168E-1,2.830231E-1,6.298303E-2,-1.0216562E-1,-3.1801847E-1,1.5066908E-1,3.740848E-1,-1.6292574E-1,9.629261E-2,-1.4770387E-1,1.3991323E-1,-3.9440313E-1,-1.2161982E-1,1.4535628E-2,4.4489563E-3,2.7322996E-2,1.4955595E-2,2.8612788E-3,-1.3037965E-2,-0E0,8.12776E-3,-1.2256275E-2,-4.2971787E-3,-1.928445E-4,1.7206443E-2,-1.061887E-2,-2.3038276E-2,-3.119471E-4,-1.6341692E-2],"categories":[],"categories_nodes":[],"categories_segments":[],"categories_sizes":[],"default_left":[0,0,0,0,0,0,0,0,0,0,0,0,0,0,0,0,0,0,0,0,0,0,0,0,0,0,0,0,0,0,0],"id":29,"left_children":[1,3,5,7,9,11,13,15,17,19,21,23,25,27,29,-1,-1,-1,-1,-1,-1,-1,-1,-1,-1,-1,-1,-1,-1,-1,-1],"loss_changes":[2.9427783E2,6.1765106E1,4.6010956E1,2.5887314E1,2.2276054E1,2.6009348E1,2.51232E1,7.025543E0,1.4052292E1,8.713727E0,1.6882343E1,1.0868866E1,1.1710871E1,1.2932861E1,1.1315831E1,0E0,0E0,0E0,0E0,0E0,0E0,0E0,0E0,0E0,0E0,0E0,0E0,0E0,0E0,0E0,0E0],"parents":[2147483647,0,0,1,1,2,2,3,3,4,4,5,5,6,6,7,7,8,8,9,9,10,10,11,11,12,12,13,13,14,14],"right_children":[2,4,6,8,10,12,14,16,18,20,22,24,26,28,30,-1,-1,-1,-1,-1,-1,-1,-1,-1,-1,-1,-1,-1,-1,-1,-1],"split_conditions":[1.4402921E-3,-4.3635615E-3,6.5906346E-3,-2.5881904E-1,-1.9106809E-3,8.5043234E-1,8.275938E-1,-1.4735892E-2,-1.1062059E-2,3.7661305E-4,-5.167922E-3,-4.157011E-4,9.960899E-3,-5E-1,8.016353E0,1.4535628E-2,4.4489563E-3,2.7322996E-2,1.4955595E-2,2.8612788E-3,-1.3037965E-2,-0E0,8.12776E-3,-1.2256275E-2,-4.2971787E-3,-1.928445E-4,1.7206443E-2,-1.061887E-2,-2.3038276E-2,-3.119471E-4,-1.6341692E-2],"split_indices":[26,26,26,45,22,49,49,27,26,6,16,22,5,45,42,0,0,0,0,0,0,0,0,0,0,0,0,0,0,0,0],"split_type":[0,0,0,0,0,0,0,0,0,0,0,0,0,0,0,0,0,0,0,0,0,0,0,0,0,0,0,0,0,0,0],"sum_hessian":[9.400074E3,5.268344E3,4.13173E3,2.2969019E3,2.9714426E3,2.3428772E3,1.7888527E3,9.55029E2,1.3418728E3,3.6775726E2,2.6036853E3,1.984002E3,3.588753E2,1.2733119E3,5.155407E2,2.7149982E2,6.835292E2,3.8507147E2,9.5680133E2,1.0435102E2,2.6340625E2,1.0543988E3,1.5492866E3,7.451583E2,1.2388436E3,2.0486397E2,1.5401135E2,3.578824E2,9.1542957E2,3.42655E2,1.7288573E2],"tree_param":{"num_deleted":"0","num_feature":"52","num_nodes":"31","size_leaf_vector":"1"}},{"base_weights":[3.54405E-3,-7.765156E-2,2.2232535E-1,-2.1530591E-2,-2.3913892E-1,1.1666708E-1,3.399665E-1,-6.860536E-2,3.8222928E-2,-2.8753212E-1,5.0621033E-2,-8.586907E-2,1.7927688E-1,1.365776E-1,4.6832052E-1,5.2379956E-3,-4.585862E-3,-8.837334E-3,2.7225695E-3,-8.311992E-3,-1.8921854E-2,-3.9284914E-3,1.1129289E-2,7.7817583E-4,-8.452686E-3,1.7807161E-2,6.438768E-3,1.4084172E-2,-0E0,2.8305618E-2,1.5543625E-2],"categories":[],"categories_nodes":[],"categories_segments":[],"categories_sizes":[],"default_left":[0,0,0,0,0,0,0,0,0,0,0,0,0,0,0,0,0,0,0,0,0,0,0,0,0,0,0,0,0,0,0],"id":30,"left_children":[1,3,5,7,9,11,13,15,17,19,21,23,25,27,29,-1,-1,-1,-1,-1,-1,-1,-1,-1,-1,-1,-1,-1,-1,-1,-1],"loss_changes":[1.6593585E2,6.0683994E1,2.9900772E1,1.4321903E1,2.5120476E1,1.753771E1,2.8719803E1,1.14565325E1,7.364669E0,1.4555428E1,5.9349017E0,3.1060958E0,7.6754227E0,8.834118E0,7.4750977E0,0E0,0E0,0E0,0E0,0E0,0E0,0E0,0E0,0E0,0E0,0E0,0E0,0E0,0E0,0E0,0E0],"parents":[2147483647,0,0,1,1,2,2,3,3,4,4,5,5,6,6,7,7,8,8,9,9,10,10,11,11,12,12,13,13,14,14],"right_children":[2,4,6,8,10,12,14,16,18,20,22,24,26,28,30,-1,-1,-1,-1,-1,-1,-1,-1,-1,-1,-1,-1,-1,-1,-1,-1],"split_conditions":[2.870348E0,3.8160543E0,4.1807256E0,2.0972258E-4,1.1220497E0,-2.2878086E-3,-2.5881904E-1,-6.2811985E-3,-3.7715625E-2,-1.8369701E-16,1.19605595E-2,3.09017E-1,-1.1598154E1,-3.1090276E-3,-1.00455E-3,5.2379956E-3,-4.585862E-3,-8.837334E-3,2.7225695E-3,-8.311992E-3,-1.8921854E-2,-3.9284914E-3,1.1129289E-2,7.7817583E-4,-8.452686E-3,1.7807161E-2,6.438768E-3,1.4084172E-2,-0E0,2.8305618E-2,1.5543625E-2],"split_indices":[39,40,39,21,49,7,45,10,16,45,5,47,17,5,15,0,0,0,0,0,0,0,0,0,0,0,0,0,0,0,0],"split_type":[0,0,0,0,0,0,0,0,0,0,0,0,0,0,0,0,0,0,0,0,0,0,0,0,0,0,0,0,0,0,0],"sum_hessian":[9.306796E3,6.780051E3,2.5267456E3,5.049474E3,1.7305768E3,1.3498502E3,1.1768954E3,2.8520496E3,2.1974246E3,1.491818E3,2.3875876E2,3.0699152E2,1.0428586E3,4.683865E2,7.0850885E2,3.181439E2,2.5339058E3,1.3779626E2,2.0596282E3,6.592893E2,8.3252875E2,1.2792411E2,1.1083464E2,1.2390547E2,1.8308604E2,2.1171744E2,8.3114124E2,2.1762628E2,2.5076024E2,4.1729373E2,2.9121512E2],"tree_param":{"num_deleted":"0","num_feature":"52","num_nodes":"31","size_leaf_vector":"1"}},{"base_weights":[-1.5120148E-2,2.0151113E-1,-1.5574627E-1,3.8127455E-1,1.4088756E-1,-4.3480832E-2,-2.572486E-1,1.2568011E-5,4.446569E-1,-3.8020246E-2,1.7716083E-1,-2.3192191E-1,-5.1511624E-3,-1.3062945E-1,-3.1489775E-1,2.8146163E-2,1.5101756E-2,-9.035334E-3,2.1665436E-3,1.4368774E-2,4.971815E-3,-2.3360373E-2,-4.75751E-3,-1.0635315E-3,1.3050826E-2,-1.3917503E-2,-1.2153296E-3,-1.6842902E-2,-1.6065127E-3],"categories":[],"categories_nodes":[],"categories_segments":[],"categories_sizes":[],"default_left":[0,0,0,0,0,0,0,0,0,0,0,0,0,0,0,0,0,0,0,0,0,0,0,0,0,0,0,0,0],"id":31,"left_children":[1,3,5,7,9,11,13,-1,15,17,19,21,23,25,27,-1,-1,-1,-1,-1,-1,-1,-1,-1,-1,-1,-1,-1,-1],"loss_changes":[2.8342322E2,3.800389E1,6.3450363E1,2.0557175E1,1.832428E1,1.8812616E1,2.0015793E1,0E0,9.550827E0,5.7263093E0,1.8439583E1,1.2368374E1,9.027328E0,1.3960091E1,1.1317627E1,0E0,0E0,0E0,0E0,0E0,0E0,0E0,0E0,0E0,0E0,0E0,0E0,0E0,0E0],"parents":[2147483647,0,0,1,1,2,2,3,3,4,4,5,5,6,6,8,8,9,9,10,10,11,11,12,12,13,13,14,14],"right_children":[2,4,6,8,10,12,14,-1,16,18,20,22,24,26,28,-1,-1,-1,-1,-1,-1,-1,-1,-1,-1,-1,-1,-1,-1],"split_conditions":[-1.4431537E-3,-9.381594E-3,3.5919794E-3,-8.660254E-1,-2.0002653E-3,-1.3974659E-3,-5E-1,1.2568011E-5,5E-1,8.7416935E-4,0E0,2.0942895E-3,3.3575953E-3,6.329145E-4,3.5907126E-3,2.8146163E-2,1.5101756E-2,-9.035334E-3,2.1665436E-3,1.4368774E-2,4.971815E-3,-2.3360373E-2,-4.75751E-3,-1.0635315E-3,1.3050826E-2,-1.3917503E-2,-1.2153296E-3,-1.6842902E-2,-1.6065127E-3],"split_indices":[26,26,26,45,22,22,45,0,46,6,46,31,22,6,22,0,0,0,0,0,0,0,0,0,0,0,0,0,0],"split_type":[0,0,0,0,0,0,0,0,0,0,0,0,0,0,0,0,0,0,0,0,0,0,0,0,0,0,0,0,0],"sum_hessian":[9.297896E3,3.6506528E3,5.647244E3,9.015145E2,2.7491382E3,2.6988794E3,2.9483647E3,1.3604303E2,7.654715E2,4.4944238E2,2.2996958E3,4.3867737E2,2.2602021E3,9.4379785E2,2.0045668E3,3.9891196E2,3.6655957E2,1.7437195E2,2.7507043E2,9.2952686E2,1.370169E3,1.4875795E2,2.8991943E2,2.1461028E3,1.140993E2,3.798057E2,5.639922E2,1.8493749E3,1.5519194E2],"tree_param":{"num_deleted":"0","num_feature":"52","num_nodes":"29","size_leaf_vector":"1"}},{"base_weights":[9.026053E-3,-7.421265E-2,1.6083564E-1,-3.981269E-2,-2.987958E-1,6.720853E-2,2.475019E-1,-6.1104033E-2,1.1579805E-1,5.035946E-3,-3.6886862E-1,1.8547378E-2,3.369746E-2,1.9346367E-1,3.0383086E-2,9.223004E-4,-5.635568E-3,-2.6308817E-3,1.21508725E-2,-1.8017304E-3,-2.2152822E-2,-1.3575542E-3,1.2658185E-2,1.137474E-2,-5.3801103E-3],"categories":[],"categories_nodes":[],"categories_segments":[],"categories_sizes":[],"default_left":[0,0,0,0,0,0,0,0,0,0,0,0,0,0,0,0,0,0,0,0,0,0,0,0,0],"id":32,"left_children":[1,3,5,7,9,11,13,15,17,-1,19,-1,21,23,-1,-1,-1,-1,-1,-1,-1,-1,-1,-1,-1],"loss_changes":[1.17884766E2,4.527534E1,2.5823715E1,1.716608E1,2.2953903E1,1.5153588E1,3.0093384E1,1.9227098E1,1.3769825E1,0E0,1.5148727E1,0E0,2.0318676E1,1.5775909E1,0E0,0E0,0E0,0E0,0E0,0E0,0E0,0E0,0E0,0E0,0E0],"parents":[2147483647,0,0,1,1,2,2,3,3,4,4,5,5,6,6,7,7,8,8,10,10,12,12,13,13],"right_children":[2,4,6,8,10,12,14,16,18,-1,20,-1,22,24,-1,-1,-1,-1,-1,-1,-1,-1,-1,-1,-1],"split_conditions":[2.3234527E0,7.744329E0,-1.8369701E-16,9.6314085E-1,8.7194586E-1,-2.2577783E-2,5.6263933E0,2.8263922E0,6.8611475E-3,5.035946E-3,1.6999684E-3,1.8547378E-2,4.6299545E1,1.3922486E-2,3.0383086E-2,9.223004E-4,-5.635568E-3,-2.6308817E-3,1.21508725E-2,-1.8017304E-3,-2.2152822E-2,-1.3575542E-3,1.2658185E-2,1.137474E-2,-5.3801103E-3],"split_indices":[39,42,45,35,35,13,39,42,14,0,31,0,48,13,0,0,0,0,0,0,0,0,0,0,0],"split_type":[0,0,0,0,0,0,0,0,0,0,0,0,0,0,0,0,0,0,0,0,0,0,0,0,0],"sum_hessian":[9.298671E3,5.994578E3,3.3040928E3,5.2150244E3,7.795539E2,1.6091703E3,1.6949224E3,4.606991E3,6.0803314E2,1.0961177E2,6.699421E2,1.4599796E2,1.4631722E3,1.4877208E3,2.0720157E2,1.791133E3,2.8158582E3,2.5276643E2,3.5526672E2,1.308349E2,5.391072E2,1.1382864E3,3.2488593E2,1.3466842E3,1.4103668E2],"tree_param":{"num_deleted":"0","num_feature":"52","num_nodes":"25","size_leaf_vector":"1"}},{"base_weights":[-3.6500476E-3,2.010073E-1,-1.3539001E-1,3.677835E-1,1.3699403E-1,-7.5576834E-2,-3.0711654E-1,4.9141753E-1,1.7435414E-1,2.6009744E-1,7.686407E-2,-2.0938175E-2,-1.4544465E-1,-1.3438028E-1,-3.8971713E-1,3.386786E-2,1.8893363E-2,1.4050116E-2,-0E0,5.3736363E-3,1.7928785E-2,3.2414254E-4,1.2108788E-2,-5.9575858E-3,2.2649325E-3,-4.6495786E-3,-1.3476401E-2,-1.9915866E-2,-2.297996E-3,-2.5480965E-2,-7.820449E-3],"categories":[],"categories_nodes":[],"categories_segments":[],"categories_sizes":[],"default_left":[0,0,0,0,0,0,0,0,0,0,0,0,0,0,0,0,0,0,0,0,0,0,0,0,0,0,0,0,0,0,0],"id":33,"left_children":[1,3,5,7,9,11,13,15,17,19,21,23,25,27,29,-1,-1,-1,-1,-1,-1,-1,-1,-1,-1,-1,-1,-1,-1,-1,-1],"loss_changes":[2.5062538E2,3.70336E1,5.6960632E1,2.1299286E1,1.8484753E1,1.5609936E1,1.8851212E1,8.075333E0,7.3422394E0,1.1188732E1,2.0212242E1,1.586243E1,1.0688984E1,9.973E0,2.4637238E1,0E0,0E0,0E0,0E0,0E0,0E0,0E0,0E0,0E0,0E0,0E0,0E0,0E0,0E0,0E0,0E0],"parents":[2147483647,0,0,1,1,2,2,3,3,4,4,5,5,6,6,7,7,8,8,9,9,10,10,11,11,12,12,13,13,14,14],"right_children":[2,4,6,8,10,12,14,16,18,20,22,24,26,28,30,-1,-1,-1,-1,-1,-1,-1,-1,-1,-1,-1,-1,-1,-1,-1,-1],"split_conditions":[-1.4431537E-3,-5E-1,7.7480683E-3,5.2277423E-3,8.5259336E-1,8.7243E-1,-5E-1,-7.7176914E-3,3.2345003E-1,-6.83185E-3,8.660254E-1,5.091884E-4,3.5919794E-3,-2.641589E-4,2.4214523E-2,3.386786E-2,1.8893363E-2,1.4050116E-2,-0E0,5.3736363E-3,1.7928785E-2,3.2414254E-4,1.2108788E-2,-5.9575858E-3,2.2649325E-3,-4.6495786E-3,-1.3476401E-2,-1.9915866E-2,-2.297996E-3,-2.5480965E-2,-7.820449E-3],"split_indices":[26,46,26,16,37,37,45,26,33,5,45,14,26,23,14,0,0,0,0,0,0,0,0,0,0,0,0,0,0,0,0],"split_type":[0,0,0,0,0,0,0,0,0,0,0,0,0,0,0,0,0,0,0,0,0,0,0,0,0,0,0,0,0,0,0],"sum_hessian":[9.292912E3,3.6293442E3,5.6635684E3,9.8707855E2,2.6422656E3,4.2188076E3,1.4447609E3,5.8802136E2,3.9905722E2,8.452582E2,1.7970074E3,2.3951594E3,1.823648E3,4.833733E2,9.613876E2,2.0351585E2,3.8450546E2,2.435404E2,1.5551682E2,3.4754385E2,4.977143E2,1.2767687E3,5.202388E2,9.8134894E2,1.4138105E3,1.3049417E3,5.1870624E2,1.0838586E2,3.7498746E2,6.226263E2,3.3876132E2],"tree_param":{"num_deleted":"0","num_feature":"52","num_nodes":"31","size_leaf_vector":"1"}},{"base_weights":[8.518451E-4,2.0800751E-1,-1.0170908E-1,8.129162E-2,2.9517275E-1,-4.888334E-3,-2.1551013E-1,1.1528182E-1,-1.0057694E-2,4.3889078E-1,1.9297223E-1,-1.4587153E-1,3.5470225E-2,-1.5903226E-1,-3.7323144E-1,3.4169492E-3,1.7246842E-2,2.487676E-2,9.037941E-3,-2.9838693E-4,1.2246149E-2,-1.1338521E-2,6.395967E-4,-4.112378E-3,3.1403725E-3,-9.449217E-3,8.828203E-3,-2.3222687E-2,-1.0333049E-2],"categories":[],"categories_nodes":[],"categories_segments":[],"categories_sizes":[],"default_left":[0,0,0,0,0,0,0,0,0,0,0,0,0,0,0,0,0,0,0,0,0,0,0,0,0,0,0,0,0],"id":34,"left_children":[1,3,5,7,9,11,13,15,-1,17,19,21,23,25,27,-1,-1,-1,-1,-1,-1,-1,-1,-1,-1,-1,-1,-1,-1],"loss_changes":[1.9766963E2,3.283194E1,6.768241E1,1.2131845E1,2.4298279E1,1.953775E1,2.3379501E1,1.1080761E1,0E0,8.672058E0,1.1887939E1,1.051116E1,8.361084E0,2.1431812E1,8.604576E0,0E0,0E0,0E0,0E0,0E0,0E0,0E0,0E0,0E0,0E0,0E0,0E0,0E0,0E0],"parents":[2147483647,0,0,1,1,2,2,3,3,4,4,5,5,6,6,7,7,9,9,10,10,11,11,12,12,13,13,14,14],"right_children":[2,4,6,8,10,12,14,16,-1,18,20,22,24,26,28,-1,-1,-1,-1,-1,-1,-1,-1,-1,-1,-1,-1,-1,-1],"split_conditions":[-2.465776E-3,-2.5881904E-1,3.8160328E-3,3.7562835E-3,-7.424878E-3,-8.2069886E-4,1.1544259E-2,1.1492549E-3,-1.0057694E-2,3.2306043E-3,6.4486367E-1,2.938304E0,-5.1784643E-4,5.443545E-3,2.776634E-2,3.4169492E-3,1.7246842E-2,2.487676E-2,9.037941E-3,-2.9838693E-4,1.2246149E-2,-1.1338521E-2,6.395967E-4,-4.112378E-3,3.1403725E-3,-9.449217E-3,8.828203E-3,-2.3222687E-2,-1.0333049E-2],"split_indices":[26,45,26,30,26,7,26,21,0,31,32,42,21,23,14,0,0,0,0,0,0,0,0,0,0,0,0,0,0],"split_type":[0,0,0,0,0,0,0,0,0,0,0,0,0,0,0,0,0,0,0,0,0,0,0,0,0,0,0,0,0],"sum_hessian":[9.278828E3,3.0806162E3,6.198212E3,1.2734407E3,1.8071757E3,3.3660166E3,2.8321953E3,1.1487749E3,1.2466572E2,7.319938E2,1.0751819E3,7.627588E2,2.6032578E3,2.10683E3,7.253651E2,9.7004333E2,1.7873163E2,5.832315E2,1.4876224E2,2.1159175E2,8.635901E2,5.162807E2,2.4647807E2,4.680382E2,2.1352197E3,1.9444142E3,1.6241599E2,4.5127332E2,2.740918E2],"tree_param":{"num_deleted":"0","num_feature":"52","num_nodes":"29","size_leaf_vector":"1"}},{"base_weights":[-3.5422997E-4,1.4809386E-1,-1.6473433E-1,4.1384947E-1,1.1922356E-1,-1.2176397E-1,-3.7573355E-1,5.3116864E-1,3.0534014E-3,2.506237E-1,6.977941E-2,-1.5920116E-1,8.728047E-2,-2.1249265E-3,-4.2636943E-1,3.580725E-2,1.5901716E-2,1.7408932E-2,3.1654432E-3,-3.3806318E-3,6.651913E-3,-1.8365312E-2,-6.2516243E-3,-4.966039E-3,8.480781E-3,-2.5946287E-2,-9.2126755E-3],"categories":[],"categories_nodes":[],"categories_segments":[],"categories_sizes":[],"default_left":[0,0,0,0,0,0,0,0,0,0,0,0,0,0,0,0,0,0,0,0,0,0,0,0,0,0,0],"id":35,"left_children":[1,3,5,7,9,11,13,15,-1,17,19,21,23,-1,25,-1,-1,-1,-1,-1,-1,-1,-1,-1,-1,-1,-1],"loss_changes":[2.2592583E2,3.539897E1,3.8191483E1,1.7243317E1,2.7511349E1,2.9057728E1,1.0830765E1,9.193718E0,0E0,2.027929E1,2.8205784E1,2.0564285E1,8.737082E0,0E0,1.1437614E1,0E0,0E0,0E0,0E0,0E0,0E0,0E0,0E0,0E0,0E0,0E0,0E0],"parents":[2147483647,0,0,1,1,2,2,3,3,4,4,5,5,6,6,7,7,9,9,10,10,11,11,12,12,14,14],"right_children":[2,4,6,8,10,12,14,16,-1,18,20,22,24,-1,26,-1,-1,-1,-1,-1,-1,-1,-1,-1,-1,-1,-1],"split_conditions":[7.8173506E-4,-1.310908E-2,1.1544259E-2,3.3741621E-3,-5E-1,9.756138E-1,-8.660254E-1,1.2246469E-16,3.0534014E-3,1.1293343E0,-5.5017406E-1,-8.660254E-1,-5E-1,-2.1249265E-3,4.3772537E-2,3.580725E-2,1.5901716E-2,1.7408932E-2,3.1654432E-3,-3.3806318E-3,6.651913E-3,-1.8365312E-2,-6.2516243E-3,-4.966039E-3,8.480781E-3,-2.5946287E-2,-9.2126755E-3],"split_indices":[26,26,26,31,46,35,45,46,0,43,49,46,46,0,16,0,0,0,0,0,0,0,0,0,0,0,0],"split_type":[0,0,0,0,0,0,0,0,0,0,0,0,0,0,0,0,0,0,0,0,0,0,0,0,0,0,0],"sum_hessian":[9.246485E3,4.84937E3,4.3971157E3,4.5847253E2,4.3908975E3,3.6715098E3,7.2560583E2,3.3577637E2,1.2269618E2,1.1783522E3,3.2125454E3,3.12704E3,5.444697E2,1.0474187E2,6.20864E2,1.6590965E2,1.698667E2,7.614657E2,4.168865E2,9.977535E2,2.2147917E3,4.21759E2,2.705281E3,1.5521909E2,3.8925064E2,4.3605948E2,1.848045E2],"tree_param":{"num_deleted":"0","num_feature":"52","num_nodes":"27","size_leaf_vector":"1"}},{"base_weights":[5.0944876E-4,1.842042E-1,-1.15466945E-1,3.1602243E-1,1.3303947E-1,-4.680009E-2,-2.6175454E-1,3.5050544E-1,1.5856682E-3,-1.1998091E-1,1.6010277E-1,-9.066146E-2,1.04739085E-1,-1.4317526E-1,-3.9017385E-1,2.3503117E-2,1.2055005E-2,4.296801E-3,-1.4282919E-2,1.4318184E-3,9.598361E-3,-6.6228616E-3,-2.762154E-4,-5.480896E-3,7.191991E-3,-3.4465045E-3,-1.9956386E-2,-2.353051E-2,-9.997922E-3],"categories":[],"categories_nodes":[],"categories_segments":[],"categories_sizes":[],"default_left":[0,0,0,0,0,0,0,0,0,0,0,0,0,0,0,0,0,0,0,0,0,0,0,0,0,0,0,0,0],"id":36,"left_children":[1,3,5,7,9,11,13,15,-1,17,19,21,23,25,27,-1,-1,-1,-1,-1,-1,-1,-1,-1,-1,-1,-1,-1,-1],"loss_changes":[1.9771236E2,2.270839E1,5.5997498E1,8.464287E0,1.813581E1,2.579924E1,2.5487206E1,8.672188E0,0E0,9.080517E0,9.26775E0,1.0355888E1,7.3734045E0,1.6595158E1,1.0488205E1,0E0,0E0,0E0,0E0,0E0,0E0,0E0,0E0,0E0,0E0,0E0,0E0,0E0,0E0],"parents":[2147483647,0,0,1,1,2,2,3,3,4,4,5,5,6,6,7,7,9,9,10,10,11,11,12,12,13,13,14,14],"right_children":[2,4,6,8,10,12,14,16,-1,18,20,22,24,26,28,-1,-1,-1,-1,-1,-1,-1,-1,-1,-1,-1,-1,-1,-1],"split_conditions":[-1.4431537E-3,-8.821419E-3,6.4762407E-3,4.3320297E-3,-1.0260975E0,1.929154E-3,6.160994E-1,-1.2724254E-2,1.5856682E-3,-7.468822E-3,2.7368674E0,3.212709E-3,7.108809E-1,1.6004147E-2,1.7517405E0,2.3503117E-2,1.2055005E-2,4.296801E-3,-1.4282919E-2,1.4318184E-3,9.598361E-3,-6.6228616E-3,-2.762154E-4,-5.480896E-3,7.191991E-3,-3.4465045E-3,-1.9956386E-2,-2.353051E-2,-9.997922E-3],"split_indices":[26,26,26,30,49,23,41,26,0,15,41,18,33,18,41,0,0,0,0,0,0,0,0,0,0,0,0,0,0],"split_type":[0,0,0,0,0,0,0,0,0,0,0,0,0,0,0,0,0,0,0,0,0,0,0,0,0,0,0,0,0],"sum_hessian":[9.260745E3,3.592894E3,5.667851E3,9.809939E2,2.6119001E3,3.8757131E3,1.7921381E3,8.644333E2,1.1656066E2,2.4000699E2,2.3718933E3,3.0226465E3,8.5306665E2,9.494107E2,8.427274E2,3.920748E2,4.7235846E2,1.0000812E2,1.3999887E2,4.8295575E2,1.8889375E3,2.0018677E3,1.0207787E3,1.18374565E2,7.346921E2,7.4994006E2,1.9947067E2,5.760087E2,2.6671866E2],"tree_param":{"num_deleted":"0","num_feature":"52","num_nodes":"29","size_leaf_vector":"1"}},{"base_weights":[7.1911654E-3,1.2656572E-1,-1.4566152E-1,1.927062E-1,2.875153E-2,-6.417456E-2,-2.525523E-1,8.893368E-2,2.6449698E-1,-2.0317543E-1,6.1300185E-2,-1.8578807E-2,-2.4890232E-1,-8.7212704E-2,-3.3059743E-1,1.0400472E-2,1.4889882E-3,1.5049832E-2,-3.1346537E-3,-0E0,-1.7149111E-2,-1.5019571E-3,6.241456E-3,-3.2054973E-3,7.791268E-3,-7.1038664E-3,-2.1512475E-2,-1.4758456E-2,-0E0,-2.1242106E-2,-6.7101754E-3],"categories":[],"categories_nodes":[],"categories_segments":[],"categories_sizes":[],"default_left":[0,0,0,0,0,0,0,0,0,0,0,0,0,0,0,0,0,0,0,0,0,0,0,0,0,0,0,0,0,0,0],"id":37,"left_children":[1,3,5,7,9,11,13,15,17,19,21,23,25,27,29,-1,-1,-1,-1,-1,-1,-1,-1,-1,-1,-1,-1,-1,-1,-1,-1],"loss_changes":[1.6901651E2,3.303724E1,3.4265335E1,2.185147E1,1.5696058E1,1.8732422E1,2.099453E1,8.332829E0,2.2395638E1,6.6213417E0,1.1216537E1,1.4709732E1,6.622307E0,1.0559307E1,1.9595787E1,0E0,0E0,0E0,0E0,0E0,0E0,0E0,0E0,0E0,0E0,0E0,0E0,0E0,0E0,0E0,0E0],"parents":[2147483647,0,0,1,1,2,2,3,3,4,4,5,5,6,6,7,7,8,8,9,9,10,10,11,11,12,12,13,13,14,14],"right_children":[2,4,6,8,10,12,14,16,18,20,22,24,26,28,30,-1,-1,-1,-1,-1,-1,-1,-1,-1,-1,-1,-1,-1,-1,-1,-1],"split_conditions":[1.4402921E-3,-2.465776E-3,6.5906346E-3,-2.5881904E-1,-1.9106809E-3,1E0,-5E-1,1.0614177E0,2.1204887E-2,5.787341E-4,7.474832E-1,1.730092E-3,9.8138154E-1,5.650019E-4,2.8268682E-2,1.0400472E-2,1.4889882E-3,1.5049832E-2,-3.1346537E-3,-0E0,-1.7149111E-2,-1.5019571E-3,6.241456E-3,-3.2054973E-3,7.791268E-3,-7.1038664E-3,-2.1512475E-2,-1.4758456E-2,-0E0,-2.1242106E-2,-6.7101754E-3],"split_indices":[26,26,26,45,22,47,45,37,14,6,38,7,32,6,15,0,0,0,0,0,0,0,0,0,0,0,0,0,0,0,0],"split_type":[0,0,0,0,0,0,0,0,0,0,0,0,0,0,0,0,0,0,0,0,0,0,0,0,0,0,0,0,0,0,0],"sum_hessian":[9.255931E3,5.208609E3,4.0473215E3,3.0862278E3,2.1223813E3,2.3170288E3,1.7302926E3,1.2836757E3,1.802552E3,2.4662962E2,1.8757517E3,1.8757793E3,4.4124954E2,5.7056665E2,1.159726E3,4.0504013E2,8.7863556E2,1.630258E3,1.72294E2,1.0704326E2,1.3958636E2,7.511672E2,1.1245845E3,1.5036022E3,3.7217715E2,2.9370108E2,1.4754846E2,1.6644484E2,4.041218E2,7.6941223E2,3.9031375E2],"tree_param":{"num_deleted":"0","num_feature":"52","num_nodes":"31","size_leaf_vector":"1"}},{"base_weights":[1.0068645E-4,1.13775976E-1,-6.8539366E-2,2.552375E-1,7.6451056E-2,-4.8633963E-2,-3.20103E-1,5.0641865E-2,3.4133756E-1,-5.9910405E-2,1.085812E-1,-1.9532166E-2,-1.681414E-1,-3.95611E-1,-6.0350583E-3,1.2378768E-2,-5.4293503E-3,6.420133E-3,2.0366425E-2,-0E0,-1.2567821E-2,3.96211E-3,1.283653E-2,-2.2164613E-3,4.41382E-3,-2.237325E-3,-1.6265994E-2,-9.938723E-3,-2.8621404E-2],"categories":[],"categories_nodes":[],"categories_segments":[],"categories_sizes":[],"default_left":[0,0,0,0,0,0,0,0,0,0,0,0,0,0,0,0,0,0,0,0,0,0,0,0,0,0,0,0,0],"id":38,"left_children":[1,3,5,7,9,11,13,15,17,19,21,23,25,27,-1,-1,-1,-1,-1,-1,-1,-1,-1,-1,-1,-1,-1,-1,-1],"loss_changes":[7.23782E1,1.7399448E1,2.764109E1,1.12842865E1,1.2424385E1,1.803167E1,4.387577E0,7.6741657E0,5.0180054E0,5.6258016E0,8.80751E0,1.1461116E1,1.8737333E1,7.0151215E0,0E0,0E0,0E0,0E0,0E0,0E0,0E0,0E0,0E0,0E0,0E0,0E0,0E0,0E0,0E0],"parents":[2147483647,0,0,1,1,2,2,3,3,4,4,5,5,6,6,7,7,8,8,9,9,10,10,11,11,12,12,13,13],"right_children":[2,4,6,8,10,12,14,16,18,20,22,24,26,28,-1,-1,-1,-1,-1,-1,-1,-1,-1,-1,-1,-1,-1,-1,-1],"split_conditions":[3.672292E-1,-1.0328747E-2,1.4338793E-2,-2.5232824E-2,-1.2492299E-3,1E0,1.5829543E-3,-4.2847384E-2,5.4218434E-4,3.1540083E-4,2.8252738E-4,1.670522E-2,4.699905E0,2.8835475E0,-6.0350583E-3,1.2378768E-2,-5.4293503E-3,6.420133E-3,2.0366425E-2,-0E0,-1.2567821E-2,3.96211E-3,1.283653E-2,-2.2164613E-3,4.41382E-3,-2.237325E-3,-1.6265994E-2,-9.938723E-3,-2.8621404E-2],"split_indices":[35,18,18,15,21,47,21,15,6,20,20,13,42,38,0,0,0,0,0,0,0,0,0,0,0,0,0,0,0],"split_type":[0,0,0,0,0,0,0,0,0,0,0,0,0,0,0,0,0,0,0,0,0,0,0,0,0,0,0,0,0],"sum_hessian":[9.248682E3,3.4972607E3,5.751421E3,7.072429E2,2.7900178E3,5.3462793E3,4.0514145E2,2.221477E2,4.850952E2,5.1340704E2,2.2766108E3,4.3241953E3,1.0220841E3,2.7938217E2,1.2575928E2,1.0649805E2,1.1564966E2,1.2900867E2,3.5608655E2,3.9991238E2,1.1349466E2,1.9235931E3,3.530177E2,3.540594E3,7.8360126E2,5.8686694E2,4.3521716E2,1.4526154E2,1.3412064E2],"tree_param":{"num_deleted":"0","num_feature":"52","num_nodes":"29","size_leaf_vector":"1"}},{"base_weights":[1.6349119E-3,1.22532286E-1,-1.4080554E-1,2.6285055E-1,7.71471E-2,-1.0918852E-1,-3.2971212E-1,2.6026959E-2,1.9406502E-1,-9.993906E-2,1.0643808E-1,-3.1031942E-1,-7.736622E-2,-4.6860394E-1,-2.0361796E-1,6.3006706E-3,2.0179708E-2,-1.7526379E-3,-1.4603331E-2,1.1904551E-2,2.8500136E-3,-1.9265084E-2,-2.077706E-3,-1.7380555E-3,-1.2027965E-2,-1.3786896E-2,-3.4400612E-2,-1.781959E-2,-2.4776147E-3],"categories":[],"categories_nodes":[],"categories_segments":[],"categories_sizes":[],"default_left":[0,0,0,0,0,0,0,0,0,0,0,0,0,0,0,0,0,0,0,0,0,0,0,0,0,0,0,0,0],"id":39,"left_children":[1,3,5,7,9,11,13,-1,15,17,19,21,23,25,27,-1,-1,-1,-1,-1,-1,-1,-1,-1,-1,-1,-1,-1,-1],"loss_changes":[1.5850684E2,3.0668251E1,2.3682983E1,1.8652313E1,1.975774E1,2.1966328E1,7.8103523E0,0E0,1.1926704E1,5.533183E0,2.0352112E1,8.346302E0,2.1074053E1,7.3658295E0,6.42696E0,0E0,0E0,0E0,0E0,0E0,0E0,0E0,0E0,0E0,0E0,0E0,0E0,0E0,0E0],"parents":[2147483647,0,0,1,1,2,2,3,3,4,4,5,5,6,6,8,8,9,9,10,10,11,11,12,12,13,13,14,14],"right_children":[2,4,6,8,10,12,14,-1,16,18,20,22,24,26,28,-1,-1,-1,-1,-1,-1,-1,-1,-1,-1,-1,-1,-1,-1],"split_conditions":[1.064758E-3,-7.7176914E-3,1.2557066E-2,-7.0710677E-1,-2.0002653E-3,-8.660254E-1,3.09017E-1,2.6026959E-2,8.093776E0,-9.3414984E-4,-5E-1,1.1428229E0,1E0,1.4338793E-2,1.9959819E-2,6.3006706E-3,2.0179708E-2,-1.7526379E-3,-1.4603331E-2,1.1904551E-2,2.8500136E-3,-1.9265084E-2,-2.077706E-3,-1.7380555E-3,-1.2027965E-2,-1.3786896E-2,-3.4400612E-2,-1.781959E-2,-2.4776147E-3],"split_indices":[26,26,26,46,22,46,47,0,41,26,46,43,47,18,13,0,0,0,0,0,0,0,0,0,0,0,0,0,0],"split_type":[0,0,0,0,0,0,0,0,0,0,0,0,0,0,0,0,0,0,0,0,0,0,0,0,0,0,0,0,0],"sum_hessian":[9.197622E3,4.9868E3,4.2108223E3,1.1967443E3,3.7900554E3,3.6274688E3,5.8335345E2,2.3603687E2,9.6070734E2,5.216721E2,3.2683833E3,4.7667047E2,3.1507983E3,2.598059E2,3.2354758E2,7.4203235E2,2.18675E2,4.060617E2,1.1561042E2,8.704941E2,2.3978892E3,3.6227112E2,1.1439936E2,2.517895E3,6.329032E2,1.5154788E2,1.0825802E2,1.4938083E2,1.7416673E2],"tree_param":{"num_deleted":"0","num_feature":"52","num_nodes":"29","size_leaf_vector":"1"}},{"base_weights":[-8.742093E-3,4.7024243E-2,-1.7796047E-1,1.8706091E-1,8.349774E-3,-1.2807271E-1,-3.220435E-1,2.232238E-1,-1.0199822E-2,-3.435847E-2,8.819687E-2,-2.0985086E-1,8.832487E-3,-1.1004613E-3,-4.015494E-1,3.8669554E-3,1.7748414E-2,-7.2035746E-4,-1.3634244E-2,1.5854968E-2,3.020256E-3,-1.1945946E-2,-1.1535384E-3,-2.4229062E-3,1.5791638E-2,-2.8545825E-2,-1.268206E-2],"categories":[],"categories_nodes":[],"categories_segments":[],"categories_sizes":[],"default_left":[0,0,0,0,0,0,0,0,0,0,0,0,0,0,0,0,0,0,0,0,0,0,0,0,0,0,0],"id":40,"left_children":[1,3,5,7,9,11,13,15,-1,17,19,21,23,-1,25,-1,-1,-1,-1,-1,-1,-1,-1,-1,-1,-1,-1],"loss_changes":[8.708278E1,3.675762E1,1.4906113E1,2.115136E1,1.8680891E1,1.9925463E1,1.2288925E1,2.4704361E1,0E0,1.5829914E1,1.0965811E1,5.125408E0,1.2067667E1,0E0,7.8903885E0,0E0,0E0,0E0,0E0,0E0,0E0,0E0,0E0,0E0,0E0,0E0,0E0],"parents":[2147483647,0,0,1,1,2,2,3,3,4,4,5,5,6,6,7,7,9,9,10,10,11,11,12,12,14,14],"right_children":[2,4,6,8,10,12,14,16,-1,18,20,22,24,-1,26,-1,-1,-1,-1,-1,-1,-1,-1,-1,-1,-1,-1],"split_conditions":[3.2549264E0,-1.0299133E1,7.744329E0,2.252608E0,4.3942966E-4,9.3381214E-1,1.7240176E-3,-7.571053E-4,-1.0199822E-2,1.5228147E-3,1.9802041E-1,6.8641156E-3,3.5963058E-3,-1.1004613E-3,0E0,3.8669554E-3,1.7748414E-2,-7.2035746E-4,-1.3634244E-2,1.5854968E-2,3.020256E-3,-1.1945946E-2,-1.1535384E-3,-2.4229062E-3,1.5791638E-2,-2.8545825E-2,-1.268206E-2],"split_indices":[40,17,42,42,22,35,31,22,0,8,34,24,29,0,46,0,0,0,0,0,0,0,0,0,0,0,0],"split_type":[0,0,0,0,0,0,0,0,0,0,0,0,0,0,0,0,0,0,0,0,0,0,0,0,0,0,0],"sum_hessian":[9.177048E3,6.8917397E3,2.2853079E3,1.4704872E3,5.4212524E3,1.7200262E3,5.6528156E2,1.3550012E3,1.1548589E2,3.5094243E3,1.911828E3,1.0888612E3,6.3116504E2,1.27656555E2,4.37625E2,6.575654E2,6.9743585E2,3.2548381E3,2.545864E2,1.8966734E2,1.7221606E3,9.271189E2,1.6174226E2,5.272176E2,1.0394748E2,1.8789139E2,2.4973361E2],"tree_param":{"num_deleted":"0","num_feature":"52","num_nodes":"27","size_leaf_vector":"1"}},{"base_weights":[-1.1594974E-2,3.3305816E-2,-2.0237428E-1,2.4380028E-1,1.030745E-2,-2.4021523E-1,4.685046E-3,4.303949E-1,1.2584792E-1,-2.256707E-2,8.5339114E-2,-1.8927494E-1,-4.9218342E-1,8.484683E-3,-7.675563E-3,2.6393864E-2,1.1383224E-2,1.2667223E-3,1.6748497E-2,1.2517818E-3,-4.086216E-3,8.2763545E-3,1.4030273E-3,-1.6582682E-3,-1.2296143E-2,-3.0873049E-2,-1.7153597E-2],"categories":[],"categories_nodes":[],"categories_segments":[],"categories_sizes":[],"default_left":[0,0,0,0,0,0,0,0,0,0,0,0,0,0,0,0,0,0,0,0,0,0,0,0,0,0,0],"id":41,"left_children":[1,3,5,7,9,11,13,15,17,19,21,23,25,-1,-1,-1,-1,-1,-1,-1,-1,-1,-1,-1,-1,-1,-1],"loss_changes":[7.940848E1,3.526367E1,1.4561111E1,1.3911148E1,1.6796432E1,1.682927E1,7.116134E0,2.4093666E0,8.507191E0,1.3289712E1,8.944786E0,1.0365089E1,5.492401E-1,0E0,0E0,0E0,0E0,0E0,0E0,0E0,0E0,0E0,0E0,0E0,0E0,0E0,0E0],"parents":[2147483647,0,0,1,1,2,2,3,3,4,4,5,5,6,6,7,7,8,8,9,9,10,10,11,11,12,12],"right_children":[2,4,6,8,10,12,14,16,18,20,22,24,26,-1,-1,-1,-1,-1,-1,-1,-1,-1,-1,-1,-1,-1,-1],"split_conditions":[3.7436774E0,-1.0328747E-2,3.5907126E-3,-2.5881904E-1,6.491392E-4,1.4338793E-2,2.6834179E-3,5.801235E-1,-8.4812235E-4,1.3327421E0,-8.855372E-4,-5E-1,3.42466E-2,8.484683E-3,-7.675563E-3,2.6393864E-2,1.1383224E-2,1.2667223E-3,1.6748497E-2,1.2517818E-3,-4.086216E-3,8.2763545E-3,1.4030273E-3,-1.6582682E-3,-1.2296143E-2,-3.0873049E-2,-1.7153597E-2],"split_indices":[40,18,22,46,22,18,30,44,20,40,18,45,5,0,0,0,0,0,0,0,0,0,0,0,0,0,0],"split_type":[0,0,0,0,0,0,0,0,0,0,0,0,0,0,0,0,0,0,0,0,0,0,0,0,0,0,0],"sum_hessian":[9.2018955E3,7.4394004E3,1.7624951E3,7.151828E2,6.724218E3,1.5017349E3,2.607602E2,2.620131E2,4.531697E2,4.650258E3,2.07396E3,1.2663748E3,2.3536017E2,1.367362E2,1.2402399E2,1.6152637E2,1.00486725E2,3.1953714E2,1.3363255E2,2.5502732E3,2.0999844E3,8.3840186E2,1.235558E3,3.5339096E2,9.1298376E2,1.08434204E2,1.26925964E2],"tree_param":{"num_deleted":"0","num_feature":"52","num_nodes":"27","size_leaf_vector":"1"}},{"base_weights":[-4.1419445E-3,1.4001574E-1,-9.602696E-2,4.9289122E-2,2.0192339E-1,-5.941667E-2,-2.825128E-1,-6.785631E-3,7.543752E-2,3.3952782E-1,1.2848571E-1,-2.2841113E-2,-2.0711099E-1,-2.0756043E-1,-5.085317E-1,-0E0,7.7068666E-3,2.855818E-3,1.9571802E-2,-3.1551272E-3,8.924404E-3,-2.0181031E-3,1.1498414E-2,-1.4389138E-2,-4.565369E-3,-1.6111607E-2,-0E0,-3.2929506E-2,-1.5102181E-2],"categories":[],"categories_nodes":[],"categories_segments":[],"categories_sizes":[],"default_left":[0,0,0,0,0,0,0,0,0,0,0,0,0,0,0,0,0,0,0,0,0,0,0,0,0,0,0,0,0],"id":42,"left_children":[1,3,5,7,9,11,13,-1,15,17,19,21,23,25,27,-1,-1,-1,-1,-1,-1,-1,-1,-1,-1,-1,-1,-1,-1],"loss_changes":[1.2127083E2,1.9164703E1,3.7191902E1,6.9728727E0,1.951751E1,2.4725754E1,1.2669464E1,0E0,7.421265E0,8.960785E0,1.3682528E1,1.6293594E1,7.3057976E0,1.6782427E1,2.6976204E0,0E0,0E0,0E0,0E0,0E0,0E0,0E0,0E0,0E0,0E0,0E0,0E0,0E0,0E0],"parents":[2147483647,0,0,1,1,2,2,3,3,4,4,5,5,6,6,8,8,9,9,10,10,11,11,12,12,13,13,14,14],"right_children":[2,4,6,8,10,12,14,-1,16,18,20,22,24,26,28,-1,-1,-1,-1,-1,-1,-1,-1,-1,-1,-1,-1,-1,-1],"split_conditions":[-1.4431537E-3,-2.5881904E-1,1.0105292E-2,2.5451937E0,-7.424878E-3,1E0,1.782474E-2,-6.785631E-3,-6.408749E-3,-2.9143015E-2,6.4486367E-1,3.3575953E-3,1.8941688E-4,3.2428592E-2,9.969433E-1,-0E0,7.7068666E-3,2.855818E-3,1.9571802E-2,-3.1551272E-3,8.924404E-3,-2.0181031E-3,1.1498414E-2,-1.4389138E-2,-4.565369E-3,-1.6111607E-2,-0E0,-3.2929506E-2,-1.5102181E-2],"split_indices":[26,45,26,41,26,47,26,0,28,16,32,22,21,16,43,0,0,0,0,0,0,0,0,0,0,0,0,0,0],"split_type":[0,0,0,0,0,0,0,0,0,0,0,0,0,0,0,0,0,0,0,0,0,0,0,0,0,0,0,0,0],"sum_hessian":[9.155216E3,3.5501477E3,5.605068E3,1.4632185E3,2.0869292E3,4.7042295E3,9.008385E2,1.6439963E2,1.2988188E3,7.056827E2,1.3812466E3,3.791399E3,9.128303E2,6.936689E2,2.0716962E2,6.791507E2,6.196682E2,1.2017191E2,5.8551074E2,2.7318982E2,1.1080568E3,3.5606934E3,2.3070544E2,5.183812E2,3.944491E2,4.4651132E2,2.471576E2,1.05224815E2,1.019448E2],"tree_param":{"num_deleted":"0","num_feature":"52","num_nodes":"29","size_leaf_vector":"1"}},{"base_weights":[-4.937114E-3,1.07127056E-1,-5.2594014E-2,2.5180424E-2,8.766456E-2,-4.2853385E-2,-2.450931E-2,1.06917754E-1,-1.14235066E-1,2.706547E-2,-7.2466396E-2,2.736359E-3,1.19703775E-2,-1.5270083E-2,3.4639467E-3,1.2144799E-2,-6.318171E-4,-1.8912675E-3,-8.514175E-3],"categories":[],"categories_nodes":[],"categories_segments":[],"categories_sizes":[],"default_left":[0,0,0,0,0,0,0,0,0,0,0,0,0,0,0,0,0,0,0],"id":43,"left_children":[1,3,5,-1,7,9,-1,11,13,15,17,-1,-1,-1,-1,-1,-1,-1,-1],"loss_changes":[4.8775948E1,1.895959E1,2.5779348E1,0E0,1.0152475E1,1.3230876E1,0E0,1.5587582E1,8.369067E0,1.6590548E1,1.4493065E1,0E0,0E0,0E0,0E0,0E0,0E0,0E0,0E0],"parents":[2147483647,0,0,1,1,2,2,4,4,5,5,7,7,8,8,9,9,10,10],"right_children":[2,4,6,-1,8,10,-1,12,14,16,18,-1,-1,-1,-1,-1,-1,-1,-1],"split_conditions":[1.3345365E-1,-4.1204255E-2,7.370757E0,2.5180424E-2,2.2859933E0,2.0913517E-1,-2.450931E-2,-2.8214641E-4,-2.1951238E-3,2.077454E0,6.125167E1,2.736359E-3,1.19703775E-2,-1.5270083E-2,3.4639467E-3,1.2144799E-2,-6.318171E-4,-1.8912675E-3,-8.514175E-3],"split_indices":[19,14,40,0,40,37,0,24,9,40,48,0,0,0,0,0,0,0,0],"split_type":[0,0,0,0,0,0,0,0,0,0,0,0,0,0,0,0,0,0,0],"sum_hessian":[9.153352E3,2.7104941E3,6.442858E3,1.13794785E2,2.5966992E3,6.3146416E3,1.2821606E2,2.3863477E3,2.1035161E2,1.8487374E3,4.4659043E3,1.7332799E3,6.5306775E2,1.0940792E2,1.0094369E2,2.9500082E2,1.5537366E3,3.32573E3,1.1401743E3],"tree_param":{"num_deleted":"0","num_feature":"52","num_nodes":"19","size_leaf_vector":"1"}},{"base_weights":[8.450132E-3,8.104289E-2,-1.4778998E-1,3.2010768E-2,1.8589869E-1,-7.2975606E-2,-2.3079757E-1,1.4608872E-1,-1.7782707E-2,3.7129875E-3,2.3838136E-1,-1.23707555E-1,1.2023901E-1,-2.650711E-1,-0E0,4.579334E-4,1.0809076E-2,-0E0,-6.7319623E-3,-2.7845544E-3,1.1203601E-2,1.5011041E-2,5.34782E-3,-1.4782734E-2,-3.0099943E-3,-4.203146E-3,1.513464E-2,-1.1533397E-2,-2.7092803E-2],"categories":[],"categories_nodes":[],"categories_segments":[],"categories_sizes":[],"default_left":[0,0,0,0,0,0,0,0,0,0,0,0,0,0,0,0,0,0,0,0,0,0,0,0,0,0,0,0,0],"id":44,"left_children":[1,3,5,7,9,11,13,15,17,19,21,23,25,27,-1,-1,-1,-1,-1,-1,-1,-1,-1,-1,-1,-1,-1,-1,-1],"loss_changes":[1.03049736E2,3.1337906E1,1.6857834E1,2.4649174E1,1.8047577E1,1.5164178E1,1.015834E1,1.1945923E1,6.2546587E0,6.550924E0,1.0905029E1,1.2310078E1,1.2344671E1,8.118423E0,0E0,0E0,0E0,0E0,0E0,0E0,0E0,0E0,0E0,0E0,0E0,0E0,0E0,0E0,0E0],"parents":[2147483647,0,0,1,1,2,2,3,3,4,4,5,5,6,6,7,7,8,8,9,9,10,10,11,11,12,12,13,13],"right_children":[2,4,6,8,10,12,14,16,18,20,22,24,26,28,-1,-1,-1,-1,-1,-1,-1,-1,-1,-1,-1,-1,-1,-1,-1],"split_conditions":[3.5919794E-3,5.360525E-4,7.896658E-3,-5.5426974E-3,-7.0710677E-1,2.712723E-3,2.4137043E-3,-5E-1,1.4988938E-2,2.8838706E-3,2.2889618E-4,6.879291E-1,6.2583556E0,1.9534215E-2,-0E0,4.579334E-4,1.0809076E-2,-0E0,-6.7319623E-3,-2.7845544E-3,1.1203601E-2,1.5011041E-2,5.34782E-3,-1.4782734E-2,-3.0099943E-3,-4.203146E-3,1.513464E-2,-1.1533397E-2,-2.7092803E-2],"split_indices":[26,22,26,26,45,30,21,45,28,22,26,35,17,26,0,0,0,0,0,0,0,0,0,0,0,0,0,0,0],"split_type":[0,0,0,0,0,0,0,0,0,0,0,0,0,0,0,0,0,0,0,0,0,0,0,0,0,0,0,0,0],"sum_hessian":[9.093129E3,6.2232646E3,2.8698645E3,4.2643354E3,1.9589292E3,1.5333761E3,1.3364884E3,1.311117E3,2.9532185E3,4.5208823E2,1.5068411E3,1.2282125E3,3.0516367E2,1.1565852E3,1.799032E2,4.6031693E2,8.5080005E2,2.5615818E3,3.916366E2,3.4831277E2,1.0377546E2,1.00480225E3,5.0203876E2,3.1360663E2,9.1460583E2,1.3747752E2,1.6768613E2,1.0465137E3,1.1007145E2],"tree_param":{"num_deleted":"0","num_feature":"52","num_nodes":"29","size_leaf_vector":"1"}},{"base_weights":[8.214791E-3,9.244717E-2,-1.327045E-1,1.668404E-1,1.4612863E-2,-2.1650726E-2,-1.8331492E-1,8.670285E-2,2.4395196E-1,-9.640221E-2,1.0812885E-1,-5.696631E-2,1.2674634E-2,-1.9713798E-1,4.333488E-3,7.28395E-4,8.637195E-3,1.3450163E-2,-2.7034304E-3,-7.033806E-3,8.4007075E-3,-3.8032674E-3,8.443664E-3,-1.1554493E-2,-1.3450468E-4,-6.4837523E-3,-1.5031531E-2],"categories":[],"categories_nodes":[],"categories_segments":[],"categories_sizes":[],"default_left":[0,0,0,0,0,0,0,0,0,0,0,0,0,0,0,0,0,0,0,0,0,0,0,0,0,0,0],"id":45,"left_children":[1,3,5,7,9,11,13,15,17,19,21,23,-1,25,-1,-1,-1,-1,-1,-1,-1,-1,-1,-1,-1,-1,-1],"loss_changes":[1.0831671E2,3.2626694E1,1.8500156E1,1.6884583E1,2.9423965E1,1.0074323E1,9.07309E0,8.448744E0,1.1626213E1,1.5020752E1,1.769434E1,8.555275E0,0E0,1.400415E1,0E0,0E0,0E0,0E0,0E0,0E0,0E0,0E0,0E0,0E0,0E0,0E0,0E0],"parents":[2147483647,0,0,1,1,2,2,3,3,4,4,5,5,6,6,7,7,8,8,9,9,10,10,11,11,13,13],"right_children":[2,4,6,8,10,12,14,16,18,20,22,24,-1,26,-1,-1,-1,-1,-1,-1,-1,-1,-1,-1,-1,-1,-1],"split_conditions":[2.5346165E-3,-2.693612E-3,-5E-1,-3.8438532E-4,-4.4157048E-4,3.254418E-3,5.8862336E-2,-1.8369701E-16,3.8919084E-2,1.5355153E-3,-6.2563014E-4,-7.3316013E-3,1.2674634E-2,7.604774E-3,4.333488E-3,7.28395E-4,8.637195E-3,1.3450163E-2,-2.7034304E-3,-7.033806E-3,8.4007075E-3,-3.8032674E-3,8.443664E-3,-1.1554493E-2,-1.3450468E-4,-6.4837523E-3,-1.5031531E-2],"split_indices":[26,26,45,22,10,31,5,45,5,22,21,5,0,26,0,0,0,0,0,0,0,0,0,0,0,0,0],"split_type":[0,0,0,0,0,0,0,0,0,0,0,0,0,0,0,0,0,0,0,0,0,0,0,0,0,0,0],"sum_hessian":[9.125283E3,5.725788E3,3.3994949E3,2.9049783E3,2.8208098E3,1.0850342E3,2.3144604E3,1.4488252E3,1.4561531E3,1.2749965E3,1.5458134E3,9.7478546E2,1.102488E2,2.213587E3,1.0087355E2,8.102461E2,6.385791E2,1.3529764E3,1.0317661E2,1.1038529E3,1.7114359E2,3.7079868E2,1.1750146E3,2.1463945E2,7.60146E2,1.3644236E3,8.491634E2],"tree_param":{"num_deleted":"0","num_feature":"52","num_nodes":"27","size_leaf_vector":"1"}},{"base_weights":[9.041664E-5,9.135441E-2,-1.1686044E-1,1.5727022E-1,4.1412067E-2,-7.910258E-2,-2.6009312E-1,6.331407E-2,2.2471161E-1,-1.6216952E-3,1.6089289E-1,-5.6257997E-2,-3.5152465E-1,-1.8428458E-3,-2.9476663E-1,1.135946E-2,-4.789872E-4,1.3123281E-2,-5.0023776E-3,9.962502E-3,-9.369109E-4,-1.5188641E-3,1.2505702E-2,-5.3385957E-3,3.38893E-3,-9.032201E-3,-2.4456155E-2,-1.7718785E-2,-5.167626E-3],"categories":[],"categories_nodes":[],"categories_segments":[],"categories_sizes":[],"default_left":[0,0,0,0,0,0,0,0,0,0,0,0,0,0,0,0,0,0,0,0,0,0,0,0,0,0,0,0,0],"id":46,"left_children":[1,3,5,7,9,11,13,15,17,19,21,23,25,-1,27,-1,-1,-1,-1,-1,-1,-1,-1,-1,-1,-1,-1,-1,-1],"loss_changes":[9.7221344E1,1.6274666E1,2.0410782E1,1.2914497E1,1.5667599E1,1.8433556E1,5.234436E0,1.1878843E1,1.5967209E1,