{"learner":{"attributes":{"best_iteration":"29","best_score":"0.6914756670760634"},"feature_names":[],"feature_types":[],"gradient_booster":{"model":{"cats":{"enc":[],"feature_segments":[],"sorted_idx":[]},"gbtree_model_param":{"num_parallel_tree":"1","num_trees":"60"},"iteration_indptr":[0,1,2,3,4,5,6,7,8,9,10,11,12,13,14,15,16,17,18,19,20,21,22,23,24,25,26,27,28,29,30,31,32,33,34,35,36,37,38,39,40,41,42,43,44,45,46,47,48,49,50,51,52,53,54,55,56,57,58,59,60],"tree_info":[0,0,0,0,0,0,0,0,0,0,0,0,0,0,0,0,0,0,0,0,0,0,0,0,0,0,0,0,0,0,0,0,0,0,0,0,0,0,0,0,0,0,0,0,0,0,0,0,0,0,0,0,0,0,0,0,0,0,0,0],"trees":[{"base_weights":[8.780806E-4,7.440431E-2,-1.0683191E-1,1.24437355E-1,-8.763118E-2,7.922792E-2,-1.4675283E-1,2.3589157E-1,7.8296445E-2,-2.9131594E-1,-4.4836544E-2,2.1318784E-1,3.9631226E-3,-1.6657092E-1,1.4848368E-1,2.676146E-1,6.700276E-2,1.5087014E-1,1.12315575E-2,-2.3856977E-1,-7.548219E-1,-2.7948225E-2,-3.35379E-1,-7.081263E-2,2.9002297E-1,4.2727824E-2,-4.541711E-1,-1.3445231E-1,-2.687805E-1,-4.3258107E-1,1.9323458E-1,5.397394E-1,2.4130195E-1,4.521098E-2,1.2966036E0,-3.1527415E-1,1.6638424E-1,1.5949528E-1,-3.169064E-2,-5.440841E-1,-1.5588954E-1,-4.71215E-1,-1.4332405E0,-1.9251851E-2,-5.930246E-1,-5.173706E-1,1.3471602E-1,-5.3002834E-1,1.171601E-1,3.7724137E-1,5.458777E-2,7.9269305E-2,-2.1975417E-1,-1.2425991E-1,-9.288279E-1,-1.15939006E-1,-3.2636034E-1,-2.9396695E-1,2.603101E-1,-5.319566E-1,1.1236976E0,1.0291352E-1,5.875541E-1,-9.316443E-3,3.0475348E-2,-6.5561533E-3,1.2776802E-2,5.3225616E-3,-1.560645E-2,9.125627E-3,7.4169025E-2,1.4100455E-2,-2.6486604E-2,1.0167102E-2,8.575852E-4,4.3864336E-2,6.689902E-3,-2.6437698E-3,1.8925775E-2,4.5004994E-2,-3.0483393E-2,-6.328548E-3,-5.831789E-2,-3.1908903E-2,3.6955114E-2,2.5184422E-3,-7.82125E-2,-1.4248647E-3,3.1806786E-2,-3.3953536E-2,8.071887E-2,-3.699685E-2,-3.1694695E-3,3.3109466E-4,6.3922666E-2,2.514994E-2,-3.4352344E-2,2.4518497E-2,-9.648862E-3,1.2489445E-2,3.1011123E-2,-5.389539E-2,6.475616E-3,1.0337773E-2,-1.3058435E-4,-2.1979518E-2,7.585918E-3,-6.2351525E-2,4.5786235E-3,-5.1737864E-2,4.9596522E-2,1.27251195E-2,-6.345533E-3,-2.6767565E-2,-5.6987284E-3,-1.775019E-2,-7.619157E-3,2.4969554E-2,-1.9156234E-2,2.0980645E-2,-3.553846E-2,2.7290065E-2,7.5290106E-2,6.170855E-2,3.0133217E-3,3.1996123E-2,-7.338046E-2],"categories":[],"categories_nodes":[],"categories_segments":[],"categories_sizes":[],"default_left":[0,0,0,0,0,0,0,0,0,0,0,0,0,0,0,0,0,0,0,0,0,0,0,0,0,0,0,0,0,0,0,0,0,0,0,0,0,0,0,0,0,0,0,0,0,0,0,0,0,0,0,0,0,0,0,0,0,0,0,0,0,0,0,0,0,0,0,0,0,0,0,0,0,0,0,0,0,0,0,0,0,0,0,0,0,0,0,0,0,0,0,0,0,0,0,0,0,0,0,0,0,0,0,0,0,0,0,0,0,0,0,0,0,0,0,0,0,0,0,0,0,0,0,0,0,0,0],"id":0,"left_children":[1,3,5,7,9,11,13,15,17,19,21,23,25,27,29,31,33,35,37,39,41,43,45,47,49,51,53,55,57,59,61,63,65,67,69,71,73,75,77,79,81,83,85,87,89,91,93,95,97,99,101,103,105,107,109,111,113,115,117,119,121,123,125,-1,-1,-1,-1,-1,-1,-1,-1,-1,-1,-1,-1,-1,-1,-1,-1,-1,-1,-1,-1,-1,-1,-1,-1,-1,-1,-1,-1,-1,-1,-1,-1,-1,-1,-1,-1,-1,-1,-1,-1,-1,-1,-1,-1,-1,-1,-1,-1,-1,-1,-1,-1,-1,-1,-1,-1,-1,-1,-1,-1,-1,-1,-1,-1],"loss_changes":[9.8610724E2,5.999557E2,3.7522723E2,2.9073035E2,1.5213872E2,8.995326E1,2.4338202E2,8.863794E1,1.9462276E2,7.38168E1,7.07565E1,7.008302E1,1.01477776E2,1.2787659E2,6.809689E1,9.957239E1,6.999714E1,1.389296E2,1.3229573E2,6.8621735E1,5.858702E1,6.694722E1,6.788751E1,5.9146225E1,5.182115E1,5.055521E1,6.958124E1,1.05294495E2,1.24247314E2,2.949789E1,8.6424614E1,6.233612E1,6.7416626E1,5.6362843E1,9.030594E0,7.943106E1,1.0249292E2,8.587008E1,1.4006982E2,5.538336E1,6.325492E1,4.4817722E1,1.7820374E1,8.135098E1,4.0224968E1,5.76176E1,3.2350708E1,3.2642612E1,5.6377014E1,5.684079E1,5.8125694E1,4.832596E1,5.268646E1,6.426544E1,3.8162964E1,1.099693E2,1.1565668E2,7.676422E1,6.5389626E1,3.0401798E1,1.5123615E0,9.5260544E1,4.9556915E1,0E0,0E0,0E0,0E0,0E0,0E0,0E0,0E0,0E0,0E0,0E0,0E0,0E0,0E0,0E0,0E0,0E0,0E0,0E0,0E0,0E0,0E0,0E0,0E0,0E0,0E0,0E0,0E0,0E0,0E0,0E0,0E0,0E0,0E0,0E0,0E0,0E0,0E0,0E0,0E0,0E0,0E0,0E0,0E0,0E0,0E0,0E0,0E0,0E0,0E0,0E0,0E0,0E0,0E0,0E0,0E0,0E0,0E0,0E0,0E0,0E0,0E0,0E0,0E0],"parents":[2147483647,0,0,1,1,2,2,3,3,4,4,5,5,6,6,7,7,8,8,9,9,10,10,11,11,12,12,13,13,14,14,15,15,16,16,17,17,18,18,19,19,20,20,21,21,22,22,23,23,24,24,25,25,26,26,27,27,28,28,29,29,30,30,31,31,32,32,33,33,34,34,35,35,36,36,37,37,38,38,39,39,40,40,41,41,42,42,43,43,44,44,45,45,46,46,47,47,48,48,49,49,50,50,51,51,52,52,53,53,54,54,55,55,56,56,57,57,58,58,59,59,60,60,61,61,62,62],"right_children":[2,4,6,8,10,12,14,16,18,20,22,24,26,28,30,32,34,36,38,40,42,44,46,48,50,52,54,56,58,60,62,64,66,68,70,72,74,76,78,80,82,84,86,88,90,92,94,96,98,100,102,104,106,108,110,112,114,116,118,120,122,124,126,-1,-1,-1,-1,-1,-1,-1,-1,-1,-1,-1,-1,-1,-1,-1,-1,-1,-1,-1,-1,-1,-1,-1,-1,-1,-1,-1,-1,-1,-1,-1,-1,-1,-1,-1,-1,-1,-1,-1,-1,-1,-1,-1,-1,-1,-1,-1,-1,-1,-1,-1,-1,-1,-1,-1,-1,-1,-1,-1,-1,-1,-1,-1,-1],"split_conditions":[1.9206786E-1,7.567815E-1,-8.3660877E-1,3.3747694E-1,0E0,-1.240694E0,1.2909944E-1,2.6842758E-1,-2.5107765E-1,3.656E0,1.17265E5,-3.6038065E-1,5.0228895E-3,7.9573283E-4,-2.0929174E0,-4.9603805E-3,9.946708E-1,-3.6038065E-1,-6.558236E-1,3.4180644E-4,1.2001178E-1,2.1094582E-3,3.0825892E-1,9.909454E3,7.098239E-3,1.2909944E-1,-1.8369701E-16,1.8414137E-1,8.452242E-4,4.4461393E-1,1.22E0,-9.217139E-1,0E0,2.28E0,-8.660254E-1,-1.0702652E-4,1.17E0,-1.5627937E0,5.53E0,-3.0916473E-3,1.8071187E-1,6.422095E-3,-1.8750133E-3,9.591657E-1,1.9832633E0,6.299408E-2,1.0289851E-2,-1.3388002E0,-3.603804E-1,1.01223E2,-1.3032594E0,8.854999E-1,2.9260033E-1,4.1762766E-4,2.6168146E0,-1.6583838E0,7.0118946E-1,6.387494E-1,5.150483E-1,3.0939095E-4,4.754556E-3,-6.4458214E-3,4.15621E-3,-9.316443E-3,3.0475348E-2,-6.5561533E-3,1.2776802E-2,5.3225616E-3,-1.560645E-2,9.125627E-3,7.4169025E-2,1.4100455E-2,-2.6486604E-2,1.0167102E-2,8.575852E-4,4.3864336E-2,6.689902E-3,-2.6437698E-3,1.8925775E-2,4.5004994E-2,-3.0483393E-2,-6.328548E-3,-5.831789E-2,-3.1908903E-2,3.6955114E-2,2.5184422E-3,-7.82125E-2,-1.4248647E-3,3.1806786E-2,-3.3953536E-2,8.071887E-2,-3.699685E-2,-3.1694695E-3,3.3109466E-4,6.3922666E-2,2.514994E-2,-3.4352344E-2,2.4518497E-2,-9.648862E-3,1.2489445E-2,3.1011123E-2,-5.389539E-2,6.475616E-3,1.0337773E-2,-1.3058435E-4,-2.1979518E-2,7.585918E-3,-6.2351525E-2,4.5786235E-3,-5.1737864E-2,4.9596522E-2,1.27251195E-2,-6.345533E-3,-2.6767565E-2,-5.6987284E-3,-1.775019E-2,-7.619157E-3,2.4969554E-2,-1.9156234E-2,2.0980645E-2,-3.553846E-2,2.7290065E-2,7.5290106E-2,6.170855E-2,3.0133217E-3,3.1996123E-2,-7.338046E-2],"split_indices":[219,605,615,118,1002,605,1002,300,300,566,1059,1002,93,102,927,92,176,1002,605,83,66,98,133,551,22,802,174,692,83,131,621,199,1002,240,170,16,621,585,190,16,295,1084,25,565,962,290,121,45,712,376,1032,290,176,68,535,605,727,176,300,83,16,18,92,0,0,0,0,0,0,0,0,0,0,0,0,0,0,0,0,0,0,0,0,0,0,0,0,0,0,0,0,0,0,0,0,0,0,0,0,0,0,0,0,0,0,0,0,0,0,0,0,0,0,0,0,0,0,0,0,0,0,0,0,0,0,0,0],"split_type":[0,0,0,0,0,0,0,0,0,0,0,0,0,0,0,0,0,0,0,0,0,0,0,0,0,0,0,0,0,0,0,0,0,0,0,0,0,0,0,0,0,0,0,0,0,0,0,0,0,0,0,0,0,0,0,0,0,0,0,0,0,0,0,0,0,0,0,0,0,0,0,0,0,0,0,0,0,0,0,0,0,0,0,0,0,0,0,0,0,0,0,0,0,0,0,0,0,0,0,0,0,0,0,0,0,0,0,0,0,0,0,0,0,0,0,0,0,0,0,0,0,0,0,0,0,0,0],"sum_hessian":[1.2451462E5,7.400067E4,5.0513945E4,5.6542438E4,1.745823E4,8.92299E3,4.1590957E4,1.6552732E4,3.9989707E4,3.0297468E3,1.4428484E4,3.2087466E3,5.7142437E3,3.8975457E4,2.6154973E3,1.3934235E4,2.618497E3,1.9204729E4,2.0784979E4,2.721747E3,3.0799966E2,1.3637235E4,7.9124915E2,6.8299927E2,2.5257473E3,5.269494E3,4.447495E2,2.9658719E4,9.31674E3,1.862498E2,2.4292473E3,1.2264987E3,1.2707736E4,2.5739973E3,4.449995E1,6.177493E2,1.858698E4,4.666245E3,1.6118732E4,5.782494E2,2.1434978E3,2.1849977E2,8.94999E1,1.3431735E4,2.0549979E2,5.704994E2,2.2074976E2,1.9799979E2,4.8499948E2,1.842248E3,6.8349927E2,4.626495E3,6.429993E2,2.6324973E2,1.814998E2,2.705122E4,2.6074973E3,8.89399E3,4.2274954E2,1.7574982E2,1.0499989E1,1.9777479E3,4.514995E2,1.07249886E2,1.1192488E3,4.672495E2,1.2240487E4,2.1982476E3,3.757496E2,6.749993E0,3.7749958E1,1.6299983E2,4.547495E2,1.4896734E4,3.690246E3,1.5999983E2,4.506245E3,1.5328233E4,7.9049915E2,2.4499973E1,5.537494E2,2.0842478E3,5.9249935E1,1.9249979E2,2.5999971E1,7.2499924E0,8.224991E1,1.3245985E4,1.857498E2,1.9849979E2,6.9999924E0,3.822496E2,1.882498E2,1.9949979E2,2.1249977E1,2.5749973E1,1.7224982E2,2.1999977E2,2.6499973E2,1.2099987E3,6.322493E2,4.1499954E1,6.419993E2,1.809248E3,2.817247E3,4.0399957E2,2.3899974E2,4.1749954E1,2.2149976E2,1.7249982E2,8.99999E0,7.7724915E2,2.6273973E4,1.3132485E3,1.2942487E3,6.213243E3,2.680747E3,3.0849966E2,1.1424988E2,2.7499971E1,1.4824985E2,5.2499943E0,5.2499943E0,7.074992E1,1.9069979E3,4.409995E2,1.0499989E1],"tree_param":{"num_deleted":"0","num_feature":"1115","num_nodes":"127","size_leaf_vector":"1"}},{"base_weights":[1.53251E-3,7.099304E-2,-1.0524566E-1,-2.095535E-1,9.114512E-2,4.766955E-2,-1.5176763E-1,-1.6294636E-1,-5.55107E-1,1.1891186E-1,-3.850675E-3,6.9987975E-2,-2.8176028E-1,-1.7083925E-1,1.5139396E-1,-8.577067E-2,-3.8920784E-1,-8.3650887E-1,-4.4905048E-2,2.4617004E-1,8.7438434E-2,-2.1251528E-2,3.458061E-1,5.9477963E-2,8.9781916E-1,-6.9077426E-1,-1.162842E-1,-1.1344328E-1,-2.3345362E-1,2.9010603E-1,-2.043165E-1,-1.7896676E-1,1.496747E-1,-3.2959077E-1,-1.1003646E0,-9.466061E-1,8.925009E-2,2.0853455E-1,-1.0371599E0,3.18172E-1,1.3528256E-1,1.4401856E-1,1.5481369E-2,7.524481E-3,-2.9534116E-1,6.235714E-1,1.8458053E-1,4.9423207E-2,5.018301E-1,1.0948694E0,-6.237137E-1,-7.8548354E-1,5.391823E-2,1.3815916E0,-1.8471764E-1,-1.7193258E-1,-3.2738764E-2,2.2652811E-1,-2.4572252E-1,-7.728849E-1,3.3013585E-1,8.673138E-2,-6.390464E-1,4.9019093E-3,-1.4298459E-2,1.7057072E-2,-1.0540566E-2,-6.822337E-2,-1.4475514E-2,2.9060123E-2,-6.2491592E-2,5.0533723E-2,-4.921797E-2,3.7244443E-2,-4.9467694E-2,2.8367216E-2,-2.2604087E-2,2.7420256E-2,-6.838307E-2,1.8306835E-2,-2.0671721E-5,-1.080409E-2,8.587803E-3,7.874306E-3,-5.86993E-3,7.342525E-3,-1.889528E-3,2.7186533E-2,-1.825698E-4,-1.9278156E-2,4.4010244E-3,5.187751E-2,1.3015303E-2,-1.4981574E-3,3.118445E-2,1.3410369E-2,1.4264224E-3,4.1781362E-2,-7.0479843E-3,6.931555E-2,2.2459658E-2,4.2972844E-2,-7.186531E-2,-7.2931657E-3,-5.1690478E-2,1.0604106E-2,8.793993E-2,-2.3511283E-3,-5.209309E-2,2.940632E-3,-1.0696812E-2,-2.6449652E-3,2.122054E-2,-2.6930341E-2,1.9602692E-2,7.1387873E-3,-1.292028E-2,2.3211034E-2,-6.4135425E-2,2.2140944E-3,2.4080673E-2,2.5273597E-2,-1.2355357E-2,-4.2119734E-2,6.3716285E-3],"categories":[],"categories_nodes":[],"categories_segments":[],"categories_sizes":[],"default_left":[0,0,0,0,0,0,0,0,0,0,0,0,0,0,0,0,0,0,0,0,0,0,0,0,0,0,0,0,0,0,0,0,0,0,0,0,0,0,0,0,0,0,0,0,0,0,0,0,0,0,0,0,0,0,0,0,0,0,0,0,0,0,0,0,0,0,0,0,0,0,0,0,0,0,0,0,0,0,0,0,0,0,0,0,0,0,0,0,0,0,0,0,0,0,0,0,0,0,0,0,0,0,0,0,0,0,0,0,0,0,0,0,0,0,0,0,0,0,0,0,0,0,0,0,0],"id":1,"left_children":[1,3,5,7,9,11,13,15,17,19,21,23,25,27,29,31,33,35,37,39,41,43,45,47,49,51,53,55,57,59,61,63,65,67,69,71,73,75,77,79,81,83,85,87,89,91,93,95,97,99,101,103,-1,105,107,109,111,113,115,117,119,121,123,-1,-1,-1,-1,-1,-1,-1,-1,-1,-1,-1,-1,-1,-1,-1,-1,-1,-1,-1,-1,-1,-1,-1,-1,-1,-1,-1,-1,-1,-1,-1,-1,-1,-1,-1,-1,-1,-1,-1,-1,-1,-1,-1,-1,-1,-1,-1,-1,-1,-1,-1,-1,-1,-1,-1,-1,-1,-1,-1,-1,-1,-1],"loss_changes":[9.253096E2,4.2735095E2,3.4980865E2,8.1421936E1,1.8603271E2,8.432974E1,2.1800714E2,7.789195E1,8.621428E1,2.1852362E2,9.702769E1,9.332289E1,4.9090057E1,1.2741284E2,1.1017723E2,7.3125465E1,4.7618805E1,3.9656525E1,5.4356712E1,8.629639E1,1.7812073E2,1.1988738E2,3.3658905E1,4.710965E1,4.1053978E1,3.5874268E1,5.3382435E1,8.734367E1,9.578357E1,6.85535E1,7.937539E1,7.08074E1,6.53036E1,4.2944138E1,2.271968E1,2.6590302E1,3.0409426E1,4.1033062E1,2.3879879E1,1.00259705E2,5.4650536E1,8.625549E1,1.3481685E2,8.247253E1,5.00149E1,4.12558E1,4.5296192E1,4.739278E1,5.0710526E1,2.1679901E1,2.0600054E1,3.1375153E1,0E0,9.465855E0,5.8583908E1,1.0403113E2,7.168428E1,5.604667E1,8.1459595E1,3.75714E1,6.698227E1,5.271035E1,3.9374878E1,0E0,0E0,0E0,0E0,0E0,0E0,0E0,0E0,0E0,0E0,0E0,0E0,0E0,0E0,0E0,0E0,0E0,0E0,0E0,0E0,0E0,0E0,0E0,0E0,0E0,0E0,0E0,0E0,0E0,0E0,0E0,0E0,0E0,0E0,0E0,0E0,0E0,0E0,0E0,0E0,0E0,0E0,0E0,0E0,0E0,0E0,0E0,0E0,0E0,0E0,0E0,0E0,0E0,0E0,0E0,0E0,0E0,0E0,0E0,0E0,0E0,0E0],"parents":[2147483647,0,0,1,1,2,2,3,3,4,4,5,5,6,6,7,7,8,8,9,9,10,10,11,11,12,12,13,13,14,14,15,15,16,16,17,17,18,18,19,19,20,20,21,21,22,22,23,23,24,24,25,25,26,26,27,27,28,28,29,29,30,30,31,31,32,32,33,33,34,34,35,35,36,36,37,37,38,38,39,39,40,40,41,41,42,42,43,43,44,44,45,45,46,46,47,47,48,48,49,49,50,50,51,51,53,53,54,54,55,55,56,56,57,57,58,58,59,59,60,60,61,61,62,62],"right_children":[2,4,6,8,10,12,14,16,18,20,22,24,26,28,30,32,34,36,38,40,42,44,46,48,50,52,54,56,58,60,62,64,66,68,70,72,74,76,78,80,82,84,86,88,90,92,94,96,98,100,102,104,-1,106,108,110,112,114,116,118,120,122,124,-1,-1,-1,-1,-1,-1,-1,-1,-1,-1,-1,-1,-1,-1,-1,-1,-1,-1,-1,-1,-1,-1,-1,-1,-1,-1,-1,-1,-1,-1,-1,-1,-1,-1,-1,-1,-1,-1,-1,-1,-1,-1,-1,-1,-1,-1,-1,-1,-1,-1,-1,-1,-1,-1,-1,-1,-1,-1,-1,-1,-1,-1],"split_conditions":[1.5586358E-1,0E0,-6.373405E-1,7.90253E1,5.640074E-1,5.9665334E-3,1.2909944E-1,-2.95E-1,3.6038065E-1,-1.0368352E0,1.44E0,8.854999E-1,-8.0949616E-1,2.4867256E-3,7.85438E1,1.2909944E-1,6.575389E-4,1.5147424E0,7.34E1,2.5881904E-1,-3.1628802E-1,1.1685193E-2,-8.57323E-1,2.444718E-1,1.2893284E-3,6.699893E-3,0E0,1.07381344E-1,2.2940197E-4,-9.899325E-1,2.650247E-1,-9.916316E-1,5.6308553E-2,1.783E0,-2.82E3,2.7884614E-1,7.6110486E-4,7.8279763E-1,5.670821E-2,2.6842758E-1,2.8180215E-4,2.04E0,-1.5481946E-1,-1.6253152E0,2.54E0,5.068241E-1,8.9378475E-4,6.6334955E-2,4.7957622E-3,8.870056E-1,4.9469183E-4,5.999603E-3,5.391823E-2,1.0509101E-1,9.40625E-3,1.439E5,9.587178E-1,2.5431757E-4,-5.9299096E-3,-2.6647217E0,0E0,2.8848243E-1,1.1339742E0,4.9019093E-3,-1.4298459E-2,1.7057072E-2,-1.0540566E-2,-6.822337E-2,-1.4475514E-2,2.9060123E-2,-6.2491592E-2,5.0533723E-2,-4.921797E-2,3.7244443E-2,-4.9467694E-2,2.8367216E-2,-2.2604087E-2,2.7420256E-2,-6.838307E-2,1.8306835E-2,-2.0671721E-5,-1.080409E-2,8.587803E-3,7.874306E-3,-5.86993E-3,7.342525E-3,-1.889528E-3,2.7186533E-2,-1.825698E-4,-1.9278156E-2,4.4010244E-3,5.187751E-2,1.3015303E-2,-1.4981574E-3,3.118445E-2,1.3410369E-2,1.4264224E-3,4.1781362E-2,-7.0479843E-3,6.931555E-2,2.2459658E-2,4.2972844E-2,-7.186531E-2,-7.2931657E-3,-5.1690478E-2,1.0604106E-2,8.793993E-2,-2.3511283E-3,-5.209309E-2,2.940632E-3,-1.0696812E-2,-2.6449652E-3,2.122054E-2,-2.6930341E-2,1.9602692E-2,7.1387873E-3,-1.292028E-2,2.3211034E-2,-6.4135425E-2,2.2140944E-3,2.4080673E-2,2.5273597E-2,-1.2355357E-2,-4.2119734E-2,6.3716285E-3],"split_indices":[229,1002,615,371,615,41,1002,586,682,36,546,550,320,47,371,667,98,732,316,169,229,50,249,72,99,665,902,176,77,175,822,822,110,566,149,1068,35,122,63,249,80,623,36,435,321,39,65,75,44,122,79,119,0,135,16,401,175,80,102,600,667,175,817,0,0,0,0,0,0,0,0,0,0,0,0,0,0,0,0,0,0,0,0,0,0,0,0,0,0,0,0,0,0,0,0,0,0,0,0,0,0,0,0,0,0,0,0,0,0,0,0,0,0,0,0,0,0,0,0,0,0,0,0,0,0],"split_type":[0,0,0,0,0,0,0,0,0,0,0,0,0,0,0,0,0,0,0,0,0,0,0,0,0,0,0,0,0,0,0,0,0,0,0,0,0,0,0,0,0,0,0,0,0,0,0,0,0,0,0,0,0,0,0,0,0,0,0,0,0,0,0,0,0,0,0,0,0,0,0,0,0,0,0,0,0,0,0,0,0,0,0,0,0,0,0,0,0,0,0,0,0,0,0,0,0,0,0,0,0,0,0,0,0,0,0,0,0,0,0,0,0,0,0,0,0,0,0,0,0,0,0,0,0],"sum_hessian":[1.2475591E5,7.558693E4,4.9168973E4,5.064687E3,7.052224E4,1.1468955E4,3.7700016E4,4.4643154E3,6.003716E2,5.4571965E4,1.595028E4,1.0742271E4,7.2668335E2,3.546943E4,2.2305852E3,3.330227E3,1.1340885E3,3.86411E2,2.1396056E2,1.081859E4,4.3753375E4,1.5195304E4,7.5497705E2,1.0608777E4,1.3349469E2,2.0822537E2,5.1845795E2,1.8508168E4,1.6961262E4,1.6051213E3,6.254639E2,2.3863179E3,9.439092E2,1.0478501E3,8.623842E1,3.4541724E2,4.0993755E1,1.7097862E2,4.2981934E1,6.557727E3,4.260863E3,2.4492463E4,1.9260914E4,1.375211E4,1.4431931E3,2.7599493E2,4.7898212E2,1.0374305E4,2.3447234E2,1.18494835E2,1.4999852E1,1.9822606E2,9.999322E0,2.1749664E1,4.9670828E2,1.0729654E4,7.7785146E3,4.3998206E2,1.6521281E4,5.7496536E1,1.5476249E3,3.7498514E2,2.5047882E2,6.6470264E2,1.7216152E3,6.16693E2,3.2721616E2,3.77447E1,1.01010535E3,6.749234E0,7.948919E1,5.998747E0,3.394185E2,2.574596E1,1.5247796E1,1.10988464E2,5.9990154E1,7.2480183E0,3.5733913E1,5.6997627E3,8.579642E2,3.9998416E2,3.860879E3,2.3293232E4,1.1992294E3,5.557119E3,1.3703794E4,2.7998602E2,1.3472124E4,1.1684584E3,2.7473474E2,1.2799724E2,1.479977E2,3.2224213E2,1.5674E2,9.029633E2,9.471342E3,1.542347E2,8.023765E1,8.0746155E1,3.7748684E1,5.2499557E0,9.749897E0,5.5993103E1,1.4223296E2,5.7498674E0,1.5999797E1,4.289686E2,6.77397E1,1.6519513E3,9.077703E3,7.4510234E3,3.2749112E2,7.774613E1,3.6223593E2,5.21736E2,1.5999545E4,1.6748644E1,4.0747894E1,5.367238E2,1.010901E3,1.6624545E2,2.0873967E2,1.9798457E2,5.249424E1],"tree_param":{"num_deleted":"0","num_feature":"1115","num_nodes":"125","size_leaf_vector":"1"}},{"base_weights":[-2.792074E-4,6.564879E-2,-1.0156032E-1,-2.0255709E-1,8.4870815E-2,-1.2566319E-1,1.601646E-1,-9.525859E-2,-3.5804987E-1,1.8201038E-1,5.9774008E-2,-1.0676706E-1,-3.136819E-1,9.953484E-1,1.3271332E-1,-1.8019044E-1,2.609584E-1,-5.40268E-1,-1.0214066E-1,2.2138958E-1,-6.379723E-2,9.783918E-2,-1.9065222E-2,1.8257542E-1,-1.1921889E-1,-1.4489049E-1,-4.3523565E-1,1.150823E0,-5.0120074E-2,-5.1677052E-2,2.3020281E-1,-7.010416E-2,-4.592869E-1,5.0663924E-1,-1.03115976E-1,-6.420427E-1,-5.1353995E-2,-1.5794447E-2,-8.700194E-1,2.4810521E-1,-3.227387E-2,1.0604494E-1,-3.2785615E-1,8.103968E-2,2.731247E-1,-1.4191261E-1,5.4070275E-2,4.2375976E-1,-5.034645E-4,-2.7099606E-1,-1.0063301E-1,-2.6574284E-1,1.7229404E-1,1.4536579E-1,-4.703213E-1,-2.7452603E-2,1.2323287E0,-2.4161056E-2,-1.3980687E0,6.169804E-1,1.7074844E-1,1.5125684E-2,-8.556749E-3,-3.9262287E-2,-9.932502E-3,1.1718173E-3,3.95603E-2,-2.0045614E-2,4.183163E-2,-1.9063195E-3,-3.71129E-2,1.5340422E-2,-4.294475E-2,-7.814906E-3,2.5737751E-2,2.057903E-2,-5.948907E-2,6.2392736E-3,1.4804636E-2,-2.6089624E-2,3.980587E-3,2.2833945E-2,5.0625782E-5,5.597012E-2,-1.7910099E-2,5.174866E-3,-1.6784475E-3,1.5650094E-2,-1.9813627E-2,-7.984223E-3,2.9370997E-2,1.6296447E-3,3.202181E-2,-4.793845E-2,2.4051258E-2,-8.680306E-3,2.0248214E-2,-1.6882224E-2,6.058777E-3,2.2061951E-3,-6.2143058E-3,-4.7278535E-3,-2.5384203E-2,5.2979734E-2,2.527478E-3,-4.543166E-2,2.6069267E-2,-1.5722748E-2,-3.00775E-2,9.433836E-3,6.620436E-2,-2.9212853E-2,2.4715366E-3,-0E0,-8.706032E-2,-5.6617673E-2,3.4140933E-2,9.632439E-3,-5.982265E-2],"categories":[],"categories_nodes":[],"categories_segments":[],"categories_sizes":[],"default_left":[0,0,0,0,0,0,0,0,0,0,0,0,0,0,0,0,0,0,0,0,0,0,0,0,0,0,0,0,0,0,0,0,0,0,0,0,0,0,0,0,0,0,0,0,0,0,0,0,0,0,0,0,0,0,0,0,0,0,0,0,0,0,0,0,0,0,0,0,0,0,0,0,0,0,0,0,0,0,0,0,0,0,0,0,0,0,0,0,0,0,0,0,0,0,0,0,0,0,0,0,0,0,0,0,0,0,0,0,0,0,0,0,0,0,0,0,0,0,0],"id":2,"left_children":[1,3,5,7,9,11,13,15,17,19,21,23,25,27,29,31,33,35,37,39,41,43,45,47,49,51,53,55,-1,57,59,61,63,65,67,69,71,73,75,77,79,81,83,85,87,89,91,93,95,97,99,101,103,105,107,-1,109,111,113,115,117,-1,-1,-1,-1,-1,-1,-1,-1,-1,-1,-1,-1,-1,-1,-1,-1,-1,-1,-1,-1,-1,-1,-1,-1,-1,-1,-1,-1,-1,-1,-1,-1,-1,-1,-1,-1,-1,-1,-1,-1,-1,-1,-1,-1,-1,-1,-1,-1,-1,-1,-1,-1,-1,-1,-1,-1,-1,-1],"loss_changes":[8.3264044E2,3.8940015E2,3.1017722E2,8.4194275E1,1.7178857E2,1.598789E2,9.481361E1,9.05134E1,9.601788E1,1.4008826E2,1.6810364E2,1.4741574E2,8.421561E1,4.2065643E1,7.221274E1,7.413212E1,5.1606525E1,5.979483E1,5.6846027E1,8.454907E1,8.9680756E1,1.11178986E2,1.6387631E2,7.458072E1,1.1058618E2,6.609158E1,4.8762573E1,1.77417E1,0E0,5.1291557E1,6.0231186E1,6.5305954E1,5.77576E1,4.7229515E1,6.5418144E1,6.0178253E1,6.0669365E1,5.7683743E1,3.6091133E1,6.669763E1,6.520203E1,4.4761402E1,3.469967E1,8.8739044E1,8.827988E1,8.827701E1,1.4388591E2,5.8103638E1,6.745502E1,1.1188229E2,1.19673706E2,5.1582397E1,5.1219276E1,5.4624474E1,4.5803925E1,0E0,1.0844269E1,5.6242783E1,1.3200031E1,4.0974228E1,6.836278E1,0E0,0E0,0E0,0E0,0E0,0E0,0E0,0E0,0E0,0E0,0E0,0E0,0E0,0E0,0E0,0E0,0E0,0E0,0E0,0E0,0E0,0E0,0E0,0E0,0E0,0E0,0E0,0E0,0E0,0E0,0E0,0E0,0E0,0E0,0E0,0E0,0E0,0E0,0E0,0E0,0E0,0E0,0E0,0E0,0E0,0E0,0E0,0E0,0E0,0E0,0E0,0E0,0E0,0E0,0E0,0E0,0E0,0E0],"parents":[2147483647,0,0,1,1,2,2,3,3,4,4,5,5,6,6,7,7,8,8,9,9,10,10,11,11,12,12,13,13,14,14,15,15,16,16,17,17,18,18,19,19,20,20,21,21,22,22,23,23,24,24,25,25,26,26,27,27,29,29,30,30,31,31,32,32,33,33,34,34,35,35,36,36,37,37,38,38,39,39,40,40,41,41,42,42,43,43,44,44,45,45,46,46,47,47,48,48,49,49,50,50,51,51,52,52,53,53,54,54,56,56,57,57,58,58,59,59,60,60],"right_children":[2,4,6,8,10,12,14,16,18,20,22,24,26,28,30,32,34,36,38,40,42,44,46,48,50,52,54,56,-1,58,60,62,64,66,68,70,72,74,76,78,80,82,84,86,88,90,92,94,96,98,100,102,104,106,108,-1,110,112,114,116,118,-1,-1,-1,-1,-1,-1,-1,-1,-1,-1,-1,-1,-1,-1,-1,-1,-1,-1,-1,-1,-1,-1,-1,-1,-1,-1,-1,-1,-1,-1,-1,-1,-1,-1,-1,-1,-1,-1,-1,-1,-1,-1,-1,-1,-1,-1,-1,-1,-1,-1,-1,-1,-1,-1,-1,-1,-1,-1],"split_conditions":[1.5586358E-1,0E0,1.2909944E-1,1.95E0,-9.4876125E-2,2.989882E-1,-6.4458214E-3,2.92E0,-1.8414137E-1,8.926508E-1,0E0,5.6643218E-2,1.224E2,7.611364E-3,1.37E0,2.083842E-4,5.9833753E-1,1.351361E0,9E-1,2.849938E-1,5.8E-1,3E0,2.5881904E-1,1.2615851E0,1.213E1,-2.650247E-1,-1.6938925E-2,-1.5553871E0,-5.0120074E-2,1.943779E-2,-3.2683593E-4,4.471174E6,1.464E3,-5.979764E-1,9.916316E-1,3.2326E4,4.5330995E-3,1.66E0,-3.61866E-3,-5.0888926E-1,9.47828E-2,3.1257E4,2.28E2,1.21E0,7.3106503E-1,1.857E3,3.12392E2,1.3660152E-4,1.6927807E0,9.232877E-1,-7.5031626E-1,6.7504895E-1,1.156E1,2.2E0,3.8814226E-1,-2.7452603E-2,2.7176252E-4,3.171E5,-4.7343904E-3,-2.4068582E0,7.5E0,1.5125684E-2,-8.556749E-3,-3.9262287E-2,-9.932502E-3,1.1718173E-3,3.95603E-2,-2.0045614E-2,4.183163E-2,-1.9063195E-3,-3.71129E-2,1.5340422E-2,-4.294475E-2,-7.814906E-3,2.5737751E-2,2.057903E-2,-5.948907E-2,6.2392736E-3,1.4804636E-2,-2.6089624E-2,3.980587E-3,2.2833945E-2,5.0625782E-5,5.597012E-2,-1.7910099E-2,5.174866E-3,-1.6784475E-3,1.5650094E-2,-1.9813627E-2,-7.984223E-3,2.9370997E-2,1.6296447E-3,3.202181E-2,-4.793845E-2,2.4051258E-2,-8.680306E-3,2.0248214E-2,-1.6882224E-2,6.058777E-3,2.2061951E-3,-6.2143058E-3,-4.7278535E-3,-2.5384203E-2,5.2979734E-2,2.527478E-3,-4.543166E-2,2.6069267E-2,-1.5722748E-2,-3.00775E-2,9.433836E-3,6.620436E-2,-2.9212853E-2,2.4715366E-3,-0E0,-8.706032E-2,-5.6617673E-2,3.4140933E-2,9.632439E-3,-5.982265E-2],"split_indices":[229,1002,1002,215,107,712,18,220,682,204,229,72,1069,660,546,97,116,902,183,255,225,1073,170,224,596,667,910,1067,0,50,97,466,391,742,887,1059,910,251,18,320,78,1059,1059,250,315,391,301,71,320,184,204,942,596,346,114,0,62,506,43,51,496,0,0,0,0,0,0,0,0,0,0,0,0,0,0,0,0,0,0,0,0,0,0,0,0,0,0,0,0,0,0,0,0,0,0,0,0,0,0,0,0,0,0,0,0,0,0,0,0,0,0,0,0,0,0,0,0,0,0],"split_type":[0,0,0,0,0,0,0,0,0,0,0,0,0,0,0,0,0,0,0,0,0,0,0,0,0,0,0,0,0,0,0,0,0,0,0,0,0,0,0,0,0,0,0,0,0,0,0,0,0,0,0,0,0,0,0,0,0,0,0,0,0,0,0,0,0,0,0,0,0,0,0,0,0,0,0,0,0,0,0,0,0,0,0,0,0,0,0,0,0,0,0,0,0,0,0,0,0,0,0,0,0,0,0,0,0,0,0,0,0,0,0,0,0,0,0,0,0,0,0],"sum_hessian":[1.2469539E5,7.552952E4,4.9165875E4,5.050127E3,7.047939E4,4.502071E4,4.145164E3,2.989479E3,2.0606477E3,1.4468287E4,5.6011105E4,4.091118E4,4.1095303E3,1.3067189E2,4.0144922E3,2.4145576E3,5.749215E2,1.2027426E3,8.579052E2,1.2470912E4,1.9973752E3,3.777406E4,1.8237049E4,1.687074E3,3.9224105E4,1.7217278E3,2.3878025E3,1.2167643E2,8.995453E0,1.3882389E3,2.6262534E3,1.7327173E3,6.818403E2,3.4320593E2,2.3171555E2,9.9508344E2,2.0765906E2,7.7222144E2,8.5683754E1,1.128301E4,1.1879022E3,1.215675E3,7.8170013E2,3.4472246E4,3.3018125E3,6.8057314E3,1.1431318E4,7.2767786E2,9.593961E2,4.277115E3,3.494699E4,1.2470568E3,4.74671E2,1.3573012E2,2.2520725E3,5.2486086E0,1.1642782E2,1.3615062E3,2.6732677E1,3.4843924E2,2.2778142E3,3.6895773E2,1.3637595E3,3.0189124E2,3.7994904E2,1.2773754E2,2.154684E2,1.7647295E2,5.52426E1,1.419634E2,8.5312006E2,1.4419957E2,6.3459488E1,6.112421E2,1.6097935E2,1.698966E1,6.869409E1,3.162249E3,8.1207607E3,2.2048276E2,9.674195E2,2.7922546E2,9.364496E2,1.5249192E1,7.664509E2,2.8824947E4,5.6472974E3,3.1168198E3,1.8499265E2,6.644736E3,1.6099588E2,1.102859E4,4.0272855E2,2.8246588E1,6.994312E2,6.729277E2,2.8646844E2,3.6561562E3,6.209589E2,4.9075737E3,3.0039416E4,7.313755E2,5.1568134E2,5.6242012E1,4.18429E2,3.5247486E1,1.0048263E2,1.0313037E3,1.2207687E3,9.744226E0,1.0668359E2,1.5746715E2,1.2040391E3,5.4996104E0,2.1233067E1,1.1995617E1,3.364436E2,2.24282E3,3.49941E1],"tree_param":{"num_deleted":"0","num_feature":"1115","num_nodes":"119","size_leaf_vector":"1"}},{"base_weights":[6.811678E-4,5.5344507E-2,-1.1022784E-1,1.1672149E-1,-4.6002097E-2,-2.5649626E-2,-1.6655868E-1,2.2237621E-1,7.3719025E-2,1.4635026E-1,-8.144442E-2,2.1671139E-2,-1.926251E-1,-1.7656626E-1,3.4136254E-1,-7.364091E-4,2.4854693E-1,1.5739298E-1,1.9171424E-2,1.8692306E-1,-3.0164427E-1,-9.7624725E-3,-1.436431E-1,-3.751242E-3,2.9692504E-1,-2.0788397E-1,1.3674295E0,-1.6469128E-1,-4.4165334E-1,1.3676193E0,2.6066113E-1,1.2710464E-1,-3.663695E-1,3.3972484E-1,1.7957103E-1,1.8667492E-1,-5.5437114E-2,8.0057144E-2,-6.96392E-2,2.085668E-1,-5.04442E-1,5.268235E-1,-4.6962053E-1,-3.7188385E-2,2.5203648E-1,-1.1729092E-1,-5.057396E-1,3.3014727E-1,-2.7770458E-2,2.6332158E-1,1.574496E0,-1.5681621E-1,-5.142654E-1,1.6431255E0,2.7579173E-2,-2.2527346E-1,-1.0647514E-1,-3.471372E-1,-1.0636233E0,1.6529734E0,1.4415706E-2,3.517329E-1,-7.2562337E-1,1.162615E-2,-2.4438268E-2,5.7685107E-2,-2.374039E-2,6.5858506E-2,1.6456004E-2,6.213631E-3,1.5871625E-2,7.9863705E-3,2.1615354E-2,1.4054838E-2,-1.0918104E-2,1.919084E-2,3.115123E-3,3.4742423E-3,-6.3231136E-3,-1.0952785E-3,1.3759206E-2,2.810491E-2,-4.3760102E-2,-4.9645096E-2,4.5385264E-2,1.5406287E-2,-3.0838892E-2,1.563645E-2,-2.8748934E-3,1.0894408E-2,8.5789576E-2,2.392791E-3,-7.680935E-3,-2.8251335E-2,2.5911028E-2,5.3619802E-2,1.2443693E-2,-7.229169E-3,1.7354971E-3,1.990306E-2,-3.5201106E-3,8.694614E-2,4.4535022E-2,-7.181114E-3,-7.360002E-2,-3.0730128E-2,2.4036525E-2,4.319921E-2,9.154765E-2,-7.545163E-3,-1.4507494E-2,-1.0096117E-2,-2.2400874E-3,6.8961225E-2,-1.9248234E-2,-7.7418745E-2,-3.0573636E-2,9.0588324E-2,4.0978324E-2,-4.148247E-2,2.1124188E-2,-4.9715128E-2,3.2063805E-2],"categories":[],"categories_nodes":[],"categories_segments":[],"categories_sizes":[],"default_left":[0,0,0,0,0,0,0,0,0,0,0,0,0,0,0,0,0,0,0,0,0,0,0,0,0,0,0,0,0,0,0,0,0,0,0,0,0,0,0,0,0,0,0,0,0,0,0,0,0,0,0,0,0,0,0,0,0,0,0,0,0,0,0,0,0,0,0,0,0,0,0,0,0,0,0,0,0,0,0,0,0,0,0,0,0,0,0,0,0,0,0,0,0,0,0,0,0,0,0,0,0,0,0,0,0,0,0,0,0,0,0,0,0,0,0,0,0,0,0,0,0,0,0],"id":3,"left_children":[1,3,5,7,9,11,13,15,17,19,21,23,25,27,29,31,33,35,37,39,41,43,45,47,49,51,53,55,57,59,61,63,65,67,69,71,73,75,77,79,81,83,85,87,89,91,93,95,97,99,101,103,105,107,-1,109,111,113,115,117,-1,119,121,-1,-1,-1,-1,-1,-1,-1,-1,-1,-1,-1,-1,-1,-1,-1,-1,-1,-1,-1,-1,-1,-1,-1,-1,-1,-1,-1,-1,-1,-1,-1,-1,-1,-1,-1,-1,-1,-1,-1,-1,-1,-1,-1,-1,-1,-1,-1,-1,-1,-1,-1,-1,-1,-1,-1,-1,-1,-1,-1,-1],"loss_changes":[7.551942E2,5.1904626E2,1.9590857E2,2.360722E2,2.1456953E2,1.2993724E2,1.2551111E2,8.779791E1,1.6857309E2,8.905031E1,1.1847824E2,8.968256E1,8.661037E1,7.606879E1,3.899327E1,7.386482E1,8.450287E1,9.0864655E1,1.2092901E2,6.727673E1,5.6856857E1,8.865559E1,1.356525E2,9.404711E1,4.5921135E1,5.6132736E1,6.801079E0,8.166492E1,6.0448166E1,9.941109E0,4.006608E1,7.606709E1,6.7971275E1,5.9448303E1,5.833191E1,8.469058E1,9.6735405E1,7.148982E1,7.1918175E1,6.690262E1,5.4490326E1,4.0804626E1,3.9005447E1,7.943999E1,5.795479E1,7.9602036E1,5.8864075E1,4.7072357E1,7.98859E1,4.7594124E1,1.279419E0,5.3157288E1,5.1542587E1,1.916069E0,0E0,5.468982E1,6.9540375E1,5.932161E1,2.8682327E1,1.8207092E0,0E0,3.4319798E1,1.4531406E1,0E0,0E0,0E0,0E0,0E0,0E0,0E0,0E0,0E0,0E0,0E0,0E0,0E0,0E0,0E0,0E0,0E0,0E0,0E0,0E0,0E0,0E0,0E0,0E0,0E0,0E0,0E0,0E0,0E0,0E0,0E0,0E0,0E0,0E0,0E0,0E0,0E0,0E0,0E0,0E0,0E0,0E0,0E0,0E0,0E0,0E0,0E0,0E0,0E0,0E0,0E0,0E0,0E0,0E0,0E0,0E0,0E0,0E0,0E0,0E0],"parents":[2147483647,0,0,1,1,2,2,3,3,4,4,5,5,6,6,7,7,8,8,9,9,10,10,11,11,12,12,13,13,14,14,15,15,16,16,17,17,18,18,19,19,20,20,21,21,22,22,23,23,24,24,25,25,26,26,27,27,28,28,29,29,30,30,31,31,32,32,33,33,34,34,35,35,36,36,37,37,38,38,39,39,40,40,41,41,42,42,43,43,44,44,45,45,46,46,47,47,48,48,49,49,50,50,51,51,52,52,53,53,55,55,56,56,57,57,58,58,59,59,61,61,62,62],"right_children":[2,4,6,8,10,12,14,16,18,20,22,24,26,28,30,32,34,36,38,40,42,44,46,48,50,52,54,56,58,60,62,64,66,68,70,72,74,76,78,80,82,84,86,88,90,92,94,96,98,100,102,104,106,108,-1,110,112,114,116,118,-1,120,122,-1,-1,-1,-1,-1,-1,-1,-1,-1,-1,-1,-1,-1,-1,-1,-1,-1,-1,-1,-1,-1,-1,-1,-1,-1,-1,-1,-1,-1,-1,-1,-1,-1,-1,-1,-1,-1,-1,-1,-1,-1,-1,-1,-1,-1,-1,-1,-1,-1,-1,-1,-1,-1,-1,-1,-1,-1,-1,-1,-1],"split_conditions":[5.4569465E-1,1.2674789E-1,-5.3958106E-1,-6.476257E-1,-9.515689E-1,7.84843E1,2.96831E-3,-9.070881E-1,-4.3993375E-1,8.5986505E-4,2.4867256E-3,6.250668E-1,1.4838572E-3,1.2599587E-3,-1.71333E-3,1.27E0,-4.4233473E-3,1.2981573E-2,-1.97752E-4,5.52E0,1.0534E2,9.242907E-1,1.304695E6,-1.0816697E-2,1.7105097E0,1.4424881E-1,1.8205624E-3,-4.9E-1,3.6038065E-1,5.627308E-1,1.2674789E-1,2.93E0,3.9476994E-4,7.4119315E-2,9.68E1,2.77139E3,9.210239E3,-3.2627166E-3,-2.6842758E-1,-8.923525E-1,1.6616958E-3,9.668182E-1,0E0,2.7695033E-4,1.3276E2,-3.086626E-1,1.09629E0,-1.8459352E0,2.369E0,1.9E0,1.804E3,2.2944142E-3,3.985315E-4,1.4704598E-2,2.7579173E-2,6.128237E-1,2.21E5,3.2946546E-4,1.0720389E0,1.450305E-1,1.4415706E-2,1.2377692E0,2.5281746E0,1.162615E-2,-2.4438268E-2,5.7685107E-2,-2.374039E-2,6.5858506E-2,1.6456004E-2,6.213631E-3,1.5871625E-2,7.9863705E-3,2.1615354E-2,1.4054838E-2,-1.0918104E-2,1.919084E-2,3.115123E-3,3.4742423E-3,-6.3231136E-3,-1.0952785E-3,1.3759206E-2,2.810491E-2,-4.3760102E-2,-4.9645096E-2,4.5385264E-2,1.5406287E-2,-3.0838892E-2,1.563645E-2,-2.8748934E-3,1.0894408E-2,8.5789576E-2,2.392791E-3,-7.680935E-3,-2.8251335E-2,2.5911028E-2,5.3619802E-2,1.2443693E-2,-7.229169E-3,1.7354971E-3,1.990306E-2,-3.5201106E-3,8.694614E-2,4.4535022E-2,-7.181114E-3,-7.360002E-2,-3.0730128E-2,2.4036525E-2,4.319921E-2,9.154765E-2,-7.545163E-3,-1.4507494E-2,-1.0096117E-2,-2.2400874E-3,6.8961225E-2,-1.9248234E-2,-7.7418745E-2,-3.0573636E-2,9.0588324E-2,4.0978324E-2,-4.148247E-2,2.1124188E-2,-4.9715128E-2,3.2063805E-2],"split_indices":[605,219,615,36,615,371,1005,610,615,64,47,595,70,99,99,250,46,22,31,200,611,175,511,22,490,1040,26,591,952,741,535,235,83,75,381,476,551,101,300,1040,47,290,692,80,611,255,652,1081,566,271,149,99,745,123,0,255,431,80,199,144,0,331,992,0,0,0,0,0,0,0,0,0,0,0,0,0,0,0,0,0,0,0,0,0,0,0,0,0,0,0,0,0,0,0,0,0,0,0,0,0,0,0,0,0,0,0,0,0,0,0,0,0,0,0,0,0,0,0,0,0,0,0,0],"split_type":[0,0,0,0,0,0,0,0,0,0,0,0,0,0,0,0,0,0,0,0,0,0,0,0,0,0,0,0,0,0,0,0,0,0,0,0,0,0,0,0,0,0,0,0,0,0,0,0,0,0,0,0,0,0,0,0,0,0,0,0,0,0,0,0,0,0,0,0,0,0,0,0,0,0,0,0,0,0,0,0,0,0,0,0,0,0,0,0,0,0,0,0,0,0,0,0,0,0,0,0,0,0,0,0,0,0,0,0,0,0,0,0,0,0,0,0,0,0,0,0,0,0,0],"sum_hessian":[1.245638E5,8.344028E4,4.112352E4,5.1968336E4,3.1471947E4,1.644113E4,2.4682389E4,1.5031141E4,3.6937195E4,4.8957593E3,2.6576188E4,1.2810822E4,3.6303088E3,2.42063E4,4.760879E2,1.5777274E3,1.3453413E4,1.4575387E4,2.2361809E4,4.489933E3,4.0582657E2,1.2348133E4,1.4228055E4,1.17282295E4,1.0825931E3,3.5960667E3,3.4242203E1,2.3170348E4,1.0359519E3,3.345569E1,4.426322E2,1.1692769E3,4.0845062E2,5.791873E3,7.6615396E3,1.2813105E4,1.7622811E3,1.3267356E4,9.094451E3,4.354456E3,1.3547676E2,6.795201E1,3.3787454E2,1.1178337E4,1.1697964E3,1.3264321E4,9.637331E2,7.859257E2,1.0942304E4,1.0560994E3,2.6493784E1,3.0838826E3,5.121842E2,2.4743973E1,9.498232E0,1.1352192E4,1.1818156E4,9.0078516E2,1.3516667E2,2.5966352E1,7.4893336E0,4.0589713E2,3.6735065E1,9.990538E2,1.7022305E2,2.649442E1,3.8195618E2,6.0740665E1,5.7311323E3,5.4700444E3,2.1914949E3,1.1548242E4,1.2648627E3,5.7442456E2,1.1878566E3,7.312013E2,1.2536155E4,2.6367424E3,6.457709E3,9.76227E2,3.3782292E3,3.4744328E1,1.00732445E2,1.3242958E1,5.4709053E1,5.3475563E1,2.84399E2,6.121485E2,1.0566188E4,1.1443174E3,2.5478916E1,2.3911296E3,1.0873191E4,9.115032E2,5.2229946E1,7.623805E1,7.096877E2,3.8132898E3,7.1290137E3,7.5241986E2,3.0367953E2,1.9996181E1,6.497604E0,3.0544258E3,2.945677E1,4.657046E2,4.647964E1,5.997516E0,1.8746456E1,5.2913696E3,6.0608228E3,4.6373647E3,7.180791E3,1.8497467E1,8.822877E2,6.3954887E1,7.121178E1,2.072383E1,5.242524E0,2.2248962E1,3.8364816E2,3.0989485E1,5.7455807E0],"tree_param":{"num_deleted":"0","num_feature":"1115","num_nodes":"123","size_leaf_vector":"1"}},{"base_weights":[-1.3377789E-3,5.8463026E-2,-8.90656E-2,1.012986E-1,-7.742427E-2,3.2158993E-2,-1.3891894E-1,1.9722597E-1,6.1630253E-2,-2.3349892E-1,-4.5490395E-2,-3.075484E-3,1.928433E-1,1.5347754E-2,-1.6037926E-1,1.06176175E-1,2.4758355E-1,1.2901133E-1,-2.8178833E-2,-9.6401E-2,-4.1698688E-1,-2.800419E-2,-3.462274E-1,3.8783077E-2,-2.3279071E-1,-3.205739E-1,2.4772145E-1,-2.2914614E-1,9.159591E-2,-1.18228E-2,-1.8589161E-1,8.216787E-2,5.5669755E-1,4.6372736E-1,2.0924473E-1,2.5622098E-2,1.7023012E-1,4.598497E-1,-4.3932613E-2,-1.7709535E-1,4.333656E-1,-6.354662E-1,-1.4451918E-1,-1.699774E-2,-5.489E-1,5.161311E-1,-4.175028E-1,1.02676805E-2,2.9795316E-1,-6.028198E-1,-1.3440879E-1,-5.760709E-1,7.2040856E-2,3.2192418E-1,-6.954317E-2,9.7906524E-1,-2.6885682E-1,1.1117508E-1,-9.916214E-1,2.764491E-1,-7.750212E-2,-3.9620437E-2,-2.1167548E-1,-1.3342202E-2,5.45988E-3,3.287733E-2,-2.2591619E-2,3.776011E-2,1.5403725E-2,3.0908359E-3,1.2329217E-2,9.26639E-3,-2.0262084E-3,9.4296E-3,-1.0422776E-2,-4.812303E-3,3.2736506E-2,-1.2162895E-2,-1.7242541E-4,-1.5871018E-2,7.807669E-3,3.473259E-2,-1.7757878E-2,-3.469806E-2,3.8587227E-2,2.3009008E-2,-1.6297208E-2,-1.2461056E-3,2.8414387E-2,-3.5744533E-2,1.7542882E-2,3.796854E-2,-8.3515E-2,-2.3243282E-2,4.5731347E-2,2.9347793E-3,-7.857658E-3,3.0275702E-2,9.429756E-3,-4.4074688E-2,2.5188974E-3,6.5819793E-3,-1.6087377E-2,-4.887705E-2,-1.0152287E-2,1.997712E-2,-3.7017368E-2,5.190136E-3,2.3350028E-2,-3.6731966E-2,6.9733174E-3,-2.3420347E-2,6.934448E-2,-2.2306018E-2,-0E0,-3.481862E-2,6.8580895E-3,3.0071495E-2,-6.1802782E-2,2.7221132E-2,3.5988756E-3,-2.6014845E-3,-3.656454E-2,2.3761613E-2,-4.2297225E-3,-1.0906755E-2,2.133832E-2],"categories":[],"categories_nodes":[],"categories_segments":[],"categories_sizes":[],"default_left":[0,0,0,0,0,0,0,0,0,0,0,0,0,0,0,0,0,0,0,0,0,0,0,0,0,0,0,0,0,0,0,0,0,0,0,0,0,0,0,0,0,0,0,0,0,0,0,0,0,0,0,0,0,0,0,0,0,0,0,0,0,0,0,0,0,0,0,0,0,0,0,0,0,0,0,0,0,0,0,0,0,0,0,0,0,0,0,0,0,0,0,0,0,0,0,0,0,0,0,0,0,0,0,0,0,0,0,0,0,0,0,0,0,0,0,0,0,0,0,0,0,0,0,0,0,0,0],"id":4,"left_children":[1,3,5,7,9,11,13,15,17,19,21,23,25,27,29,31,33,35,37,39,41,43,45,47,49,51,53,55,57,59,61,63,65,67,69,71,73,75,77,79,81,83,85,87,89,91,93,95,97,99,101,103,105,107,109,111,113,115,117,119,121,123,125,-1,-1,-1,-1,-1,-1,-1,-1,-1,-1,-1,-1,-1,-1,-1,-1,-1,-1,-1,-1,-1,-1,-1,-1,-1,-1,-1,-1,-1,-1,-1,-1,-1,-1,-1,-1,-1,-1,-1,-1,-1,-1,-1,-1,-1,-1,-1,-1,-1,-1,-1,-1,-1,-1,-1,-1,-1,-1,-1,-1,-1,-1,-1,-1],"loss_changes":[6.542664E2,4.316772E2,3.0552814E2,2.1452673E2,8.85493E1,8.342476E1,1.1861005E2,7.5566284E1,2.41421E2,7.583458E1,7.755606E1,1.1621081E2,7.473412E1,8.156777E1,1.1916681E2,6.345124E1,8.783258E1,9.711047E1,1.3145248E2,7.396892E1,7.6629684E1,7.9897964E1,5.002204E1,7.5501976E1,6.766138E1,2.578689E1,5.6424606E1,5.0091633E1,7.0774124E1,8.730044E1,1.0118524E2,5.2658066E1,3.051793E1,7.2187195E1,4.961624E1,6.867446E1,1.1334476E2,5.80589E1,1.3366106E2,7.027657E1,4.739762E1,5.9424194E1,6.3287117E1,6.3315598E1,4.3358658E1,3.4264385E1,4.7654312E1,7.466596E1,3.3868217E1,7.125792E1,7.348256E1,2.2961487E1,2.7323511E1,6.1324142E1,6.3341618E1,2.0357927E1,4.8037033E1,6.8825455E1,2.387399E1,4.677572E1,6.2439392E1,9.317083E1,9.416528E1,0E0,0E0,0E0,0E0,0E0,0E0,0E0,0E0,0E0,0E0,0E0,0E0,0E0,0E0,0E0,0E0,0E0,0E0,0E0,0E0,0E0,0E0,0E0,0E0,0E0,0E0,0E0,0E0,0E0,0E0,0E0,0E0,0E0,0E0,0E0,0E0,0E0,0E0,0E0,0E0,0E0,0E0,0E0,0E0,0E0,0E0,0E0,0E0,0E0,0E0,0E0,0E0,0E0,0E0,0E0,0E0,0E0,0E0,0E0,0E0,0E0,0E0,0E0,0E0],"parents":[2147483647,0,0,1,1,2,2,3,3,4,4,5,5,6,6,7,7,8,8,9,9,10,10,11,11,12,12,13,13,14,14,15,15,16,16,17,17,18,18,19,19,20,20,21,21,22,22,23,23,24,24,25,25,26,26,27,27,28,28,29,29,30,30,31,31,32,32,33,33,34,34,35,35,36,36,37,37,38,38,39,39,40,40,41,41,42,42,43,43,44,44,45,45,46,46,47,47,48,48,49,49,50,50,51,51,52,52,53,53,54,54,55,55,56,56,57,57,58,58,59,59,60,60,61,61,62,62],"right_children":[2,4,6,8,10,12,14,16,18,20,22,24,26,28,30,32,34,36,38,40,42,44,46,48,50,52,54,56,58,60,62,64,66,68,70,72,74,76,78,80,82,84,86,88,90,92,94,96,98,100,102,104,106,108,110,112,114,116,118,120,122,124,126,-1,-1,-1,-1,-1,-1,-1,-1,-1,-1,-1,-1,-1,-1,-1,-1,-1,-1,-1,-1,-1,-1,-1,-1,-1,-1,-1,-1,-1,-1,-1,-1,-1,-1,-1,-1,-1,-1,-1,-1,-1,-1,-1,-1,-1,-1,-1,-1,-1,-1,-1,-1,-1,-1,-1,-1,-1,-1,-1,-1,-1,-1,-1,-1],"split_conditions":[1.9206786E-1,7.438756E-1,-7.567815E-1,-6.476257E-1,0E0,1.4424881E-1,-3.8838666E-3,-2.9302695E-1,-6.299408E-2,2E0,1.17265E5,2.6502472E-1,-9.746794E-1,-3.737845E-1,3.5147264E-4,7.829065E-1,-8.271644E-3,9.6138725E5,-2.332352E0,1.65E3,2.97E0,7.1924203E-3,-4.4347116E-1,9.3985605E-1,1.24E0,9.848965E-3,8.311706E-1,-7.81832E-1,1.39E0,1.45846E5,-2.849938E-1,-9.7601056E-1,5.19E2,2.432443E0,1.248E3,3.5803E4,5.5E0,7.3E0,1.42808E5,1.57E0,1.3719884E-1,1.2526894E0,-7.276587E-1,9.591657E-1,2.3E0,1.7333245E0,3.0670331E-3,6.9901213E-4,-6.521072E-4,8.9696455E-1,-3.1101021E-3,2.8725057E-3,5.03593E5,2.2749591E-1,5.027171E-1,6.0573E-3,4.8410785E-1,3.24E0,-8.270317E-3,2.6733518E-1,1.3389761E0,1.171E1,1.8934614E-3,-1.3342202E-2,5.45988E-3,3.287733E-2,-2.2591619E-2,3.776011E-2,1.5403725E-2,3.0908359E-3,1.2329217E-2,9.26639E-3,-2.0262084E-3,9.4296E-3,-1.0422776E-2,-4.812303E-3,3.2736506E-2,-1.2162895E-2,-1.7242541E-4,-1.5871018E-2,7.807669E-3,3.473259E-2,-1.7757878E-2,-3.469806E-2,3.8587227E-2,2.3009008E-2,-1.6297208E-2,-1.2461056E-3,2.8414387E-2,-3.5744533E-2,1.7542882E-2,3.796854E-2,-8.3515E-2,-2.3243282E-2,4.5731347E-2,2.9347793E-3,-7.857658E-3,3.0275702E-2,9.429756E-3,-4.4074688E-2,2.5188974E-3,6.5819793E-3,-1.6087377E-2,-4.887705E-2,-1.0152287E-2,1.997712E-2,-3.7017368E-2,5.190136E-3,2.3350028E-2,-3.6731966E-2,6.9733174E-3,-2.3420347E-2,6.934448E-2,-2.2306018E-2,-0E0,-3.481862E-2,6.8580895E-3,3.0071495E-2,-6.1802782E-2,2.7221132E-2,3.5988756E-3,-2.6014845E-3,-3.656454E-2,2.3761613E-2,-4.2297225E-3,-1.0906755E-2,2.133832E-2],"split_indices":[219,605,605,36,1002,1040,91,350,229,215,1059,692,1034,350,64,595,46,486,219,386,210,16,782,175,215,890,175,747,256,401,234,175,149,336,391,1059,195,436,401,215,81,1062,1101,565,190,42,15,67,102,947,46,750,1064,747,224,123,204,286,15,127,450,596,1000,0,0,0,0,0,0,0,0,0,0,0,0,0,0,0,0,0,0,0,0,0,0,0,0,0,0,0,0,0,0,0,0,0,0,0,0,0,0,0,0,0,0,0,0,0,0,0,0,0,0,0,0,0,0,0,0,0,0,0,0,0,0,0,0],"split_type":[0,0,0,0,0,0,0,0,0,0,0,0,0,0,0,0,0,0,0,0,0,0,0,0,0,0,0,0,0,0,0,0,0,0,0,0,0,0,0,0,0,0,0,0,0,0,0,0,0,0,0,0,0,0,0,0,0,0,0,0,0,0,0,0,0,0,0,0,0,0,0,0,0,0,0,0,0,0,0,0,0,0,0,0,0,0,0,0,0,0,0,0,0,0,0,0,0,0,0,0,0,0,0,0,0,0,0,0,0,0,0,0,0,0,0,0,0,0,0,0,0,0,0,0,0,0,0],"sum_hessian":[1.2471001E5,7.415826E4,5.0551746E4,5.6385062E4,1.77732E4,1.4730662E4,3.5821086E4,1.6493477E4,3.9891586E4,3.0172334E3,1.4755966E4,1.2081761E4,2.6489016E3,4.3740464E3,3.144704E4,5.875423E3,1.0618054E4,2.279206E4,1.7099525E4,1.7281045E3,1.2891289E3,1.394648E4,8.094855E2,1.0219895E4,1.8618668E3,2.5515094E2,2.3937505E3,1.0390284E3,3.335018E3,4.6098164E3,2.6837223E4,5.5794956E3,2.9592722E2,1.5975878E3,9.020466E3,6.4977583E3,1.6294302E4,5.3363934E2,1.6565885E4,1.5004149E3,2.2768959E2,7.145027E2,5.7462616E2,1.3659091E4,2.873899E2,6.121406E1,7.482714E2,9.208182E3,1.01171216E3,3.8976364E2,1.4721031E3,1.544372E2,1.00713745E2,1.940258E3,4.534925E2,3.223052E1,1.00679785E3,3.27678E3,5.823817E1,8.545212E2,3.7552952E3,4.0227412E3,2.281448E4,4.0014825E2,5.179347E3,2.6943222E2,2.6494997E1,5.5458325E2,1.0430045E3,1.8240201E3,7.196446E3,1.9029423E3,4.594816E3,1.5541485E4,7.5281647E2,1.3847911E2,3.9516025E2,2.7953545E3,1.3770531E4,1.0560703E3,4.4434457E2,1.712048E2,5.64848E1,6.865424E2,2.7960283E1,1.3213277E2,4.424934E2,1.3477739E4,1.8135124E2,2.4289612E2,4.449379E1,5.571429E1,5.4997683E0,7.232818E2,2.4989616E1,7.1431978E3,2.0649841E3,2.6394275E2,7.477694E2,2.730681E2,1.1669554E2,6.081727E2,8.639304E2,7.3472946E1,8.096426E1,7.22276E1,2.848614E1,7.7598065E2,1.1642775E3,1.0794876E2,3.4554373E2,6.9982386E0,2.523228E1,6.063894E2,4.0040848E2,1.0123442E2,3.1755457E3,7.4985123E0,5.073966E1,3.6890076E2,4.8562042E2,3.6156572E3,1.3963802E2,3.2222214E2,3.700519E3,2.2586768E4,2.2771301E2],"tree_param":{"num_deleted":"0","num_feature":"1115","num_nodes":"127","size_leaf_vector":"1"}},{"base_weights":[1.016992E-3,4.870399E-2,-1.0445569E-1,1.0593919E-1,-4.6303574E-2,-2.820331E-2,-1.5520327E-1,1.9901843E-1,6.7250766E-2,1.3149011E-1,-8.294412E-2,6.153537E-1,-3.72892E-2,-1.7729871E-1,3.3728667E-2,2.1503364E-1,-1.3924553E-1,1.3230594E-1,2.7285088E-3,1.9416288E-1,-7.078368E-2,-1.5313891E-2,-1.4249633E-1,7.636013E-1,-7.0320237E-1,-1.0584941E-2,-2.3785561E-1,-1.6219065E-1,-4.8154923E-1,3.7567446E-1,-8.7169506E-2,2.4985188E-1,6.288894E-2,2.0687477E-1,-4.39792E-1,1.4577238E-1,-3.1198454E-1,3.276446E-1,-1.7513273E-2,-6.6542196E-1,2.0814146E-1,-4.1011855E-1,1.4096288E-1,3.784658E-2,-1.2625122E-1,-1.2181021E-1,-4.2093745E-1,1.7127781E0,6.033019E-1,2.646617E-1,-8.1982665E-2,-4.0778834E-1,4.568521E-3,2.7362812E-1,-3.02018E-1,-1.7032066E-1,3.9464527E-1,-1.8392268E-1,-6.126095E-1,-9.0341765E-1,4.8561847E-1,4.1123655E-1,-1.8982832E-1,1.8234301E-2,1.0307657E-2,-6.2233705E-2,3.7406783E-3,3.0402437E-2,-1.2251032E-2,-2.8941128E-2,2.2448447E-2,8.587176E-3,-4.8197745E-3,3.0045614E-2,-2.0297294E-2,2.4480773E-2,1.4108332E-3,9.481222E-3,-2.3000285E-3,-5.1697433E-2,4.0440466E-2,1.2452695E-2,-4.3798345E-3,-3.0370563E-2,9.494515E-3,9.908144E-3,-5.363831E-2,-6.5865056E-3,4.8071654E-3,-7.723023E-3,2.3822742E-2,2.460347E-3,-7.957717E-3,-2.725229E-2,7.792304E-3,4.919533E-2,9.1806404E-2,6.2366188E-2,1.26926545E-2,7.511447E-2,-5.2443434E-2,1.4191847E-3,-3.502495E-2,-2.0169658E-5,5.5521823E-2,2.2811223E-2,-4.318266E-2,-2.0070424E-2,4.4242973E-3,-2.7268508E-3,-1.0303561E-2,-1.0454332E-2,3.0729521E-2,-2.0739188E-2,1.2966949E-2,1.0501143E-2,-3.370739E-2,-5.8111306E-2,3.0598557E-2,4.1486453E-2,1.2149352E-2,-2.3634161E-3,4.556984E-2,2.1029286E-2,-1.3032401E-2],"categories":[],"categories_nodes":[],"categories_segments":[],"categories_sizes":[],"default_left":[0,0,0,0,0,0,0,0,0,0,0,0,0,0,0,0,0,0,0,0,0,0,0,0,0,0,0,0,0,0,0,0,0,0,0,0,0,0,0,0,0,0,0,0,0,0,0,0,0,0,0,0,0,0,0,0,0,0,0,0,0,0,0,0,0,0,0,0,0,0,0,0,0,0,0,0,0,0,0,0,0,0,0,0,0,0,0,0,0,0,0,0,0,0,0,0,0,0,0,0,0,0,0,0,0,0,0,0,0,0,0,0,0,0,0,0,0,0,0,0,0,0,0,0,0],"id":5,"left_children":[1,3,5,7,9,11,13,15,17,19,21,23,25,27,29,31,33,35,37,39,41,43,45,47,49,51,53,55,57,59,61,63,65,67,69,71,73,75,77,79,81,83,85,87,89,91,93,95,97,99,-1,101,103,105,107,109,111,113,115,117,119,121,123,-1,-1,-1,-1,-1,-1,-1,-1,-1,-1,-1,-1,-1,-1,-1,-1,-1,-1,-1,-1,-1,-1,-1,-1,-1,-1,-1,-1,-1,-1,-1,-1,-1,-1,-1,-1,-1,-1,-1,-1,-1,-1,-1,-1,-1,-1,-1,-1,-1,-1,-1,-1,-1,-1,-1,-1,-1,-1,-1,-1,-1,-1],"loss_changes":[6.263422E2,4.6634338E2,1.500123E2,1.9268481E2,2.1003523E2,9.05689E1,9.719714E1,8.515698E1,1.5868181E2,6.986241E1,1.0764836E2,4.2690956E1,8.181406E1,9.565961E1,1.008385E2,7.942865E1,7.403477E1,1.1265936E2,1.24886345E2,5.063597E1,9.374314E1,7.384562E1,8.176724E1,2.830983E1,2.0733242E1,8.121713E1,5.899237E1,8.994202E1,3.8235504E1,8.999908E1,9.223447E1,6.1128296E1,4.3569458E1,6.0153107E1,4.732823E1,1.14944275E2,4.7736443E1,5.3942688E1,1.0544448E2,3.7495125E1,5.0128952E1,5.9497467E1,5.588693E1,8.367945E1,6.900993E1,8.453183E1,7.043698E1,3.7932587E-1,3.7325382E1,2.0718445E1,0E0,6.3394455E1,7.154279E1,4.1973053E1,6.1993378E1,8.0980774E1,3.813065E1,3.111409E1,3.4779175E1,2.0654217E1,4.8738144E1,7.0726974E1,6.470932E1,0E0,0E0,0E0,0E0,0E0,0E0,0E0,0E0,0E0,0E0,0E0,0E0,0E0,0E0,0E0,0E0,0E0,0E0,0E0,0E0,0E0,0E0,0E0,0E0,0E0,0E0,0E0,0E0,0E0,0E0,0E0,0E0,0E0,0E0,0E0,0E0,0E0,0E0,0E0,0E0,0E0,0E0,0E0,0E0,0E0,0E0,0E0,0E0,0E0,0E0,0E0,0E0,0E0,0E0,0E0,0E0,0E0,0E0,0E0,0E0,0E0,0E0],"parents":[2147483647,0,0,1,1,2,2,3,3,4,4,5,5,6,6,7,7,8,8,9,9,10,10,11,11,12,12,13,13,14,14,15,15,16,16,17,17,18,18,19,19,20,20,21,21,22,22,23,23,24,24,25,25,26,26,27,27,28,28,29,29,30,30,31,31,32,32,33,33,34,34,35,35,36,36,37,37,38,38,39,39,40,40,41,41,42,42,43,43,44,44,45,45,46,46,47,47,48,48,49,49,51,51,52,52,53,53,54,54,55,55,56,56,57,57,58,58,59,59,60,60,61,61,62,62],"right_children":[2,4,6,8,10,12,14,16,18,20,22,24,26,28,30,32,34,36,38,40,42,44,46,48,50,52,54,56,58,60,62,64,66,68,70,72,74,76,78,80,82,84,86,88,90,92,94,96,98,100,-1,102,104,106,108,110,112,114,116,118,120,122,124,-1,-1,-1,-1,-1,-1,-1,-1,-1,-1,-1,-1,-1,-1,-1,-1,-1,-1,-1,-1,-1,-1,-1,-1,-1,-1,-1,-1,-1,-1,-1,-1,-1,-1,-1,-1,-1,-1,-1,-1,-1,-1,-1,-1,-1,-1,-1,-1,-1,-1,-1,-1,-1,-1,-1,-1,-1,-1,-1,-1,-1,-1],"split_conditions":[6.189419E-1,1.5586358E-1,-5.945003E-1,3.408709E-1,-8.3660877E-1,-2.0260226E-2,1.2909944E-1,7.8290653E-1,-2.6842755E-1,6.8127166E-4,2.4867256E-3,1.6754099E0,3.8894993E-1,4.80807E-3,2.6E0,4.8410785E-1,-6.6881087E-3,5.52E0,-3.2627166E-3,-4.016052E-3,1.4500805E0,1.156921E6,1.304695E6,6E-1,-2.7818102E-2,-1.3865688E0,-1.0562265E-2,5.56E0,1.0939552E-2,5E-2,1.1421E2,-5.917908E-3,-1.85E0,6.8E-1,8.29438E-3,3.1583742E-3,1.1354755E-3,7.493677E-1,-6.128237E-1,3.0579942E-3,6.72152E5,1.7571E2,6.73902E5,-5.947267E-1,1.07E0,-3.086626E-1,6.243684E-4,-1.6132118E0,8.3812844E-4,5.2905674E-3,-8.1982665E-2,9.610505E5,5.61E0,3.115181E-4,2.5271173E0,-7.31065E-1,-7.491822E-4,9.515689E-1,9.0034244E5,1.4286609E-1,-1.23995595E-1,7.8290653E-1,-9.35367E-3,1.8234301E-2,1.0307657E-2,-6.2233705E-2,3.7406783E-3,3.0402437E-2,-1.2251032E-2,-2.8941128E-2,2.2448447E-2,8.587176E-3,-4.8197745E-3,3.0045614E-2,-2.0297294E-2,2.4480773E-2,1.4108332E-3,9.481222E-3,-2.3000285E-3,-5.1697433E-2,4.0440466E-2,1.2452695E-2,-4.3798345E-3,-3.0370563E-2,9.494515E-3,9.908144E-3,-5.363831E-2,-6.5865056E-3,4.8071654E-3,-7.723023E-3,2.3822742E-2,2.460347E-3,-7.957717E-3,-2.725229E-2,7.792304E-3,4.919533E-2,9.1806404E-2,6.2366188E-2,1.26926545E-2,7.511447E-2,-5.2443434E-2,1.4191847E-3,-3.502495E-2,-2.0169658E-5,5.5521823E-2,2.2811223E-2,-4.318266E-2,-2.0070424E-2,4.4242973E-3,-2.7268508E-3,-1.0303561E-2,-1.0454332E-2,3.0729521E-2,-2.0739188E-2,1.2966949E-2,1.0501143E-2,-3.370739E-2,-5.8111306E-2,3.0598557E-2,4.1486453E-2,1.2149352E-2,-2.3634161E-3,4.556984E-2,2.1029286E-2,-1.3032401E-2],"split_indices":[605,219,615,118,615,49,1012,460,234,76,47,460,737,19,341,615,49,195,101,1005,224,511,511,361,52,460,22,200,53,190,1069,46,296,225,47,101,119,118,275,655,366,1069,366,175,225,255,77,30,76,50,0,486,195,98,249,204,28,255,486,144,42,199,46,0,0,0,0,0,0,0,0,0,0,0,0,0,0,0,0,0,0,0,0,0,0,0,0,0,0,0,0,0,0,0,0,0,0,0,0,0,0,0,0,0,0,0,0,0,0,0,0,0,0,0,0,0,0,0,0,0,0,0,0,0,0],"split_type":[0,0,0,0,0,0,0,0,0,0,0,0,0,0,0,0,0,0,0,0,0,0,0,0,0,0,0,0,0,0,0,0,0,0,0,0,0,0,0,0,0,0,0,0,0,0,0,0,0,0,0,0,0,0,0,0,0,0,0,0,0,0,0,0,0,0,0,0,0,0,0,0,0,0,0,0,0,0,0,0,0,0,0,0,0,0,0,0,0,0,0,0,0,0,0,0,0,0,0,0,0,0,0,0,0,0,0,0,0,0,0,0,0,0,0,0,0,0,0,0,0,0,0,0,0],"sum_hessian":[1.2452845E5,8.5756945E4,3.8771508E4,5.3517473E4,3.2239473E4,1.5494013E4,2.3277494E4,1.5711336E4,3.7806137E4,5.507875E3,2.6731598E4,2.1462053E2,1.5279392E4,2.0840773E4,2.4367212E3,1.5001734E4,7.0960144E2,1.8824033E4,1.8982104E4,4.2054023E3,1.3024727E3,1.2518243E4,1.42133545E4,1.9337567E2,2.1244856E1,1.3485436E4,1.7939562E3,1.9856621E4,9.841516E2,6.361547E2,1.8005665E3,1.2206893E4,2.794841E3,3.2978638E2,3.7981506E2,1.827113E4,5.5290155E2,1.1126046E3,1.78695E4,6.64338E1,4.1389688E3,5.002813E2,8.021914E2,8.462719E3,4.0555242E3,1.3232104E4,9.8125116E2,2.64499E1,1.6692577E2,1.0747462E1,1.0497393E1,4.9485876E2,1.2990577E4,1.9941943E2,1.5945367E3,1.957174E4,2.848814E2,3.0184775E2,6.8230383E2,4.9709248E1,5.864455E2,3.068478E2,1.4937186E3,3.3621099E3,8.844783E3,2.4247816E1,2.7705933E3,1.7463152E2,1.5515486E2,3.288359E2,5.0979168E1,1.6502082E4,1.7690502E3,5.099468E1,5.0190686E2,7.2140344E2,3.9120108E2,2.1593315E3,1.5710168E4,5.3441128E1,1.2992668E1,3.6364043E3,5.0256436E2,3.7660257E2,1.2367876E2,7.6696533E2,3.522603E1,2.1642515E3,6.298468E3,3.875064E3,1.8046007E2,2.3710234E3,1.086108E4,8.07687E2,1.7356418E2,5.2449446E0,2.1204956E1,5.771095E1,1.0921482E2,5.4988203E0,5.2486424E0,1.9895483E2,2.9590393E2,1.2933339E4,5.723829E1,1.7242285E2,2.6996592E1,1.2712168E3,3.2332004E2,4.6186987E3,1.4953041E4,7.59632E1,2.0891821E2,1.986671E2,1.0318066E2,4.720734E1,6.350965E2,4.27134E1,6.995846E0,2.4133777E2,3.451077E2,1.6045851E2,1.4638931E2,1.5462376E2,1.3390948E3],"tree_param":{"num_deleted":"0","num_feature":"1115","num_nodes":"125","size_leaf_vector":"1"}},{"base_weights":[-4.59822E-4,5.7829686E-2,-8.314558E-2,1.533389E-1,1.9826386E-2,8.284444E-3,-1.2983419E-1,-9.535819E-2,1.7269926E-1,1.3329715E-1,-1.2625494E-2,8.109838E-2,-8.852594E-2,-1.5404914E-1,1.5770511E-1,3.439495E-1,-2.050062E-1,1.3877022E-1,3.4648913E-1,-6.361685E-2,1.798392E-1,1.963104E-2,-1.19845845E-1,5.520596E-1,5.6982417E-2,-1.0321066E-1,4.418344E-1,-5.2078467E-2,-1.8931104E-1,6.6752017E-1,8.553321E-2,5.583211E-1,-9.781312E-1,-8.57486E-2,-7.109111E-1,1.6216093E-1,-6.632195E-2,6.6125506E-1,2.9537633E-1,-1.0517759E-1,7.162807E-1,2.4688351E-1,2.05323E-2,7.2060893E-3,3.1416124E-1,-5.7666093E-2,-3.0829194E-1,6.406341E-1,-7.1618176E-1,1.1001227E-1,-1.3898335E-1,-3.406067E-1,-6.977321E-2,5.1538116E-1,-7.934232E-2,7.358796E-2,-1.5044989E-1,-1.22517375E-2,-2.1539165E-1,8.746994E-1,-1.3395052E-2,1.375489E-1,-5.3993124E-1,-4.9181E-2,3.766557E-2,3.4135275E-2,-6.2384337E-2,-7.957189E-3,2.6246494E-2,-2.3758795E-2,-6.299919E-2,6.971677E-3,1.7594427E-2,1.3234972E-2,-1.0703839E-2,3.535136E-2,-6.565695E-2,1.1741064E-2,3.1212494E-2,-8.88295E-3,1.3068931E-2,5.0397146E-2,-8.767321E-3,1.3965596E-2,-4.274208E-3,1.7248621E-2,-3.4224575E-3,2.411162E-2,-5.598041E-6,2.4051303E-2,-6.7496398E-3,-4.274232E-3,1.4943339E-2,-2.5777934E-2,-4.8762322E-3,7.7667865E-3,4.115608E-2,2.4502296E-2,-7.346156E-2,-7.766465E-3,7.7167316E-3,5.5304836E-2,-8.12811E-3,-2.0881945E-2,3.0993847E-2,-6.713882E-3,3.0227639E-3,-1.7465888E-2,3.5512533E-2,-1.4745328E-2,6.934279E-3,5.45529E-2,-8.063514E-3,-2.9674834E-3,3.094515E-2,3.733464E-3,-1.1595255E-2,2.1006694E-2,6.1344028E-2,-5.023975E-2,1.8550836E-2,3.2883808E-2,4.0309727E-3,-3.868134E-2,2.8106777E-2],"categories":[],"categories_nodes":[],"categories_segments":[],"categories_sizes":[],"default_left":[0,0,0,0,0,0,0,0,0,0,0,0,0,0,0,0,0,0,0,0,0,0,0,0,0,0,0,0,0,0,0,0,0,0,0,0,0,0,0,0,0,0,0,0,0,0,0,0,0,0,0,0,0,0,0,0,0,0,0,0,0,0,0,0,0,0,0,0,0,0,0,0,0,0,0,0,0,0,0,0,0,0,0,0,0,0,0,0,0,0,0,0,0,0,0,0,0,0,0,0,0,0,0,0,0,0,0,0,0,0,0,0,0,0,0,0,0,0,0,0,0,0,0,0,0],"id":6,"left_children":[1,3,5,7,9,11,13,15,17,19,21,23,25,27,29,31,33,35,37,39,41,43,45,47,49,51,53,55,57,59,61,63,65,67,69,71,73,75,77,79,81,83,85,87,89,91,93,95,97,99,101,103,105,107,-1,109,111,113,115,117,119,121,123,-1,-1,-1,-1,-1,-1,-1,-1,-1,-1,-1,-1,-1,-1,-1,-1,-1,-1,-1,-1,-1,-1,-1,-1,-1,-1,-1,-1,-1,-1,-1,-1,-1,-1,-1,-1,-1,-1,-1,-1,-1,-1,-1,-1,-1,-1,-1,-1,-1,-1,-1,-1,-1,-1,-1,-1,-1,-1,-1,-1,-1,-1],"loss_changes":[6.0048676E2,2.6521457E2,2.1991748E2,1.0016913E2,1.9251208E2,1.22760086E2,2.3746796E2,7.242989E1,1.1369232E2,1.0657745E2,1.4060477E2,1.1280147E2,5.8229355E1,1.130647E2,9.733531E1,8.561285E1,7.2451096E1,7.748486E1,5.040326E1,7.206838E1,1.00414215E2,1.1432407E2,1.101143E2,5.480609E1,9.828981E1,5.7681274E1,3.0760433E1,9.9955864E1,1.0789679E2,4.639482E1,7.5571625E1,7.8619484E1,1.9799225E1,4.3745453E1,2.8897736E1,6.240576E1,8.091823E1,4.055049E1,5.3793655E1,5.6137924E1,2.9509861E1,7.137741E1,8.051279E1,1.0428754E2,9.4876686E1,7.013635E1,1.01761795E2,3.988199E1,2.9872337E1,8.756776E1,5.9215805E1,6.664439E1,5.3594345E1,3.316904E1,0E0,8.518021E1,6.1008987E1,8.9220634E1,9.760217E1,3.962216E1,2.9945969E1,6.3372623E1,4.6381886E1,0E0,0E0,0E0,0E0,0E0,0E0,0E0,0E0,0E0,0E0,0E0,0E0,0E0,0E0,0E0,0E0,0E0,0E0,0E0,0E0,0E0,0E0,0E0,0E0,0E0,0E0,0E0,0E0,0E0,0E0,0E0,0E0,0E0,0E0,0E0,0E0,0E0,0E0,0E0,0E0,0E0,0E0,0E0,0E0,0E0,0E0,0E0,0E0,0E0,0E0,0E0,0E0,0E0,0E0,0E0,0E0,0E0,0E0,0E0,0E0,0E0,0E0],"parents":[2147483647,0,0,1,1,2,2,3,3,4,4,5,5,6,6,7,7,8,8,9,9,10,10,11,11,12,12,13,13,14,14,15,15,16,16,17,17,18,18,19,19,20,20,21,21,22,22,23,23,24,24,25,25,26,26,27,27,28,28,29,29,30,30,31,31,32,32,33,33,34,34,35,35,36,36,37,37,38,38,39,39,40,40,41,41,42,42,43,43,44,44,45,45,46,46,47,47,48,48,49,49,50,50,51,51,52,52,53,53,55,55,56,56,57,57,58,58,59,59,60,60,61,61,62,62],"right_children":[2,4,6,8,10,12,14,16,18,20,22,24,26,28,30,32,34,36,38,40,42,44,46,48,50,52,54,56,58,60,62,64,66,68,70,72,74,76,78,80,82,84,86,88,90,92,94,96,98,100,102,104,106,108,-1,110,112,114,116,118,120,122,124,-1,-1,-1,-1,-1,-1,-1,-1,-1,-1,-1,-1,-1,-1,-1,-1,-1,-1,-1,-1,-1,-1,-1,-1,-1,-1,-1,-1,-1,-1,-1,-1,-1,-1,-1,-1,-1,-1,-1,-1,-1,-1,-1,-1,-1,-1,-1,-1,-1,-1,-1,-1,-1,-1,-1,-1,-1,-1,-1,-1,-1,-1],"split_conditions":[3.528512E-1,-6.128237E-1,-1.4199501E-1,-2.989882E-1,-5.775199E-4,6.311994E-1,1.2909944E-1,-5.436088E-3,7.4426186E-1,-8.854999E-1,1.6869514E-1,1.11E0,7.009585E-3,-7.7633387E-1,-1.3475387E-3,6.7083613E-4,-2.86E-1,1.2981573E-2,-1.8651105E-4,-4.8937E2,2.4205393E-1,8.7933784E-4,5.9393584E-3,4.3228406E-1,1.2454745E-2,-4.165686E-1,2.1726362E-2,6.8E0,-3.137876E-3,8.543E1,1.8633077E-2,1.3E0,1.4246576E-1,2.12429E4,1.1281137E-3,9.814139E-1,-2.7139254E-3,1.040936E2,9.8E1,1.7452362E-1,-2.9933074E-4,1.09794E5,1.3E-1,-4E-1,2.2243434E-1,1.8414137E-1,1.21E0,-1.533178E0,-1.4912606E-3,-1.1524072E0,8.129049E-2,7.4038464E-1,-6.1894196E-1,3.2078E4,-7.934232E-2,0E0,-3.3850807E-1,1.8364E2,5.6643218E-2,-9.275865E-1,-2.005983E0,9.206989E5,1.3513662E0,-4.9181E-2,3.766557E-2,3.4135275E-2,-6.2384337E-2,-7.957189E-3,2.6246494E-2,-2.3758795E-2,-6.299919E-2,6.971677E-3,1.7594427E-2,1.3234972E-2,-1.0703839E-2,3.535136E-2,-6.565695E-2,1.1741064E-2,3.1212494E-2,-8.88295E-3,1.3068931E-2,5.0397146E-2,-8.767321E-3,1.3965596E-2,-4.274208E-3,1.7248621E-2,-3.4224575E-3,2.411162E-2,-5.598041E-6,2.4051303E-2,-6.7496398E-3,-4.274232E-3,1.4943339E-2,-2.5777934E-2,-4.8762322E-3,7.7667865E-3,4.115608E-2,2.4502296E-2,-7.346156E-2,-7.766465E-3,7.7167316E-3,5.5304836E-2,-8.12811E-3,-2.0881945E-2,3.0993847E-2,-6.713882E-3,3.0227639E-3,-1.7465888E-2,3.5512533E-2,-1.4745328E-2,6.934279E-3,5.45529E-2,-8.063514E-3,-2.9674834E-3,3.094515E-2,3.733464E-3,-1.1595255E-2,2.1006694E-2,6.1344028E-2,-5.023975E-2,1.8550836E-2,3.2883808E-2,4.0309727E-3,-3.868134E-2,2.8106777E-2],"split_indices":[615,605,234,1007,88,605,1002,46,1048,620,300,321,735,605,90,89,586,22,111,541,300,62,121,133,53,937,1019,451,102,616,53,220,184,446,16,164,52,376,381,81,97,1059,200,251,81,672,623,300,28,244,81,1063,1081,1059,0,1048,480,1069,72,812,570,486,962,0,0,0,0,0,0,0,0,0,0,0,0,0,0,0,0,0,0,0,0,0,0,0,0,0,0,0,0,0,0,0,0,0,0,0,0,0,0,0,0,0,0,0,0,0,0,0,0,0,0,0,0,0,0,0,0,0,0,0,0,0,0],"split_type":[0,0,0,0,0,0,0,0,0,0,0,0,0,0,0,0,0,0,0,0,0,0,0,0,0,0,0,0,0,0,0,0,0,0,0,0,0,0,0,0,0,0,0,0,0,0,0,0,0,0,0,0,0,0,0,0,0,0,0,0,0,0,0,0,0,0,0,0,0,0,0,0,0,0,0,0,0,0,0,0,0,0,0,0,0,0,0,0,0,0,0,0,0,0,0,0,0,0,0,0,0,0,0,0,0,0,0,0,0,0,0,0,0,0,0,0,0,0,0,0,0,0,0,0,0],"sum_hessian":[1.24587234E5,7.307321E4,5.1514027E4,2.0798107E4,5.22751E4,1.7412977E4,3.410105E4,1.5014797E3,1.9296627E4,1.1625506E4,4.0649594E4,9.938862E3,7.474115E3,3.145306E4,2.647988E3,2.9929547E2,1.2021842E3,1.6146681E4,3.149947E3,2.2219934E3,9.403512E3,3.1248559E4,9.401037E3,4.8286874E2,9.455993E3,7.2737134E3,2.00402E2,8.083228E3,2.3369834E4,3.2718085E2,2.3208071E3,2.5809882E2,4.119665E1,9.7395886E2,2.282254E2,1.4494306E4,1.6523756E3,4.3810284E2,2.711844E3,2.110517E3,1.11476105E2,6.617401E3,2.786111E3,2.9984986E4,1.2635721E3,7.0700405E3,2.3309968E3,4.5188278E2,3.0985966E1,7.4428496E3,2.0131438E3,8.9651843E2,6.377195E3,1.9415833E2,6.2436695E0,3.5488796E3,4.534348E3,3.0010725E3,2.036876E4,2.5074881E2,7.643204E1,2.1434878E3,1.7731953E2,2.846291E1,2.2963593E2,5.4867797E0,3.5709873E1,8.7026776E2,1.0369111E2,1.6110513E2,6.712026E1,1.2945796E4,1.5485099E3,5.0948553E2,1.14289E3,4.2885333E2,9.249496E0,2.2918643E3,4.199799E2,1.7627467E3,3.4777054E2,8.398521E1,2.7490894E1,6.0295693E3,5.878317E2,5.9928235E2,2.1868289E3,4.541501E2,2.9530836E4,9.2141125E2,3.4216095E2,6.5592915E3,5.1074905E2,1.1742899E3,1.1567068E3,1.2414272E2,3.2774005E2,1.1992673E1,1.8993292E1,1.0646177E3,6.378232E3,3.648349E1,1.9766603E3,8.3057446E2,6.594399E1,4.2652695E3,2.111925E3,3.5468292E1,1.5869002E2,5.3205255E2,3.0168271E3,3.8235306E1,4.496113E3,2.7936682E3,2.0740428E2,1.096635E3,1.9272125E4,1.1054438E2,1.4020442E2,2.0977428E1,5.545461E1,2.1025111E2,1.9332366E3,1.4661772E2,3.0701828E1],"tree_param":{"num_deleted":"0","num_feature":"1115","num_nodes":"125","size_leaf_vector":"1"}},{"base_weights":[2.6774795E-3,5.7561565E-2,-7.6278836E-2,1.1467475E-1,1.5180683E-2,-2.1793544E-1,-4.933317E-2,1.5028962E-1,2.2953799E-2,9.974204E-2,-4.5907915E-2,-2.0139702E-1,-9.0446913E-1,1.8337928E-2,-1.0543394E-1,2.4627453E-1,7.867075E-2,-8.254356E-2,9.314141E-2,7.776618E-2,3.765555E-1,-7.3802345E-2,1.4649248E-1,-7.0718706E-2,-2.8590223E-1,-1.1862357E0,-4.114168E-1,1.2128353E-1,-1.9701244E-2,-1.4380798E-1,1.2918712E-1,5.2430797E-1,2.1413636E-1,-1.2600818E-1,1.0119826E-1,-6.339213E-1,-4.7600843E-2,2.5478137E-1,2.3849634E-2,1.394201E-1,3.3659143E-3,4.0780982E-1,-1.2159708E0,-2.418643E-1,-4.8477564E-2,-2.0547119E-1,2.1435258E-1,2.9278252E-1,-1.12786666E-1,7.6025404E-2,-3.3205816E-1,1.2527223E-2,-1.311321E0,2.684731E-1,-1.0745349E0,6.920405E-2,3.338196E-1,-1.7285192E-1,2.5353916E-2,-1.2335223E-1,-4.225859E-1,1.6786997E-1,-2.769883E-1,2.0387366E-2,5.502966E-2,1.3097008E-2,1.7483343E-3,-9.483616E-3,2.274317E-2,3.5025005E-3,1.4696476E-2,-2.7637684E-3,-5.0995927E-2,-3.5945554E-3,3.0347345E-2,1.5972149E-2,-2.437272E-2,-3.259499E-2,2.4052267E-3,8.101388E-3,-1.5948648E-2,-2.5911022E-3,9.546125E-3,-7.122495E-3,2.4894502E-2,-8.466448E-2,9.491774E-3,4.967492E-3,-1.4932207E-2,-3.0527078E-3,1.3950809E-2,3.917324E-2,-1.6989918E-2,4.8541497E-3,2.1041788E-2,4.668892E-3,3.5539895E-2,1.04903E-2,-8.482571E-3,4.1374054E-2,-1.2608077E-3,-1.031105E-2,-2.4179673E-2,-5.1833022E-2,-8.5485555E-2,3.4847807E-2,-4.531573E-2,1.2617565E-2,-7.141828E-2,2.8207844E-2,2.3238221E-3,-3.6400195E-2,1.9848796E-2,1.4821656E-2,-1.05464235E-2,3.9409315E-3,-6.8076486E-3,-7.516224E-3,2.5127397E-3,-4.722603E-3,-2.989904E-2,5.3551374E-3,2.651856E-2,2.5026247E-2,-2.3222918E-2],"categories":[],"categories_nodes":[],"categories_segments":[],"categories_sizes":[],"default_left":[0,0,0,0,0,0,0,0,0,0,0,0,0,0,0,0,0,0,0,0,0,0,0,0,0,0,0,0,0,0,0,0,0,0,0,0,0,0,0,0,0,0,0,0,0,0,0,0,0,0,0,0,0,0,0,0,0,0,0,0,0,0,0,0,0,0,0,0,0,0,0,0,0,0,0,0,0,0,0,0,0,0,0,0,0,0,0,0,0,0,0,0,0,0,0,0,0,0,0,0,0,0,0,0,0,0,0,0,0,0,0,0,0,0,0,0,0,0,0,0,0,0,0,0,0],"id":7,"left_children":[1,3,5,7,9,11,13,15,17,19,21,23,25,27,29,31,33,35,37,39,41,43,45,47,49,51,53,55,57,59,61,63,65,67,69,71,73,75,77,79,81,83,85,87,89,91,93,95,97,99,101,-1,103,105,107,109,111,113,115,117,119,121,123,-1,-1,-1,-1,-1,-1,-1,-1,-1,-1,-1,-1,-1,-1,-1,-1,-1,-1,-1,-1,-1,-1,-1,-1,-1,-1,-1,-1,-1,-1,-1,-1,-1,-1,-1,-1,-1,-1,-1,-1,-1,-1,-1,-1,-1,-1,-1,-1,-1,-1,-1,-1,-1,-1,-1,-1,-1,-1,-1,-1,-1,-1],"loss_changes":[5.3961395E2,1.7779749E2,1.9487073E2,1.02193665E2,2.1785555E2,9.2355865E1,1.628911E2,1.5488037E2,6.4826294E1,1.07528244E2,1.3140546E2,8.7949585E1,2.595874E1,7.616496E1,2.1122314E2,8.5858826E1,5.9533485E1,6.727957E1,5.8852287E1,7.516323E1,6.5139725E1,9.0975235E1,7.408843E1,4.790043E1,8.088504E1,2.2218582E1,3.251716E1,5.802282E1,9.800161E1,1.1486734E2,5.184774E1,6.6354065E1,7.390976E1,4.7393326E1,6.976231E1,4.6330994E1,5.2297695E1,7.582605E1,6.03123E1,9.290581E1,7.6916275E1,6.3362976E1,1.7394363E1,5.4290085E1,7.654656E1,6.68243E1,6.2857567E1,2.6930311E1,5.1534786E1,4.178204E1,8.167499E1,0E0,1.0178436E1,1.869873E1,1.7554714E1,4.7345383E1,6.947492E1,5.7742912E1,9.475086E1,8.7980316E1,7.915431E1,6.622208E1,4.2047226E1,0E0,0E0,0E0,0E0,0E0,0E0,0E0,0E0,0E0,0E0,0E0,0E0,0E0,0E0,0E0,0E0,0E0,0E0,0E0,0E0,0E0,0E0,0E0,0E0,0E0,0E0,0E0,0E0,0E0,0E0,0E0,0E0,0E0,0E0,0E0,0E0,0E0,0E0,0E0,0E0,0E0,0E0,0E0,0E0,0E0,0E0,0E0,0E0,0E0,0E0,0E0,0E0,0E0,0E0,0E0,0E0,0E0,0E0,0E0,0E0,0E0,0E0],"parents":[2147483647,0,0,1,1,2,2,3,3,4,4,5,5,6,6,7,7,8,8,9,9,10,10,11,11,12,12,13,13,14,14,15,15,16,16,17,17,18,18,19,19,20,20,21,21,22,22,23,23,24,24,25,25,26,26,27,27,28,28,29,29,30,30,31,31,32,32,33,33,34,34,35,35,36,36,37,37,38,38,39,39,40,40,41,41,42,42,43,43,44,44,45,45,46,46,47,47,48,48,49,49,50,50,52,52,53,53,54,54,55,55,56,56,57,57,58,58,59,59,60,60,61,61,62,62],"right_children":[2,4,6,8,10,12,14,16,18,20,22,24,26,28,30,32,34,36,38,40,42,44,46,48,50,52,54,56,58,60,62,64,66,68,70,72,74,76,78,80,82,84,86,88,90,92,94,96,98,100,102,-1,104,106,108,110,112,114,116,118,120,122,124,-1,-1,-1,-1,-1,-1,-1,-1,-1,-1,-1,-1,-1,-1,-1,-1,-1,-1,-1,-1,-1,-1,-1,-1,-1,-1,-1,-1,-1,-1,-1,-1,-1,-1,-1,-1,-1,-1,-1,-1,-1,-1,-1,-1,-1,-1,-1,-1,-1,-1,-1,-1,-1,-1,-1,-1,-1,-1,-1,-1,-1,-1],"split_conditions":[3.668772E-1,4.6292835E-1,0E0,2.4205391E-1,-2.6842758E-1,2.5107765E-1,3.2379848E-1,-2.5881904E-1,-2.5881904E-1,8.7635755E-4,1.1617929E0,3.0115177E-4,5.725188E-1,-1.0127279E0,1.6583838E0,-1.0561983E-2,-2.6502472E-1,5.86E1,-4.920858E-4,4.63E0,1.2909944E-1,7.9E-1,-2.2749591E-1,1.1780822E-1,-4.9E-1,-3.987626E-1,-5.11317E-3,9.6599467E-4,1.1948E2,5.011551E-3,7.152192E-1,1.69069E4,8.926508E-2,2.3683815E0,1.2909944E-1,8.575216E-4,2.4880074E-2,1.5E0,-2.005983E0,1.2471302E-2,-2.37E-1,-3.8578159E-3,7.0118946E-1,-3.4E-1,3.08148E2,1.33E0,1.2102696E0,9.61E1,1.42863E5,-2.1754459E-2,-5.76031E2,1.2527223E-2,2.7675152E0,2.7E2,-9.91E2,0E0,-3.668772E-1,0E0,5.640074E-1,-1.0117729E-3,4.843E1,9.916316E-1,-6.400912E-2,2.0387366E-2,5.502966E-2,1.3097008E-2,1.7483343E-3,-9.483616E-3,2.274317E-2,3.5025005E-3,1.4696476E-2,-2.7637684E-3,-5.0995927E-2,-3.5945554E-3,3.0347345E-2,1.5972149E-2,-2.437272E-2,-3.259499E-2,2.4052267E-3,8.101388E-3,-1.5948648E-2,-2.5911022E-3,9.546125E-3,-7.122495E-3,2.4894502E-2,-8.466448E-2,9.491774E-3,4.967492E-3,-1.4932207E-2,-3.0527078E-3,1.3950809E-2,3.917324E-2,-1.6989918E-2,4.8541497E-3,2.1041788E-2,4.668892E-3,3.5539895E-2,1.04903E-2,-8.482571E-3,4.1374054E-2,-1.2608077E-3,-1.031105E-2,-2.4179673E-2,-5.1833022E-2,-8.5485555E-2,3.4847807E-2,-4.531573E-2,1.2617565E-2,-7.141828E-2,2.8207844E-2,2.3238221E-3,-3.6400195E-2,1.9848796E-2,1.4821656E-2,-1.05464235E-2,3.9409315E-3,-6.8076486E-3,-7.516224E-3,2.5127397E-3,-4.722603E-3,-2.989904E-2,5.3551374E-3,2.651856E-2,2.5026247E-2,-2.3222918E-2],"split_indices":[615,118,1007,255,300,515,300,169,169,65,620,32,952,48,615,46,947,381,99,286,922,215,677,184,319,139,46,70,1069,20,731,411,300,290,1007,70,53,250,570,20,586,43,727,251,291,321,204,381,401,52,541,0,290,149,148,842,570,912,255,46,616,747,110,0,0,0,0,0,0,0,0,0,0,0,0,0,0,0,0,0,0,0,0,0,0,0,0,0,0,0,0,0,0,0,0,0,0,0,0,0,0,0,0,0,0,0,0,0,0,0,0,0,0,0,0,0,0,0,0,0,0,0,0,0,0],"split_type":[0,0,0,0,0,0,0,0,0,0,0,0,0,0,0,0,0,0,0,0,0,0,0,0,0,0,0,0,0,0,0,0,0,0,0,0,0,0,0,0,0,0,0,0,0,0,0,0,0,0,0,0,0,0,0,0,0,0,0,0,0,0,0,0,0,0,0,0,0,0,0,0,0,0,0,0,0,0,0,0,0,0,0,0,0,0,0,0,0,0,0,0,0,0,0,0,0,0,0,0,0,0,0,0,0,0,0,0,0,0,0,0,0,0,0,0,0,0,0,0,0,0,0,0,0],"sum_hessian":[1.2452151E5,7.3459734E4,5.1061773E4,3.1289469E4,4.217027E4,8.1588604E3,4.290291E4,2.2536791E4,8.752677E3,1.7687504E4,2.4482768E4,7.9683438E3,1.9051643E2,1.9445648E4,2.3457264E4,9.628572E3,1.2908219E4,3.4961277E3,5.256549E3,1.6388115E4,1.2993887E3,2.1383674E4,3.099093E3,3.130453E3,4.837891E3,1.20210526E2,7.030591E1,5.246759E3,1.419889E4,2.016065E4,3.296612E3,9.957474E2,8.632824E3,1.278954E3,1.1629265E4,2.0716525E2,3.2889624E3,1.5760076E3,3.6805415E3,8.960512E3,7.4276035E3,1.2751694E3,2.421927E1,2.7986423E3,1.8585031E4,5.0036972E2,2.5987234E3,3.2384378E2,2.8066091E3,5.4686725E2,4.291024E3,9.4829645E0,1.1072756E2,3.4933346E1,3.537256E1,4.215577E3,1.031182E3,3.2274807E3,1.0971409E4,1.8784137E4,1.3765132E3,3.010714E3,2.8589786E2,8.297929E2,1.6595451E2,6.813825E3,1.8189993E3,1.1533872E3,1.25566826E2,1.0012911E4,1.616354E3,8.345726E1,1.2370799E2,3.172282E3,1.1668044E2,1.4503604E3,1.2564717E2,1.2648997E2,3.5540515E3,8.54018E3,4.2033124E2,5.7390854E3,1.6885181E3,1.7914725E2,1.0960222E3,1.7980814E1,6.238457E0,3.9891013E2,2.3997322E3,1.7898791E4,6.8624023E2,5.9170567E1,4.4119916E2,1.6586615E3,9.400618E2,2.2024403E2,1.03599754E2,4.1992636E2,2.3866826E3,6.419565E1,4.8267157E2,2.3459404E3,1.9450834E3,6.782224E1,4.2905315E1,2.5957624E1,8.975723E0,7.447639E0,2.792492E1,1.8383647E2,4.0317405E3,5.7210632E1,9.739713E2,2.4151013E2,2.9859705E3,8.2436045E3,2.7278047E3,1.6258816E4,2.5253213E3,4.8021738E2,8.962958E2,2.5798218E3,4.3089236E2,5.511415E1,2.3078372E2],"tree_param":{"num_deleted":"0","num_feature":"1115","num_nodes":"125","size_leaf_vector":"1"}},{"base_weights":[-1.1865922E-3,5.0702658E-2,-7.7207185E-2,-1.8927446E-1,6.742431E-2,-9.7697206E-2,1.3870193E-1,-1.2251555E-1,-3.9321357E-1,1.0296392E-1,1.3884991E-2,-2.3810649E-1,-7.821173E-2,2.0245293E-1,-1.02853976E-1,-3.996264E-2,-3.5519984E-1,-4.3689403E-1,9.952874E-1,4.5578733E-2,1.5180744E-1,-7.3025554E-2,7.927419E-2,-3.341825E-1,-7.450564E-2,-1.13590986E-1,-2.5945199E-3,2.3746905E-1,-3.9207745E-1,-5.949274E-1,4.761567E-2,1.0707016E-1,-2.1310286E-1,-5.2378666E-1,-5.986535E-2,-3.3310226E-1,-8.397056E-1,-4.9232498E-2,1.4203869E0,-1.9829717E-1,7.146729E-2,2.6343182E-1,1.14602074E-1,1.2373089E-1,-1.0286128E-1,2.2039738E-1,-1.9267589E-2,-4.531672E-2,-3.9904597E-1,-1.3147332E-1,4.1030356E-1,3.7560445E-1,-1.1950458E-1,-9.297266E-3,8.4979355E-1,-2.9881245E-1,2.7665642E-1,-7.558318E-1,1.2325769E-1,1.9077963E-1,-8.0804354E-1,9.435307E-1,-4.2310685E-2,-4.456095E-4,2.10408E-2,-1.5824694E-2,1.0516118E-2,-2.7679084E-2,8.110638E-2,-7.1804114E-3,6.5635644E-2,-1.8761402E-2,2.2307703E-2,-5.341949E-2,-1.5820894E-2,8.271458E-2,1.16237365E-2,5.1957993E-3,-1.9357985E-2,-8.00876E-3,4.5860433E-3,-1.232413E-3,1.5596016E-2,3.917619E-3,1.6196614E-2,-8.713685E-3,1.7189648E-2,-2.3556396E-3,-1.165647E-2,1.2363177E-2,-2.0924708E-2,-3.9529623E-3,1.1447634E-2,5.0040736E-4,-4.6606004E-2,5.2240994E-3,-2.2370527E-2,5.0949752E-2,-7.81631E-3,2.5585467E-2,-6.154417E-2,2.5073094E-2,-6.430218E-2,-7.5334276E-4,-7.275256E-3,-3.2951146E-5,-2.4980573E-2,6.4422324E-2,1.0473388E-2,1.1639304E-3,-3.7087806E-2,1.0369829E-2,2.9748103E-2,1.2691526E-3,-5.1276047E-2,3.782047E-2,-3.1213734E-2,5.4525375E-2,-2.5504038E-2,-4.4809442E-2,8.1040874E-2,-1.5205351E-2,5.6417603E-2,-3.416476E-2,3.95164E-3],"categories":[],"categories_nodes":[],"categories_segments":[],"categories_sizes":[],"default_left":[0,0,0,0,0,0,0,0,0,0,0,0,0,0,0,0,0,0,0,0,0,0,0,0,0,0,0,0,0,0,0,0,0,0,0,0,0,0,0,0,0,0,0,0,0,0,0,0,0,0,0,0,0,0,0,0,0,0,0,0,0,0,0,0,0,0,0,0,0,0,0,0,0,0,0,0,0,0,0,0,0,0,0,0,0,0,0,0,0,0,0,0,0,0,0,0,0,0,0,0,0,0,0,0,0,0,0,0,0,0,0,0,0,0,0,0,0,0,0,0,0,0,0,0,0],"id":8,"left_children":[1,3,5,7,9,11,13,15,17,19,21,23,25,27,29,31,33,35,37,39,41,43,45,47,49,51,53,55,57,59,61,63,65,67,69,71,73,-1,75,77,79,81,83,85,87,89,91,93,95,97,99,101,103,105,107,109,111,113,115,117,119,121,123,-1,-1,-1,-1,-1,-1,-1,-1,-1,-1,-1,-1,-1,-1,-1,-1,-1,-1,-1,-1,-1,-1,-1,-1,-1,-1,-1,-1,-1,-1,-1,-1,-1,-1,-1,-1,-1,-1,-1,-1,-1,-1,-1,-1,-1,-1,-1,-1,-1,-1,-1,-1,-1,-1,-1,-1,-1,-1,-1,-1,-1,-1],"loss_changes":[4.9142297E2,2.9711005E2,2.235921E2,6.5563324E1,1.3169296E2,1.2623889E2,6.748744E1,6.9776596E1,7.246799E1,1.1657684E2,1.569604E2,8.833386E1,1.084339E2,7.224266E1,6.783295E1,6.83805E1,4.7288055E1,4.7812927E1,3.2151855E1,1.2078302E2,9.325769E1,6.961898E1,2.1921259E2,6.631424E1,5.7540882E1,7.9905914E1,7.375468E1,6.8893936E1,3.6340233E1,3.6134445E1,5.6648254E1,5.2889046E1,5.4081E1,3.9500412E1,3.997286E1,3.0318932E1,2.7692322E1,0E0,7.8982124E0,1.0484916E2,8.11517E1,7.84863E1,1.2784447E2,1.0246721E2,7.474222E1,1.1133124E2,1.3775372E2,3.2041836E1,7.052338E1,5.3382156E1,3.7010193E1,6.95524E1,7.407468E1,5.4260075E1,2.7870018E1,3.1944546E1,6.7083176E1,2.40196E1,3.8641777E1,2.9922363E1,3.7568054E1,1.5214394E1,4.9766895E1,0E0,0E0,0E0,0E0,0E0,0E0,0E0,0E0,0E0,0E0,0E0,0E0,0E0,0E0,0E0,0E0,0E0,0E0,0E0,0E0,0E0,0E0,0E0,0E0,0E0,0E0,0E0,0E0,0E0,0E0,0E0,0E0,0E0,0E0,0E0,0E0,0E0,0E0,0E0,0E0,0E0,0E0,0E0,0E0,0E0,0E0,0E0,0E0,0E0,0E0,0E0,0E0,0E0,0E0,0E0,0E0,0E0,0E0,0E0,0E0,0E0,0E0],"parents":[2147483647,0,0,1,1,2,2,3,3,4,4,5,5,6,6,7,7,8,8,9,9,10,10,11,11,12,12,13,13,14,14,15,15,16,16,17,17,18,18,19,19,20,20,21,21,22,22,23,23,24,24,25,25,26,26,27,27,28,28,29,29,30,30,31,31,32,32,33,33,34,34,35,35,36,36,38,38,39,39,40,40,41,41,42,42,43,43,44,44,45,45,46,46,47,47,48,48,49,49,50,50,51,51,52,52,53,53,54,54,55,55,56,56,57,57,58,58,59,59,60,60,61,61,62,62],"right_children":[2,4,6,8,10,12,14,16,18,20,22,24,26,28,30,32,34,36,38,40,42,44,46,48,50,52,54,56,58,60,62,64,66,68,70,72,74,-1,76,78,80,82,84,86,88,90,92,94,96,98,100,102,104,106,108,110,112,114,116,118,120,122,124,-1,-1,-1,-1,-1,-1,-1,-1,-1,-1,-1,-1,-1,-1,-1,-1,-1,-1,-1,-1,-1,-1,-1,-1,-1,-1,-1,-1,-1,-1,-1,-1,-1,-1,-1,-1,-1,-1,-1,-1,-1,-1,-1,-1,-1,-1,-1,-1,-1,-1,-1,-1,-1,-1,-1,-1,-1,-1,-1,-1,-1,-1],"split_conditions":[1.9206786E-1,0E0,1.2909944E-1,-2.95E-1,0E0,-2.650247E-1,1.3499227E-2,3.9138E-2,3.03E0,-8.229833E-1,2.5881904E-1,1.1562E2,8.297783E-1,2.55E0,2.46626E2,1.8414137E-1,6.7504895E-1,3.2765E3,5.5536233E-2,6.3428E0,-1.147E0,6.3685E0,-1.0058865E-3,1.474058E-4,6.701015E-3,-1.9572663E0,1.4987E2,-2.0929174E0,-2.6502466E-1,3.09017E-1,-6.153891E-4,1.56199E5,4.3520183E-4,4.251431E6,7.152192E-1,4.12E-1,1.9338607E0,-4.9232498E-2,5.072871E-4,-7.346098E-4,-5.979764E-1,1.72E0,2.2767128E-1,5.275E1,3.2089283E-3,2.869938E-2,5.41E0,2.4057748E0,-2.5087951E-3,-1.8705009E-2,7E-2,3.1056667E-3,4.35667E5,1.460071E6,7.7513136E-2,8.972309E-4,8.6715674E-1,-2.7148914E0,-7.726676E-5,7.695907E-1,2.4336755E-1,2.12E0,7.1259433E-1,-4.456095E-4,2.10408E-2,-1.5824694E-2,1.0516118E-2,-2.7679084E-2,8.110638E-2,-7.1804114E-3,6.5635644E-2,-1.8761402E-2,2.2307703E-2,-5.341949E-2,-1.5820894E-2,8.271458E-2,1.16237365E-2,5.1957993E-3,-1.9357985E-2,-8.00876E-3,4.5860433E-3,-1.232413E-3,1.5596016E-2,3.917619E-3,1.6196614E-2,-8.713685E-3,1.7189648E-2,-2.3556396E-3,-1.165647E-2,1.2363177E-2,-2.0924708E-2,-3.9529623E-3,1.1447634E-2,5.0040736E-4,-4.6606004E-2,5.2240994E-3,-2.2370527E-2,5.0949752E-2,-7.81631E-3,2.5585467E-2,-6.154417E-2,2.5073094E-2,-6.430218E-2,-7.5334276E-4,-7.275256E-3,-3.2951146E-5,-2.4980573E-2,6.4422324E-2,1.0473388E-2,1.1639304E-3,-3.7087806E-2,1.0369829E-2,2.9748103E-2,1.2691526E-3,-5.1276047E-2,3.782047E-2,-3.1213734E-2,5.4525375E-2,-2.5504038E-2,-4.4809442E-2,8.1040874E-2,-1.5205351E-2,5.6417603E-2,-3.416476E-2,3.95164E-3],"split_indices":[219,1007,1007,586,229,667,53,110,281,290,170,611,350,346,291,917,907,481,66,601,581,601,37,38,740,244,611,927,642,172,98,1054,71,471,1016,586,249,0,71,102,977,240,69,316,44,53,286,490,101,46,1080,38,511,511,72,800,817,620,99,122,69,566,51,0,0,0,0,0,0,0,0,0,0,0,0,0,0,0,0,0,0,0,0,0,0,0,0,0,0,0,0,0,0,0,0,0,0,0,0,0,0,0,0,0,0,0,0,0,0,0,0,0,0,0,0,0,0,0,0,0,0,0,0,0,0],"split_type":[0,0,0,0,0,0,0,0,0,0,0,0,0,0,0,0,0,0,0,0,0,0,0,0,0,0,0,0,0,0,0,0,0,0,0,0,0,0,0,0,0,0,0,0,0,0,0,0,0,0,0,0,0,0,0,0,0,0,0,0,0,0,0,0,0,0,0,0,0,0,0,0,0,0,0,0,0,0,0,0,0,0,0,0,0,0,0,0,0,0,0,0,0,0,0,0,0,0,0,0,0,0,0,0,0,0,0,0,0,0,0,0,0,0,0,0,0,0,0,0,0,0,0,0,0],"sum_hessian":[1.24576914E5,7.403915E4,5.053776E4,4.8219346E3,6.921721E4,4.6158297E4,4.3794653E3,3.6343357E3,1.1875989E3,4.1600113E4,2.7617102E4,5.6230596E3,4.053524E4,3.4654468E3,9.140184E2,2.6837744E3,9.5056146E2,1.1521123E3,3.5486618E1,1.912939E4,2.2470723E4,1.1856569E4,1.5760532E4,3.5415815E3,2.081478E3,2.7613705E4,1.2921532E4,3.2734204E3,1.9202626E2,2.135072E2,7.0051117E2,1.4512008E3,1.2325735E3,6.0442395E2,3.4613748E2,9.1772003E2,2.3439224E2,5.998158E0,2.948846E1,1.8347854E3,1.7294605E4,5.6151753E3,1.6855547E4,1.5603162E3,1.0296253E4,6.4800835E3,9.280448E3,6.500154E2,2.8915662E3,1.863448E3,2.1803004E2,3.2886993E2,2.7284834E4,1.2821814E4,9.971782E1,2.2228337E2,3.0511372E3,1.1240879E2,7.961747E1,4.5477695E1,1.6802951E2,6.3134712E1,6.3737646E2,1.0600027E3,3.911981E2,9.91066E2,2.4150754E2,5.9692456E2,7.4993825E0,3.271461E2,1.8991402E1,8.712671E2,4.6452976E1,1.6225269E2,7.213956E1,2.4238932E1,5.249529E0,7.056084E2,1.129177E3,1.3896116E3,1.5904994E4,8.087362E2,4.806439E3,1.4369103E4,2.486444E3,6.626795E2,8.976366E2,7.2119956E3,3.0842576E3,6.219323E3,2.6076044E2,7.47979E3,1.8006583E3,6.126689E2,3.734653E1,2.531166E2,2.6384495E3,3.847279E1,1.8249751E3,2.0604788E2,1.1982162E1,3.0641934E2,2.2450579E1,5.4398247E3,2.184501E4,1.2601018E4,2.2079655E2,5.8484722E1,4.1233097E1,1.291166E2,9.316679E1,2.5074985E3,5.436387E2,2.8984324E1,8.342446E1,4.3172626E1,3.6444843E1,1.9732662E1,2.5745031E1,1.627938E2,5.235717E0,7.9927983E0,5.5141914E1,1.0084836E2,5.365281E2],"tree_param":{"num_deleted":"0","num_feature":"1115","num_nodes":"125","size_leaf_vector":"1"}},{"base_weights":[-6.106717E-4,3.926138E-2,-9.0560414E-2,7.9517655E-2,-3.515772E-2,-2.7712906E-2,-1.324565E-1,1.416534E-1,4.003461E-2,3.9874014E-2,-1.0363039E-1,-1.1263627E-3,-2.3086943E-1,-1.1729192E-1,-3.9118752E-1,1.744699E-1,1.4842271E-2,1.3325772E-1,-5.9265713E-3,1.6476445E-2,2.6750943E-1,-1.966645E-1,-2.7718453E-2,-1.7814882E-1,2.8830815E-2,-1.596935E-1,-5.5080277E-1,1.02798134E-1,-1.3346767E-1,-4.141503E-1,1.3024743E0,1.8911876E-1,-1.459954E-1,-1.2702076E-2,5.031533E-1,1.6251794E-1,-1.5312767E-1,-1.9993333E-2,3.04285E-1,-5.0076103E-1,2.6178785E-2,-3.947547E-1,3.403198E-1,-1.7425852E-1,-8.304622E-1,5.3268317E-2,-1.6173543E-1,-3.3727184E-1,2.0802015E-2,3.1599307E-1,4.756931E-3,-2.008536E-1,1.0266573E0,-8.1153846E-1,7.433576E-2,2.2589289E-1,-5.2209353E-1,-1.453704E-1,1.2226208E-1,1.6894962E-1,-4.7139186E-1,2.6124025E-2,8.7147325E-2,1.4781083E-2,7.6787234E-3,2.2605425E-2,-1.4636295E-2,6.868581E-3,-4.974415E-3,2.9671922E-2,-8.08865E-2,1.7997461E-3,1.0659459E-2,-1.7201023E-2,9.445721E-3,3.6509465E-3,-3.421411E-3,5.4249924E-2,9.184118E-3,3.282685E-2,-3.00785E-2,4.033017E-3,-3.0198833E-3,-4.071453E-3,-5.4746337E-2,-5.2294335E-3,2.0707762E-2,-3.484017E-3,-1.3794484E-2,-6.0617584E-3,-5.4743078E-2,1.8000765E-2,-4.0272527E-4,-1.5627315E-2,4.4305706E-3,-9.629853E-3,-3.749993E-2,-7.1416534E-3,1.7336704E-2,1.944411E-2,-1.4015004E-2,7.854267E-3,-2.078248E-3,-3.9009344E-2,-8.072484E-3,-6.933422E-3,7.456095E-2,2.850226E-2,-4.7299568E-2,5.1001698E-2,-1.678889E-2,4.790233E-2,4.6376996E-3,4.4500767E-3,-4.239699E-2,-7.7045187E-3,1.184756E-2,2.8459176E-2,-2.3156912E-4,-1.6541112E-2,4.5289397E-2,-1.9627294E-2,-5.2982587E-2],"categories":[],"categories_nodes":[],"categories_segments":[],"categories_sizes":[],"default_left":[0,0,0,0,0,0,0,0,0,0,0,0,0,0,0,0,0,0,0,0,0,0,0,0,0,0,0,0,0,0,0,0,0,0,0,0,0,0,0,0,0,0,0,0,0,0,0,0,0,0,0,0,0,0,0,0,0,0,0,0,0,0,0,0,0,0,0,0,0,0,0,0,0,0,0,0,0,0,0,0,0,0,0,0,0,0,0,0,0,0,0,0,0,0,0,0,0,0,0,0,0,0,0,0,0,0,0,0,0,0,0,0,0,0,0,0,0,0,0,0,0,0,0],"id":9,"left_children":[1,3,5,7,9,11,13,15,17,19,21,23,25,27,29,31,33,35,37,39,41,43,45,47,49,51,53,55,57,59,61,63,65,67,69,71,73,75,77,79,81,83,85,87,89,91,93,95,97,99,101,103,105,107,109,111,113,115,117,119,121,-1,-1,-1,-1,-1,-1,-1,-1,-1,-1,-1,-1,-1,-1,-1,-1,-1,-1,-1,-1,-1,-1,-1,-1,-1,-1,-1,-1,-1,-1,-1,-1,-1,-1,-1,-1,-1,-1,-1,-1,-1,-1,-1,-1,-1,-1,-1,-1,-1,-1,-1,-1,-1,-1,-1,-1,-1,-1,-1,-1,-1,-1],"loss_changes":[4.469742E2,2.5869482E2,1.007663E2,1.3745407E2,1.557435E2,8.268317E1,9.000958E1,9.05809E1,1.4683626E2,7.7001076E1,1.1191002E2,7.183446E1,4.0182487E1,7.725647E1,4.987047E1,8.1222595E1,6.0279495E1,9.4854004E1,1.0013171E2,6.57913E1,6.510988E1,1.0087909E2,9.4769714E1,6.210729E1,8.003658E1,7.096854E1,5.2575607E1,1.14356415E2,6.154071E1,4.1983368E1,4.7656307E0,6.2522034E1,6.648798E1,5.522335E1,4.6679714E1,6.579755E1,6.858794E1,9.892353E1,9.339407E1,2.8549713E1,6.0742783E1,2.9148516E1,3.9980255E1,7.306186E1,4.526172E1,1.024017E2,1.2422771E2,6.482765E1,4.657361E1,3.904342E1,7.543275E1,3.1810013E1,2.6723175E1,4.2787964E1,3.744932E1,1.2086304E2,4.886458E1,6.4415375E1,5.104535E1,4.186869E1,5.2444763E1,0E0,0E0,0E0,0E0,0E0,0E0,0E0,0E0,0E0,0E0,0E0,0E0,0E0,0E0,0E0,0E0,0E0,0E0,0E0,0E0,0E0,0E0,0E0,0E0,0E0,0E0,0E0,0E0,0E0,0E0,0E0,0E0,0E0,0E0,0E0,0E0,0E0,0E0,0E0,0E0,0E0,0E0,0E0,0E0,0E0,0E0,0E0,0E0,0E0,0E0,0E0,0E0,0E0,0E0,0E0,0E0,0E0,0E0,0E0,0E0,0E0,0E0],"parents":[2147483647,0,0,1,1,2,2,3,3,4,4,5,5,6,6,7,7,8,8,9,9,10,10,11,11,12,12,13,13,14,14,15,15,16,16,17,17,18,18,19,19,20,20,21,21,22,22,23,23,24,24,25,25,26,26,27,27,28,28,29,29,30,30,31,31,32,32,33,33,34,34,35,35,36,36,37,37,38,38,39,39,40,40,41,41,42,42,43,43,44,44,45,45,46,46,47,47,48,48,49,49,50,50,51,51,52,52,53,53,54,54,55,55,56,56,57,57,58,58,59,59,60,60],"right_children":[2,4,6,8,10,12,14,16,18,20,22,24,26,28,30,32,34,36,38,40,42,44,46,48,50,52,54,56,58,60,62,64,66,68,70,72,74,76,78,80,82,84,86,88,90,92,94,96,98,100,102,104,106,108,110,112,114,116,118,120,122,-1,-1,-1,-1,-1,-1,-1,-1,-1,-1,-1,-1,-1,-1,-1,-1,-1,-1,-1,-1,-1,-1,-1,-1,-1,-1,-1,-1,-1,-1,-1,-1,-1,-1,-1,-1,-1,-1,-1,-1,-1,-1,-1,-1,-1,-1,-1,-1,-1,-1,-1,-1,-1,-1,-1,-1,-1,-1,-1,-1,-1,-1],"split_conditions":[6.311994E-1,1.4199501E-1,-5.945003E-1,-2.549487E-1,-6.7441475E-1,1.028757E2,4.5022587E-3,4.8410785E-1,-5.945003E-1,8.6715674E-1,-2.636655E-1,-1.80505E0,1.2905936E-1,1.48E0,8.880964E-3,7.8290653E-1,8.503801E-1,3.072159E-3,3.07696E2,-5.1296514E-1,-1.0775486E0,1.4977E2,2.51E0,1.18E0,3.238888E-4,1.0600989E0,3.99E0,9.5105654E-1,1.09629E0,0E0,4.4883895E0,-2.858366E-3,-6.4349097E-1,-1.1434374E0,4.9493844E-3,-8.503801E-1,7.7761203E-4,-2.6842758E-1,3.3258481E-3,4.157E5,6.744148E-1,4E-2,-7.1521914E-1,3.5285118E-1,-5.093342E-3,-1.7883317E0,2.577995E6,5E-1,1.867113E0,9.787401E-1,-9.905555E-4,3.7843012E-4,-1.3513662E0,-7.1521914E-1,-3.113154E-5,1.202183E-1,-1.946042E-3,4.21E0,-4.00212E-3,-6.7504895E-1,4.4347113E-1,2.6124025E-2,8.7147325E-2,1.4781083E-2,7.6787234E-3,2.2605425E-2,-1.4636295E-2,6.868581E-3,-4.974415E-3,2.9671922E-2,-8.08865E-2,1.7997461E-3,1.0659459E-2,-1.7201023E-2,9.445721E-3,3.6509465E-3,-3.421411E-3,5.4249924E-2,9.184118E-3,3.282685E-2,-3.00785E-2,4.033017E-3,-3.0198833E-3,-4.071453E-3,-5.4746337E-2,-5.2294335E-3,2.0707762E-2,-3.484017E-3,-1.3794484E-2,-6.0617584E-3,-5.4743078E-2,1.8000765E-2,-4.0272527E-4,-1.5627315E-2,4.4305706E-3,-9.629853E-3,-3.749993E-2,-7.1416534E-3,1.7336704E-2,1.944411E-2,-1.4015004E-2,7.854267E-3,-2.078248E-3,-3.9009344E-2,-8.072484E-3,-6.933422E-3,7.456095E-2,2.850226E-2,-4.7299568E-2,5.1001698E-2,-1.678889E-2,4.790233E-2,4.6376996E-3,4.4500767E-3,-4.239699E-2,-7.7045187E-3,1.184756E-2,2.8459176E-2,-2.3156912E-4,-1.6541112E-2,4.5289397E-2,-1.9627294E-2,-5.2982587E-2],"split_indices":[605,249,615,36,605,376,19,615,615,1007,175,600,1101,346,1000,460,590,101,291,1062,641,611,215,271,73,932,311,171,1007,952,165,94,600,51,860,194,82,239,53,1064,1081,248,926,275,93,51,536,1074,249,176,102,82,872,816,113,78,101,261,94,952,1101,0,0,0,0,0,0,0,0,0,0,0,0,0,0,0,0,0,0,0,0,0,0,0,0,0,0,0,0,0,0,0,0,0,0,0,0,0,0,0,0,0,0,0,0,0,0,0,0,0,0,0,0,0,0,0,0,0,0,0,0,0,0],"split_type":[0,0,0,0,0,0,0,0,0,0,0,0,0,0,0,0,0,0,0,0,0,0,0,0,0,0,0,0,0,0,0,0,0,0,0,0,0,0,0,0,0,0,0,0,0,0,0,0,0,0,0,0,0,0,0,0,0,0,0,0,0,0,0,0,0,0,0,0,0,0,0,0,0,0,0,0,0,0,0,0,0,0,0,0,0,0,0,0,0,0,0,0,0,0,0,0,0,0,0,0,0,0,0,0,0,0,0,0,0,0,0,0,0,0,0,0,0,0,0,0,0,0,0],"sum_hessian":[1.2462412E5,8.634805E4,3.827607E4,5.6036777E4,3.0311266E4,1.5311555E4,2.2964518E4,2.1770584E4,3.4266195E4,1.4462426E4,1.5848841E4,1.354098E4,1.7705736E3,2.1694795E4,1.2697217E3,1.7294027E4,4.4765557E3,1.1315412E4,2.2950783E4,1.3115823E4,1.346602E3,7.119997E3,8.728844E3,1.9596198E3,1.1581361E4,1.4498381E3,3.207354E2,1.4845273E3,2.0210268E4,1.2535406E3,1.6181084E1,1.6538742E4,7.5528436E2,4.2382563E3,2.3829973E2,1.0267187E4,1.0482251E3,2.1956412E4,9.94371E2,2.4037492E2,1.2875448E4,1.3280922E2,1.2137928E3,6.8782695E3,2.4172752E2,5.4408076E3,3.2880361E3,1.088685E3,8.7093463E2,8.945504E2,1.0686811E4,1.4021074E3,4.7730736E1,2.2623717E2,9.449825E1,1.2408885E3,2.4363884E2,1.931222E4,8.9804767E2,1.1172619E2,1.1418145E3,6.710774E0,9.470309E0,4.135934E3,1.2402809E4,1.4824487E2,6.070395E2,1.5522748E3,2.6859814E3,2.2930562E2,8.994103E0,2.9371028E3,7.3300835E3,6.7294366E2,3.7528146E2,7.5175195E3,1.4438892E4,1.3187311E2,8.6249786E2,1.8739443E1,2.2163548E2,7.903249E3,4.9721997E3,9.2620735E1,4.0188488E1,1.7251323E2,1.0412795E3,3.3913005E3,3.486969E3,6.614265E1,1.7558488E2,9.0593414E2,4.5348735E3,2.052029E3,1.2360071E3,8.073799E2,2.8130524E2,5.799993E2,2.909353E2,7.97573E2,9.697742E1,2.4919294E3,8.194881E3,8.793355E1,1.314174E3,1.3743134E1,3.3987602E1,1.9711031E1,2.0652614E2,2.8208263E1,6.628999E1,1.8986136E2,1.0510272E3,8.487793E1,1.5876091E2,1.8882408E4,4.2981125E2,1.979978E2,7.0004987E2,6.6819885E1,4.49063E1,1.0084823E3,1.3333217E2],"tree_param":{"num_deleted":"0","num_feature":"1115","num_nodes":"123","size_leaf_vector":"1"}},{"base_weights":[1.7004822E-3,4.554333E-2,-7.112014E-2,1.7906576E-1,3.2741632E-2,-7.916992E-2,2.4351056E-1,8.181576E-2,2.3929809E-1,-1.01011945E-2,6.6177696E-2,-7.578877E-2,-6.212776E-1,-2.6989374E-1,3.1214038E-1,-1.0115093E-1,1.3872576E-1,7.397445E-2,2.858178E-1,4.61763E-2,-5.3956695E-2,-2.394231E-1,7.3962666E-2,1.7734656E-2,-9.525377E-2,5.586821E-1,-7.148465E-1,3.201302E-1,-6.088346E-1,7.499294E-1,2.330033E-1,-1.9347362E-2,-4.3203327E-1,9.6582085E-2,4.2380098E-1,1.6455702E-2,4.1766772E-1,2.9508394E-1,-7.8702706E-1,-1.8517683E-1,6.582953E-2,-7.515985E-2,1.6878252E-1,-3.050881E-1,7.7504635E-1,1.5601678E-1,4.4852566E-2,4.4994763E-1,-2.144878E-3,-2.4298338E-2,-1.2705632E-1,1.2247479E0,-3.1386487E-2,-2.9257295E-1,-1.0276794E0,6.4615095E-1,-6.3077904E-2,-1.2966989E0,-1.02933735E-1,9.9036276E-1,2.790755E-1,3.3396327E-1,-1.983697E-1,5.7264097E-2,-2.5671888E-3,-7.581276E-3,-3.629419E-2,6.4408206E-3,-1.7508855E-2,-3.910724E-2,2.4150267E-2,2.23704E-3,-5.305615E-2,3.921795E-3,3.8433544E-2,1.5860861E-2,-3.7937926E-3,-7.0902325E-2,1.2276252E-2,-7.3505763E-4,-2.5330622E-2,7.7805743E-3,-1.5461927E-4,8.8906614E-4,-6.9778943E-3,3.42872E-3,2.6389955E-2,-3.8835183E-2,-1.0128071E-2,-3.7119534E-2,4.9877692E-2,1.7654588E-2,6.5028802E-3,2.9714487E-3,-5.559956E-3,3.3831943E-2,-1.5584357E-2,-8.00282E-3,2.303186E-3,-1.3711818E-2,-2.4714543E-6,-4.7805374E-3,-1.182714E-2,1.2445128E-2,8.852021E-2,4.9533895E-3,-6.76553E-2,2.1385548E-3,-6.148636E-2,5.2056264E-2,-1.6788753E-2,-2.1945916E-3,-7.9096235E-2,-4.081806E-2,2.555403E-2,5.5164117E-2,-3.258189E-2,4.2702254E-2,-1.14659E-2,3.101007E-2,8.995044E-3,-3.695733E-2,1.0131641E-2],"categories":[],"categories_nodes":[],"categories_segments":[],"categories_sizes":[],"default_left":[0,0,0,0,0,0,0,0,0,0,0,0,0,0,0,0,0,0,0,0,0,0,0,0,0,0,0,0,0,0,0,0,0,0,0,0,0,0,0,0,0,0,0,0,0,0,0,0,0,0,0,0,0,0,0,0,0,0,0,0,0,0,0,0,0,0,0,0,0,0,0,0,0,0,0,0,0,0,0,0,0,0,0,0,0,0,0,0,0,0,0,0,0,0,0,0,0,0,0,0,0,0,0,0,0,0,0,0,0,0,0,0,0,0,0,0,0,0,0,0,0,0,0],"id":10,"left_children":[1,3,5,7,9,11,13,15,17,19,21,23,25,27,29,31,33,35,37,39,41,43,45,47,49,51,53,55,57,59,61,63,65,67,69,71,73,75,77,79,81,83,85,87,89,91,93,95,97,99,101,103,-1,105,107,109,-1,111,113,115,117,119,121,-1,-1,-1,-1,-1,-1,-1,-1,-1,-1,-1,-1,-1,-1,-1,-1,-1,-1,-1,-1,-1,-1,-1,-1,-1,-1,-1,-1,-1,-1,-1,-1,-1,-1,-1,-1,-1,-1,-1,-1,-1,-1,-1,-1,-1,-1,-1,-1,-1,-1,-1,-1,-1,-1,-1,-1,-1,-1,-1,-1],"loss_changes":[3.9745575E2,1.3279935E2,1.18492294E2,3.976596E1,1.015857E2,8.3497986E1,4.1208588E1,2.7111862E1,3.221788E1,7.67175E1,9.475867E1,8.2541046E1,3.1597809E1,2.7816126E1,3.5413612E1,1.6660244E1,2.3761684E1,1.8203577E1,3.273236E1,6.18957E1,8.251361E1,6.6094154E1,9.274844E1,6.715268E1,8.466388E1,1.7608074E1,3.4204178E1,2.6994944E1,3.0379292E1,1.7376E1,3.8144073E1,1.8446363E1,9.863848E0,2.495721E1,1.8563118E1,2.40941E1,1.5582657E1,2.6707764E1,1.8850742E1,5.833862E1,7.766291E1,9.549878E1,5.4531807E1,4.471322E1,2.1137627E1,5.1933533E1,6.522111E1,5.95822E1,5.686705E1,7.037656E1,8.9154175E1,6.8077908E0,0E0,4.7242012E1,3.2631683E1,1.7060413E1,0E0,1.3046154E1,2.3194046E1,1.9941338E1,1.6224178E1,3.1065804E1,3.624439E1,0E0,0E0,0E0,0E0,0E0,0E0,0E0,0E0,0E0,0E0,0E0,0E0,0E0,0E0,0E0,0E0,0E0,0E0,0E0,0E0,0E0,0E0,0E0,0E0,0E0,0E0,0E0,0E0,0E0,0E0,0E0,0E0,0E0,0E0,0E0,0E0,0E0,0E0,0E0,0E0,0E0,0E0,0E0,0E0,0E0,0E0,0E0,0E0,0E0,0E0,0E0,0E0,0E0,0E0,0E0,0E0,0E0,0E0,0E0,0E0],"parents":[2147483647,0,0,1,1,2,2,3,3,4,4,5,5,6,6,7,7,8,8,9,9,10,10,11,11,12,12,13,13,14,14,15,15,16,16,17,17,18,18,19,19,20,20,21,21,22,22,23,23,24,24,25,25,26,26,27,27,28,28,29,29,30,30,31,31,32,32,33,33,34,34,35,35,36,36,37,37,38,38,39,39,40,40,41,41,42,42,43,43,44,44,45,45,46,46,47,47,48,48,49,49,50,50,51,51,53,53,54,54,55,55,57,57,58,58,59,59,60,60,61,61,62,62],"right_children":[2,4,6,8,10,12,14,16,18,20,22,24,26,28,30,32,34,36,38,40,42,44,46,48,50,52,54,56,58,60,62,64,66,68,70,72,74,76,78,80,82,84,86,88,90,92,94,96,98,100,102,104,-1,106,108,110,-1,112,114,116,118,120,122,-1,-1,-1,-1,-1,-1,-1,-1,-1,-1,-1,-1,-1,-1,-1,-1,-1,-1,-1,-1,-1,-1,-1,-1,-1,-1,-1,-1,-1,-1,-1,-1,-1,-1,-1,-1,-1,-1,-1,-1,-1,-1,-1,-1,-1,-1,-1,-1,-1,-1,-1,-1,-1,-1,-1,-1,-1,-1,-1,-1],"split_conditions":[2.0287517E-1,-8.97712E-1,1.1895817E-3,-3.1628802E-1,1.39E0,1.6754099E0,-9.466715E-3,2.1111111E-1,-3.737845E-1,0E0,-9.966589E-1,3.809984E-4,-7.81832E-1,-1E-2,-5.7688826E-3,-1.8409471E-1,8.6314213E-1,1.1905586E0,9.9560665E-3,-2.6502472E-1,1.857E3,1.3645058E-3,-1.9718525E-4,1.111E3,2.4205393E-1,1.4671525E-3,-5.7301517E-3,1.797485E0,1.2713513E-1,3.4466838E-3,2.7285964E0,-1.7951111E-3,-6.250669E-1,1.73413E4,1.4402547E-3,1.9110512E0,3.0024636E-3,-5.7346646E-5,4.9E-1,-5.28E-1,6.5E0,1.288E3,1.0539076E-4,-1.4369912E0,1.91E0,-2.0639682E-2,2.6502472E-1,1.322303E-1,6.4825E0,1.1E2,9.181355E-4,3.0675577E-4,-3.1386487E-2,7.503858E-4,-1.3988957E0,1.9747082E-3,-6.3077904E-2,-3.319974E-2,-4.0944722E-1,6.6857063E-3,4.1554543E-1,-4.2378968E-3,6.6296E0,5.7264097E-2,-2.5671888E-3,-7.581276E-3,-3.629419E-2,6.4408206E-3,-1.7508855E-2,-3.910724E-2,2.4150267E-2,2.23704E-3,-5.305615E-2,3.921795E-3,3.8433544E-2,1.5860861E-2,-3.7937926E-3,-7.0902325E-2,1.2276252E-2,-7.3505763E-4,-2.5330622E-2,7.7805743E-3,-1.5461927E-4,8.8906614E-4,-6.9778943E-3,3.42872E-3,2.6389955E-2,-3.8835183E-2,-1.0128071E-2,-3.7119534E-2,4.9877692E-2,1.7654588E-2,6.5028802E-3,2.9714487E-3,-5.559956E-3,3.3831943E-2,-1.5584357E-2,-8.00282E-3,2.303186E-3,-1.3711818E-2,-2.4714543E-6,-4.7805374E-3,-1.182714E-2,1.2445128E-2,8.852021E-2,4.9533895E-3,-6.76553E-2,2.1385548E-3,-6.148636E-2,5.2056264E-2,-1.6788753E-2,-2.1945916E-3,-7.9096235E-2,-4.081806E-2,2.555403E-2,5.5164117E-2,-3.258189E-2,4.2702254E-2,-1.14659E-2,3.101007E-2,8.995044E-3,-3.695733E-2,1.0131641E-2],"split_indices":[249,140,1000,320,546,515,745,183,350,600,175,70,1086,243,740,104,175,300,780,687,391,58,97,386,300,20,46,987,144,730,782,1089,249,411,121,435,121,95,250,591,496,386,113,255,235,52,737,81,601,571,58,32,0,73,265,855,0,109,1031,779,42,795,601,0,0,0,0,0,0,0,0,0,0,0,0,0,0,0,0,0,0,0,0,0,0,0,0,0,0,0,0,0,0,0,0,0,0,0,0,0,0,0,0,0,0,0,0,0,0,0,0,0,0,0,0,0,0,0,0,0,0,0,0],"split_type":[0,0,0,0,0,0,0,0,0,0,0,0,0,0,0,0,0,0,0,0,0,0,0,0,0,0,0,0,0,0,0,0,0,0,0,0,0,0,0,0,0,0,0,0,0,0,0,0,0,0,0,0,0,0,0,0,0,0,0,0,0,0,0,0,0,0,0,0,0,0,0,0,0,0,0,0,0,0,0,0,0,0,0,0,0,0,0,0,0,0,0,0,0,0,0,0,0,0,0,0,0,0,0,0,0,0,0,0,0,0,0,0,0,0,0,0,0,0,0,0,0,0,0],"sum_hessian":[1.24489125E5,7.770644E4,4.6782688E4,6.79661E3,7.090983E4,4.5616656E4,1.1660297E3,2.6010386E3,4.195571E3,3.1081584E4,3.9828246E4,4.5335223E4,2.814336E2,1.369733E2,1.0290563E3,6.1648706E2,1.9845516E3,9.223669E2,3.273204E3,1.3611858E4,1.7469727E4,9.88335E2,3.883991E4,7.809223E3,3.7526E4,2.0233812E1,2.611998E2,4.98885E1,8.708479E1,1.5604878E2,8.7300757E2,4.9537653E2,1.2111053E2,1.7304263E3,2.541254E2,7.91281E2,1.310859E2,3.2459868E3,2.7217375E1,1.0647197E3,1.2547139E4,1.5952295E4,1.5174309E3,9.290001E2,5.9334873E1,1.0168801E4,2.8671111E4,3.426592E2,7.466564E3,1.1615434E4,2.5910566E4,1.299195E1,7.2418623E0,1.1211614E2,1.4908365E2,4.190555E1,7.982951E0,3.61591E1,5.0925694E1,1.0242932E2,5.3619465E1,7.0780756E2,1.6520001E2,1.2231884E1,4.8314465E2,6.2922676E1,5.818785E1,1.614848E3,1.1557816E2,1.1241661E1,2.4288374E2,7.7206647E2,1.92145E1,6.7427765E1,6.3658134E1,3.0636113E3,1.8237538E2,1.6721771E1,1.0495603E1,6.9661945E2,3.681003E2,5.449055E3,7.0980835E3,6.5288438E3,9.423451E3,1.1874589E3,3.2997208E2,1.6454657E2,7.6445355E2,7.231593E0,5.210328E1,1.1816425E3,8.987158E3,2.622295E4,2.4481616E3,2.64251E2,7.840818E1,1.7462668E3,5.7202974E3,1.0259847E3,1.0589448E4,2.0131416E4,5.7791504E3,5.247248E0,7.744702E0,8.247246E1,2.9643684E1,2.3718126E1,1.2536552E2,2.9914255E1,1.1991292E1,6.9846506E0,2.9174448E1,2.3478813E1,2.7446878E1,9.6202515E1,6.2268114E0,2.4935442E1,2.8684023E1,2.4637808E2,4.6142944E2,7.008804E1,9.511197E1],"tree_param":{"num_deleted":"0","num_feature":"1115","num_nodes":"123","size_leaf_vector":"1"}},{"base_weights":[-6.2816055E-4,3.802482E-2,-8.628882E-2,1.095123E-1,-1.050905E-2,-5.8477268E-2,-1.7932904E-1,9.7035795E-2,4.1740552E-1,4.39186E-2,-8.904122E-2,1.4624271E-2,-1.1457281E-1,-4.8081544E-1,-1.5404424E-1,-4.585245E-2,1.1875531E-1,4.8073405E-1,-1.7334037E-1,2.746876E-2,2.7232358E-1,3.312993E-2,-1.5476407E-1,-1.8391225E-1,4.9643274E-2,-1.4129737E-1,1.1511516E-1,-6.774659E-1,3.404511E-2,-1.4337674E-1,-7.229928E-1,7.312514E-1,-7.045554E-2,-1.7516164E-1,1.3042882E-1,5.9247833E-1,1.5961644E-1,3.640749E-1,-4.9555472E-1,-1.597967E-1,5.209441E-2,3.052566E-1,-7.42647E-1,5.0471798E-2,-7.0101756E-1,-3.0909285E-1,-1.1933372E-1,-4.9612045E-1,-5.880213E-2,1.2045205E0,4.371673E-2,-1.6414268E-1,1.2667432E-1,1.494478E-1,-8.6217654E-1,-1.5275827E-2,-8.0018795E-1,2.4902588E-1,-1.3076891E0,-1.1080307E-1,-3.2867634E-1,-9.329285E-1,6.745345E-2,5.974214E-2,8.964444E-3,3.1098312E-2,-4.5499643E-3,-1.5261191E-2,2.0678407E-2,7.871275E-3,9.861789E-4,5.4776717E-2,2.5179481E-2,1.2885739E-2,-6.724618E-2,4.4997144E-2,-2.9172663E-2,-8.5928485E-2,-1.5110105E-2,-6.594479E-3,-4.7441278E-2,4.3334356E-3,-2.1637771E-3,1.964076E-2,-4.930341E-3,6.3238926E-2,-5.168689E-2,3.4350548E-2,1.6518893E-3,-4.6270322E-2,2.0526996E-2,-9.671408E-3,-2.9804086E-2,-7.7917813E-3,5.2066776E-3,-2.814284E-2,3.822261E-2,-9.3111565E-4,-4.634132E-2,7.412888E-2,-1.2866578E-2,-3.7198726E-2,2.5614714E-3,4.0195487E-3,-9.630985E-3,-4.274983E-2,9.05621E-3,1.251535E-2,-1.1105182E-2,3.7337627E-2,-5.9628565E-2,1.3516097E-2,-5.177292E-2,-4.304085E-2,8.573133E-3,1.990427E-2,-6.794769E-2,-1.9061705E-2,-8.410778E-2,-4.031749E-3,-1.4211388E-2,2.0009935E-2,-1.9673854E-2,4.082882E-2,-5.2889567E-2,6.5025516E-2,-4.652394E-2],"categories":[],"categories_nodes":[],"categories_segments":[],"categories_sizes":[],"default_left":[0,0,0,0,0,0,0,0,0,0,0,0,0,0,0,0,0,0,0,0,0,0,0,0,0,0,0,0,0,0,0,0,0,0,0,0,0,0,0,0,0,0,0,0,0,0,0,0,0,0,0,0,0,0,0,0,0,0,0,0,0,0,0,0,0,0,0,0,0,0,0,0,0,0,0,0,0,0,0,0,0,0,0,0,0,0,0,0,0,0,0,0,0,0,0,0,0,0,0,0,0,0,0,0,0,0,0,0,0,0,0,0,0,0,0,0,0,0,0,0,0,0,0,0,0,0,0],"id":11,"left_children":[1,3,5,7,9,11,13,15,17,19,21,23,25,27,29,31,33,35,37,39,41,43,45,47,49,51,53,55,57,59,61,63,65,67,69,71,73,75,77,79,81,83,85,87,89,91,93,95,97,99,101,103,105,107,109,111,113,115,117,119,121,123,125,-1,-1,-1,-1,-1,-1,-1,-1,-1,-1,-1,-1,-1,-1,-1,-1,-1,-1,-1,-1,-1,-1,-1,-1,-1,-1,-1,-1,-1,-1,-1,-1,-1,-1,-1,-1,-1,-1,-1,-1,-1,-1,-1,-1,-1,-1,-1,-1,-1,-1,-1,-1,-1,-1,-1,-1,-1,-1,-1,-1,-1,-1,-1,-1],"loss_changes":[4.121319E2,2.9758865E2,1.00112274E2,1.3314252E2,2.183642E2,1.22204636E2,6.774768E1,1.03464935E2,5.062288E1,1.1333058E2,1.6793799E2,8.994856E1,1.0351813E2,6.977542E1,4.968686E1,8.4080986E1,9.9302216E1,4.3600433E1,2.293007E1,1.2980191E2,6.792369E1,9.310664E1,7.4276886E1,7.568108E1,7.510715E1,9.249368E1,5.9027534E1,4.0396545E1,5.5326157E1,4.8618225E1,2.5178253E1,3.417901E1,6.066645E1,8.476409E1,8.3161285E1,3.9725433E1,4.6950203E1,2.5779562E1,1.8817291E1,7.1794044E1,8.203855E1,6.9507935E1,3.861594E1,7.92262E1,4.252117E1,8.404964E1,9.025241E1,4.7062805E1,4.823301E1,2.3280731E1,6.473418E1,9.695209E1,6.3522873E1,6.3720654E1,3.2668297E1,2.338818E1,2.497055E1,4.012857E1,8.338581E0,3.5851715E1,5.708432E1,2.6958145E1,4.1219666E1,0E0,0E0,0E0,0E0,0E0,0E0,0E0,0E0,0E0,0E0,0E0,0E0,0E0,0E0,0E0,0E0,0E0,0E0,0E0,0E0,0E0,0E0,0E0,0E0,0E0,0E0,0E0,0E0,0E0,0E0,0E0,0E0,0E0,0E0,0E0,0E0,0E0,0E0,0E0,0E0,0E0,0E0,0E0,0E0,0E0,0E0,0E0,0E0,0E0,0E0,0E0,0E0,0E0,0E0,0E0,0E0,0E0,0E0,0E0,0E0,0E0,0E0,0E0,0E0],"parents":[2147483647,0,0,1,1,2,2,3,3,4,4,5,5,6,6,7,7,8,8,9,9,10,10,11,11,12,12,13,13,14,14,15,15,16,16,17,17,18,18,19,19,20,20,21,21,22,22,23,23,24,24,25,25,26,26,27,27,28,28,29,29,30,30,31,31,32,32,33,33,34,34,35,35,36,36,37,37,38,38,39,39,40,40,41,41,42,42,43,43,44,44,45,45,46,46,47,47,48,48,49,49,50,50,51,51,52,52,53,53,54,54,55,55,56,56,57,57,58,58,59,59,60,60,61,61,62,62],"right_children":[2,4,6,8,10,12,14,16,18,20,22,24,26,28,30,32,34,36,38,40,42,44,46,48,50,52,54,56,58,60,62,64,66,68,70,72,74,76,78,80,82,84,86,88,90,92,94,96,98,100,102,104,106,108,110,112,114,116,118,120,122,124,126,-1,-1,-1,-1,-1,-1,-1,-1,-1,-1,-1,-1,-1,-1,-1,-1,-1,-1,-1,-1,-1,-1,-1,-1,-1,-1,-1,-1,-1,-1,-1,-1,-1,-1,-1,-1,-1,-1,-1,-1,-1,-1,-1,-1,-1,-1,-1,-1,-1,-1,-1,-1,-1,-1,-1,-1,-1,-1,-1,-1,-1,-1,-1,-1],"split_conditions":[6.189419E-1,0E0,7.84843E1,1.0538691E-3,1E0,-1.4199501E-1,7.6423034E-2,1.1538E2,2.6842758E-1,8.380817E-1,-1.0374734E0,-1.8888104E0,1.2909944E-1,8.0392796E-1,2.95E0,-6.7657228E-3,0E0,8E-1,3.96E0,-8.923525E-1,9.5555556E-1,2.73251E2,1.99E0,1.803E6,-1.7853016E0,1.22E0,7.5E0,-5.215226E-1,4.675901E-3,1.2909944E-1,8.6246635E-4,3.21E0,-2.8228095E0,-6.9941074E-1,1.9879995E-3,6.6674314E-3,5.64523E-1,3.4134341E-3,1.348535E-1,9.9012434E-1,1.0082682E0,9.7467875E-1,-3.494924E0,3.7693515E-4,1.382E6,3.009125E-1,3.453853E6,9.7467935E-1,7.112613E-3,1.6405132E-2,-1.567201E-2,-2.5087951E-3,-1.2202938E0,1.3900932E-2,-7.8213983E-4,3.3571743E-4,4.8278826E-1,7.711091E-2,5.9160945E-4,7.9E0,-7.344009E-3,2.7186524E-3,5.92024E-1,5.974214E-2,8.964444E-3,3.1098312E-2,-4.5499643E-3,-1.5261191E-2,2.0678407E-2,7.871275E-3,9.861789E-4,5.4776717E-2,2.5179481E-2,1.2885739E-2,-6.724618E-2,4.4997144E-2,-2.9172663E-2,-8.5928485E-2,-1.5110105E-2,-6.594479E-3,-4.7441278E-2,4.3334356E-3,-2.1637771E-3,1.964076E-2,-4.930341E-3,6.3238926E-2,-5.168689E-2,3.4350548E-2,1.6518893E-3,-4.6270322E-2,2.0526996E-2,-9.671408E-3,-2.9804086E-2,-7.7917813E-3,5.2066776E-3,-2.814284E-2,3.822261E-2,-9.3111565E-4,-4.634132E-2,7.412888E-2,-1.2866578E-2,-3.7198726E-2,2.5614714E-3,4.0195487E-3,-9.630985E-3,-4.274983E-2,9.05621E-3,1.251535E-2,-1.1105182E-2,3.7337627E-2,-5.9628565E-2,1.3516097E-2,-5.177292E-2,-4.304085E-2,8.573133E-3,1.990427E-2,-6.794769E-2,-1.9061705E-2,-8.410778E-2,-4.031749E-3,-1.4211388E-2,2.0009935E-2,-1.9673854E-2,4.082882E-2,-5.2889567E-2,6.5025516E-2,-4.652394E-2],"split_indices":[605,229,371,59,180,234,78,1069,300,1002,45,600,1002,176,346,17,1002,182,286,1040,183,576,235,456,395,256,496,892,50,822,79,531,199,300,101,53,63,92,135,530,30,791,204,79,456,600,471,686,44,50,665,101,300,53,87,101,133,75,100,436,1025,123,142,0,0,0,0,0,0,0,0,0,0,0,0,0,0,0,0,0,0,0,0,0,0,0,0,0,0,0,0,0,0,0,0,0,0,0,0,0,0,0,0,0,0,0,0,0,0,0,0,0,0,0,0,0,0,0,0,0,0,0,0,0,0,0,0],"split_type":[0,0,0,0,0,0,0,0,0,0,0,0,0,0,0,0,0,0,0,0,0,0,0,0,0,0,0,0,0,0,0,0,0,0,0,0,0,0,0,0,0,0,0,0,0,0,0,0,0,0,0,0,0,0,0,0,0,0,0,0,0,0,0,0,0,0,0,0,0,0,0,0,0,0,0,0,0,0,0,0,0,0,0,0,0,0,0,0,0,0,0,0,0,0,0,0,0,0,0,0,0,0,0,0,0,0,0,0,0,0,0,0,0,0,0,0,0,0,0,0,0,0,0,0,0,0,0],"sum_hessian":[1.244686E5,8.5767016E4,3.8701586E4,3.468253E4,5.1084484E4,2.9797293E4,8.904293E3,3.333343E4,1.3491035E3,3.0172348E4,2.0912135E4,1.2937108E4,1.6860184E4,6.872933E2,8.217E3,4.397496E3,2.8935932E4,1.2188022E3,1.3030125E2,2.8146764E4,2.0255853E3,7.3144307E3,1.3597704E4,1.938707E3,1.0998401E4,1.5103668E4,1.7565164E3,4.9724826E2,1.9004503E2,8.067172E3,1.4982764E2,1.3394589E2,4.26355E3,1.1044858E3,2.7831447E4,9.0330774E2,3.1549448E2,4.8675697E1,8.162555E1,3.2700625E3,2.4876701E4,1.9626989E3,6.2886433E1,7.146681E3,1.6774982E2,2.5368877E3,1.1060816E4,5.5355756E2,1.3851495E3,5.5034206E1,1.0943367E4,1.3917892E4,1.1857767E3,1.6978207E3,5.8695717E1,7.804865E1,4.191996E2,1.6456618E2,2.5478857E1,6.8628877E3,1.204284E3,1.1834301E2,3.1484627E1,7.2069275E1,6.1876617E1,1.2186825E2,4.1416816E3,9.0516766E2,1.9931822E2,2.2373984E4,5.4574624E3,1.3377466E2,7.695331E2,2.970233E2,1.8471203E1,3.1191383E1,1.7484314E1,9.995495E0,7.163006E1,3.1596045E3,1.1045801E2,1.8258588E4,6.6181133E3,1.613223E3,3.4947583E2,7.4969974E0,5.5389435E1,1.8934375E2,6.9573374E3,1.3978833E2,2.7961487E1,1.8095928E3,7.27295E2,9.508428E3,1.5523885E3,5.26326E2,2.723155E1,1.3249556E3,6.0193974E1,4.628468E1,8.749525E0,1.0233571E2,1.0841031E4,1.451181E3,1.246671E4,6.1445377E1,1.1243313E3,1.335806E3,3.6201465E2,9.733496E0,4.896222E1,6.1475677E1,1.6572971E1,3.9478296E2,2.4416655E1,1.513506E2,1.3215562E1,7.9917808E0,1.7487076E1,5.847694E3,1.0151938E3,9.777681E1,1.1065073E3,7.4611473E0,1.1088186E2,1.3992424E1,1.7492203E1],"tree_param":{"num_deleted":"0","num_feature":"1115","num_nodes":"127","size_leaf_vector":"1"}},{"base_weights":[-1.1548446E-3,3.748877E-2,-7.719446E-2,7.650636E-2,-3.039281E-2,-1.8319863E-1,-5.467922E-2,1.2608483E-1,2.4278145E-2,1.2553862E-1,-6.0776785E-2,-1.5497762E-1,-5.4602003E-1,-3.1261207E-3,-1.1307389E-1,4.8719727E-2,1.6616867E-1,1.2224702E-1,-3.504177E-2,-1.6996026E-1,1.7234437E-1,-9.006236E-1,-5.710896E-2,5.3854084E-1,-1.6966222E-1,-7.044824E-1,6.0896564E-2,3.7433203E-2,-1.1785137E-1,-8.714909E-2,-4.308907E-1,-3.2605118E-1,6.786232E-2,1.5204185E-1,4.7008988E-1,1.0184797E-1,4.084975E-1,-5.3261545E-2,2.9699573E-1,-3.4582752E-1,1.16356425E-1,2.0906045E-1,-2.9133815E-1,5.972671E-1,-1.0819503E0,-4.061279E-3,-1.1483268E-1,-6.952834E-1,8.3900785E-1,-2.1428862E-1,4.0303618E-2,-7.727272E-1,6.6325617E-1,5.9205025E-1,-4.609257E-1,1.6916033E-2,2.2297528E-1,-1.4810169E-1,2.7243042E-1,-1.02058984E-1,3.784702E-1,2.66668E-1,-5.0059134E-1,1.0498531E-2,-3.1029686E-2,-1.7745394E-2,4.013539E-3,1.1048324E-2,3.5343976E-3,3.4866005E-2,1.10786585E-2,6.4901793E-3,-9.433971E-3,2.6828203E-2,-1.0766096E-2,1.2756789E-2,-3.4223862E-3,2.2672018E-2,-1.4737787E-2,-2.3920076E-2,2.2507587E-2,3.351964E-2,-6.223999E-3,1.1299767E-2,-2.559965E-2,-3.6121115E-2,1.6284114E-2,6.2254567E-2,-1.1981957E-2,-6.583633E-2,-2.4860367E-2,9.209552E-3,-1.5481837E-3,1.369292E-2,-6.583789E-3,2.719341E-2,-5.773691E-2,5.5612594E-2,-1.1051053E-2,7.4152584E-4,-1.3377197E-2,-1.18828025E-2,1.0003886E-2,2.9059207E-2,-4.1306835E-2,-1.5896918E-2,5.486653E-2,4.0453732E-2,-3.4621116E-2,-3.7893288E-2,3.035958E-2,5.7424617E-4,4.3628532E-2,-1.7576335E-2,1.5704786E-2,-6.410025E-3,-3.7419595E-2,4.0633064E-2,2.8631424E-3,1.387383E-2,-5.943065E-3,-9.477816E-3,2.5830595E-2,-2.178793E-2,3.8314562E-2,-3.426277E-2,-8.830454E-3],"categories":[],"categories_nodes":[],"categories_segments":[],"categories_sizes":[],"default_left":[0,0,0,0,0,0,0,0,0,0,0,0,0,0,0,0,0,0,0,0,0,0,0,0,0,0,0,0,0,0,0,0,0,0,0,0,0,0,0,0,0,0,0,0,0,0,0,0,0,0,0,0,0,0,0,0,0,0,0,0,0,0,0,0,0,0,0,0,0,0,0,0,0,0,0,0,0,0,0,0,0,0,0,0,0,0,0,0,0,0,0,0,0,0,0,0,0,0,0,0,0,0,0,0,0,0,0,0,0,0,0,0,0,0,0,0,0,0,0,0,0,0,0,0,0,0,0],"id":12,"left_children":[1,3,5,7,9,11,13,15,17,19,21,23,25,27,29,31,33,35,37,39,41,43,45,47,49,51,53,55,57,59,61,63,65,67,69,71,73,75,77,79,81,83,85,87,89,91,93,95,97,99,101,103,105,107,109,111,113,115,117,119,121,123,125,-1,-1,-1,-1,-1,-1,-1,-1,-1,-1,-1,-1,-1,-1,-1,-1,-1,-1,-1,-1,-1,-1,-1,-1,-1,-1,-1,-1,-1,-1,-1,-1,-1,-1,-1,-1,-1,-1,-1,-1,-1,-1,-1,-1,-1,-1,-1,-1,-1,-1,-1,-1,-1,-1,-1,-1,-1,-1,-1,-1,-1,-1,-1,-1],"loss_changes":[3.658915E2,2.1867126E2,1.00108185E2,1.3573557E2,1.4276779E2,7.509746E1,1.0417817E2,8.337247E1,1.484002E2,6.799383E1,7.754238E1,6.951662E1,5.105478E1,8.555476E1,1.3361151E2,6.586156E1,7.59223E1,5.6142197E1,9.620409E1,3.390708E1,7.2284134E1,3.0430077E1,7.6883484E1,5.306451E1,6.2619232E1,3.975276E1,3.0903969E1,5.16764E1,5.6727776E1,1.041796E2,5.9633957E1,7.059862E1,4.5828987E1,9.488324E1,4.4141357E1,7.304661E1,5.1276382E1,7.061325E1,7.672465E1,4.4205612E1,3.4334538E1,4.8103592E1,8.31369E1,7.125408E0,1.2627686E1,6.6273735E1,7.874707E1,1.6742743E1,3.3449707E1,6.725842E1,5.2065895E1,2.9489792E1,9.133372E0,1.5980968E1,1.8296965E1,5.674218E1,7.0871284E1,5.3073723E1,4.0036716E1,9.274147E1,3.6663475E1,3.95507E1,6.6360016E1,0E0,0E0,0E0,0E0,0E0,0E0,0E0,0E0,0E0,0E0,0E0,0E0,0E0,0E0,0E0,0E0,0E0,0E0,0E0,0E0,0E0,0E0,0E0,0E0,0E0,0E0,0E0,0E0,0E0,0E0,0E0,0E0,0E0,0E0,0E0,0E0,0E0,0E0,0E0,0E0,0E0,0E0,0E0,0E0,0E0,0E0,0E0,0E0,0E0,0E0,0E0,0E0,0E0,0E0,0E0,0E0,0E0,0E0,0E0,0E0,0E0,0E0,0E0,0E0],"parents":[2147483647,0,0,1,1,2,2,3,3,4,4,5,5,6,6,7,7,8,8,9,9,10,10,11,11,12,12,13,13,14,14,15,15,16,16,17,17,18,18,19,19,20,20,21,21,22,22,23,23,24,24,25,25,26,26,27,27,28,28,29,29,30,30,31,31,32,32,33,33,34,34,35,35,36,36,37,37,38,38,39,39,40,40,41,41,42,42,43,43,44,44,45,45,46,46,47,47,48,48,49,49,50,50,51,51,52,52,53,53,54,54,55,55,56,56,57,57,58,58,59,59,60,60,61,61,62,62],"right_children":[2,4,6,8,10,12,14,16,18,20,22,24,26,28,30,32,34,36,38,40,42,44,46,48,50,52,54,56,58,60,62,64,66,68,70,72,74,76,78,80,82,84,86,88,90,92,94,96,98,100,102,104,106,108,110,112,114,116,118,120,122,124,126,-1,-1,-1,-1,-1,-1,-1,-1,-1,-1,-1,-1,-1,-1,-1,-1,-1,-1,-1,-1,-1,-1,-1,-1,-1,-1,-1,-1,-1,-1,-1,-1,-1,-1,-1,-1,-1,-1,-1,-1,-1,-1,-1,-1,-1,-1,-1,-1,-1,-1,-1,-1,-1,-1,-1,-1,-1,-1,-1,-1,-1,-1,-1,-1],"split_conditions":[5.211957E-1,1.9206786E-1,0E0,-6.4020953E-4,-9.515689E-1,4.0606997E-4,8.926508E-2,-2.9302695E-1,